<?xml version="1.0"?>
<!-- DTD for the XMLBIF 0.3 format -->
<!DOCTYPE BIF [
	<!ELEMENT BIF ( NETWORK )*>
	      <!ATTLIST BIF VERSION CDATA #REQUIRED>
	<!ELEMENT NETWORK ( NAME, ( PROPERTY | VARIABLE | DEFINITION )* )>
	<!ELEMENT NAME (#PCDATA)>
	<!ELEMENT VARIABLE ( NAME, ( OUTCOME |  PROPERTY )* ) >
	      <!ATTLIST VARIABLE TYPE (nature|decision|utility) "nature">
	<!ELEMENT OUTCOME (#PCDATA)>
	<!ELEMENT DEFINITION ( FOR | GIVEN | TABLE | PROPERTY )* >
	<!ELEMENT FOR (#PCDATA)>
	<!ELEMENT GIVEN (#PCDATA)>
	<!ELEMENT TABLE (#PCDATA)>
	<!ELEMENT PROPERTY (#PCDATA)>
]>


<BIF VERSION="0.3">
<NETWORK>
<NAME>TrainingData_g8-1</NAME>
<VARIABLE TYPE="nature">
<NAME>PIR_hallway</NAME>
<OUTCOME>off</OUTCOME>
<OUTCOME>on</OUTCOME>
<PROPERTY>position = (0,0)</PROPERTY>
</VARIABLE>
<VARIABLE TYPE="nature">
<NAME>PIR_livingroom</NAME>
<OUTCOME>off</OUTCOME>
<OUTCOME>on</OUTCOME>
<PROPERTY>position = (50,0)</PROPERTY>
</VARIABLE>
<VARIABLE TYPE="nature">
<NAME>PIR_bedroom</NAME>
<OUTCOME>off</OUTCOME>
<OUTCOME>on</OUTCOME>
<PROPERTY>position = (100,0)</PROPERTY>
</VARIABLE>
<VARIABLE TYPE="nature">
<NAME>PIR_bathroom</NAME>
<OUTCOME>off</OUTCOME>
<OUTCOME>on</OUTCOME>
<PROPERTY>position = (150,0)</PROPERTY>
</VARIABLE>
<VARIABLE TYPE="nature">
<NAME>PIR_kitchen</NAME>
<OUTCOME>off</OUTCOME>
<OUTCOME>on</OUTCOME>
<PROPERTY>position = (200,0)</PROPERTY>
</VARIABLE>
<VARIABLE TYPE="nature">
<NAME>PIR_balcony</NAME>
<OUTCOME>off</OUTCOME>
<OUTCOME>on</OUTCOME>
<PROPERTY>position = (250,0)</PROPERTY>
</VARIABLE>
<VARIABLE TYPE="nature">
<NAME>light_hallway</NAME>
<OUTCOME>off</OUTCOME>
<OUTCOME>on</OUTCOME>
<PROPERTY>position = (300,0)</PROPERTY>
</VARIABLE>
<VARIABLE TYPE="nature">
<NAME>light_livingroom</NAME>
<OUTCOME>off</OUTCOME>
<OUTCOME>on</OUTCOME>
<PROPERTY>position = (350,0)</PROPERTY>
</VARIABLE>
<VARIABLE TYPE="nature">
<NAME>light_bedroom</NAME>
<OUTCOME>off</OUTCOME>
<OUTCOME>on</OUTCOME>
<PROPERTY>position = (400,0)</PROPERTY>
</VARIABLE>
<VARIABLE TYPE="nature">
<NAME>light_bathroom</NAME>
<OUTCOME>off</OUTCOME>
<OUTCOME>on</OUTCOME>
<PROPERTY>position = (450,0)</PROPERTY>
</VARIABLE>
<VARIABLE TYPE="nature">
<NAME>light_kitchen</NAME>
<OUTCOME>off</OUTCOME>
<OUTCOME>on</OUTCOME>
<PROPERTY>position = (0,50)</PROPERTY>
</VARIABLE>
<VARIABLE TYPE="nature">
<NAME>light_balcony</NAME>
<OUTCOME>off</OUTCOME>
<OUTCOME>on</OUTCOME>
<PROPERTY>position = (50,50)</PROPERTY>
</VARIABLE>
<VARIABLE TYPE="nature">
<NAME>audio_hallway</NAME>
<OUTCOME>off</OUTCOME>
<OUTCOME>on</OUTCOME>
<PROPERTY>position = (100,50)</PROPERTY>
</VARIABLE>
<VARIABLE TYPE="nature">
<NAME>audio_livingroom</NAME>
<OUTCOME>off</OUTCOME>
<OUTCOME>on</OUTCOME>
<PROPERTY>position = (150,50)</PROPERTY>
</VARIABLE>
<VARIABLE TYPE="nature">
<NAME>audio_bedroom</NAME>
<OUTCOME>off</OUTCOME>
<OUTCOME>on</OUTCOME>
<PROPERTY>position = (200,50)</PROPERTY>
</VARIABLE>
<VARIABLE TYPE="nature">
<NAME>audio_bathroom</NAME>
<OUTCOME>off</OUTCOME>
<OUTCOME>little</OUTCOME>
<OUTCOME>loud</OUTCOME>
<PROPERTY>position = (250,50)</PROPERTY>
</VARIABLE>
<VARIABLE TYPE="nature">
<NAME>audio_kitchen</NAME>
<OUTCOME>off</OUTCOME>
<OUTCOME>little</OUTCOME>
<OUTCOME>loud</OUTCOME>
<PROPERTY>position = (300,50)</PROPERTY>
</VARIABLE>
<VARIABLE TYPE="nature">
<NAME>audio_balcony</NAME>
<OUTCOME>off</OUTCOME>
<OUTCOME>on</OUTCOME>
<PROPERTY>position = (350,50)</PROPERTY>
</VARIABLE>
<VARIABLE TYPE="nature">
<NAME>current_TV_livingroom</NAME>
<OUTCOME>off</OUTCOME>
<OUTCOME>standby</OUTCOME>
<OUTCOME>on</OUTCOME>
<PROPERTY>position = (400,50)</PROPERTY>
</VARIABLE>
<VARIABLE TYPE="nature">
<NAME>current_vacuumCleaner_livingroom</NAME>
<OUTCOME>off</OUTCOME>
<OUTCOME>standby</OUTCOME>
<OUTCOME>on</OUTCOME>
<PROPERTY>position = (450,50)</PROPERTY>
</VARIABLE>
<VARIABLE TYPE="nature">
<NAME>current_kinect_livingroom</NAME>
<OUTCOME>off</OUTCOME>
<OUTCOME>standby</OUTCOME>
<OUTCOME>on</OUTCOME>
<PROPERTY>position = (0,100)</PROPERTY>
</VARIABLE>
<VARIABLE TYPE="nature">
<NAME>current_AC_livingroom</NAME>
<OUTCOME>off</OUTCOME>
<OUTCOME>standby</OUTCOME>
<OUTCOME>on</OUTCOME>
<PROPERTY>position = (50,100)</PROPERTY>
</VARIABLE>
<VARIABLE TYPE="nature">
<NAME>current_fan_livingroom</NAME>
<OUTCOME>off</OUTCOME>
<OUTCOME>standby</OUTCOME>
<OUTCOME>on</OUTCOME>
<PROPERTY>position = (100,100)</PROPERTY>
</VARIABLE>
<VARIABLE TYPE="nature">
<NAME>current_fanHeater_livingroom</NAME>
<OUTCOME>off</OUTCOME>
<OUTCOME>standby</OUTCOME>
<OUTCOME>on</OUTCOME>
<PROPERTY>position = (150,100)</PROPERTY>
</VARIABLE>
<VARIABLE TYPE="nature">
<NAME>current_lamp_bedroom</NAME>
<OUTCOME>off</OUTCOME>
<OUTCOME>standby</OUTCOME>
<OUTCOME>on</OUTCOME>
<PROPERTY>position = (200,100)</PROPERTY>
</VARIABLE>
<VARIABLE TYPE="nature">
<NAME>current_PC_bedroom</NAME>
<OUTCOME>off</OUTCOME>
<OUTCOME>standby</OUTCOME>
<OUTCOME>on</OUTCOME>
<PROPERTY>position = (250,100)</PROPERTY>
</VARIABLE>
<VARIABLE TYPE="nature">
<NAME>current_monitor_bedroom</NAME>
<OUTCOME>off</OUTCOME>
<OUTCOME>standby</OUTCOME>
<OUTCOME>on</OUTCOME>
<PROPERTY>position = (300,100)</PROPERTY>
</VARIABLE>
<VARIABLE TYPE="nature">
<NAME>current_fan_bedroom</NAME>
<OUTCOME>off</OUTCOME>
<OUTCOME>standby</OUTCOME>
<OUTCOME>on</OUTCOME>
<PROPERTY>position = (350,100)</PROPERTY>
</VARIABLE>
<VARIABLE TYPE="nature">
<NAME>current_speaker_bedroom</NAME>
<OUTCOME>off</OUTCOME>
<OUTCOME>standby</OUTCOME>
<OUTCOME>on</OUTCOME>
<PROPERTY>position = (400,100)</PROPERTY>
</VARIABLE>
<VARIABLE TYPE="nature">
<NAME>current_exhaustFan_bathroom</NAME>
<OUTCOME>off</OUTCOME>
<OUTCOME>standby</OUTCOME>
<OUTCOME>on</OUTCOME>
<PROPERTY>position = (450,100)</PROPERTY>
</VARIABLE>
<VARIABLE TYPE="nature">
<NAME>current_fridge_kitchen</NAME>
<OUTCOME>off</OUTCOME>
<OUTCOME>standby</OUTCOME>
<OUTCOME>on</OUTCOME>
<PROPERTY>position = (0,150)</PROPERTY>
</VARIABLE>
<VARIABLE TYPE="nature">
<NAME>current_riceCooker_kitchen</NAME>
<OUTCOME>off</OUTCOME>
<OUTCOME>standby</OUTCOME>
<OUTCOME>on</OUTCOME>
<PROPERTY>position = (50,150)</PROPERTY>
</VARIABLE>
<VARIABLE TYPE="nature">
<NAME>current_microwave_kitchen</NAME>
<OUTCOME>off</OUTCOME>
<OUTCOME>standby</OUTCOME>
<OUTCOME>on</OUTCOME>
<PROPERTY>position = (100,150)</PROPERTY>
</VARIABLE>
<VARIABLE TYPE="nature">
<NAME>current_Dishwasher_kitchen</NAME>
<OUTCOME>off</OUTCOME>
<OUTCOME>standby</OUTCOME>
<OUTCOME>on</OUTCOME>
<PROPERTY>position = (150,150)</PROPERTY>
</VARIABLE>
<VARIABLE TYPE="nature">
<NAME>current_washMachine_balcony</NAME>
<OUTCOME>off</OUTCOME>
<OUTCOME>standby</OUTCOME>
<OUTCOME>on</OUTCOME>
<PROPERTY>position = (200,150)</PROPERTY>
</VARIABLE>
<VARIABLE TYPE="nature">
<NAME>current_waterHeater_balcony</NAME>
<OUTCOME>off</OUTCOME>
<OUTCOME>standby</OUTCOME>
<OUTCOME>on</OUTCOME>
<PROPERTY>position = (250,150)</PROPERTY>
</VARIABLE>
<VARIABLE TYPE="nature">
<NAME>camera_hallway</NAME>
<OUTCOME>off</OUTCOME>
<OUTCOME>on</OUTCOME>
<PROPERTY>position = (300,150)</PROPERTY>
</VARIABLE>
<VARIABLE TYPE="nature">
<NAME>camera_livingroom</NAME>
<OUTCOME>off</OUTCOME>
<OUTCOME>on</OUTCOME>
<PROPERTY>position = (350,150)</PROPERTY>
</VARIABLE>
<VARIABLE TYPE="nature">
<NAME>camera_bedroom</NAME>
<OUTCOME>off</OUTCOME>
<OUTCOME>on</OUTCOME>
<PROPERTY>position = (400,150)</PROPERTY>
</VARIABLE>
<VARIABLE TYPE="nature">
<NAME>camera_kitchen</NAME>
<OUTCOME>off</OUTCOME>
<OUTCOME>on</OUTCOME>
<PROPERTY>position = (450,150)</PROPERTY>
</VARIABLE>
<VARIABLE TYPE="nature">
<NAME>camera_balcony</NAME>
<OUTCOME>off</OUTCOME>
<OUTCOME>on</OUTCOME>
<PROPERTY>position = (0,200)</PROPERTY>
</VARIABLE>
<VARIABLE TYPE="nature">
<NAME>temperature_hallway</NAME>
<OUTCOME>low</OUTCOME>
<OUTCOME>high</OUTCOME>
<PROPERTY>position = (50,200)</PROPERTY>
</VARIABLE>
<VARIABLE TYPE="nature">
<NAME>temperature_livingroom</NAME>
<OUTCOME>low</OUTCOME>
<OUTCOME>high</OUTCOME>
<PROPERTY>position = (100,200)</PROPERTY>
</VARIABLE>
<VARIABLE TYPE="nature">
<NAME>temperature_bedroom</NAME>
<OUTCOME>low</OUTCOME>
<OUTCOME>high</OUTCOME>
<PROPERTY>position = (150,200)</PROPERTY>
</VARIABLE>
<VARIABLE TYPE="nature">
<NAME>temperature_bathroom</NAME>
<OUTCOME>low</OUTCOME>
<OUTCOME>high</OUTCOME>
<PROPERTY>position = (200,200)</PROPERTY>
</VARIABLE>
<VARIABLE TYPE="nature">
<NAME>temperature_kitchen</NAME>
<OUTCOME>low</OUTCOME>
<OUTCOME>high</OUTCOME>
<PROPERTY>position = (250,200)</PROPERTY>
</VARIABLE>
<VARIABLE TYPE="nature">
<NAME>humidity_hallway</NAME>
<OUTCOME>low</OUTCOME>
<OUTCOME>high</OUTCOME>
<PROPERTY>position = (300,200)</PROPERTY>
</VARIABLE>
<VARIABLE TYPE="nature">
<NAME>humidity_livingroom</NAME>
<OUTCOME>low</OUTCOME>
<OUTCOME>high</OUTCOME>
<PROPERTY>position = (350,200)</PROPERTY>
</VARIABLE>
<VARIABLE TYPE="nature">
<NAME>humidity_bedroom</NAME>
<OUTCOME>low</OUTCOME>
<OUTCOME>high</OUTCOME>
<PROPERTY>position = (400,200)</PROPERTY>
</VARIABLE>
<VARIABLE TYPE="nature">
<NAME>humidity_bathroom</NAME>
<OUTCOME>low</OUTCOME>
<OUTCOME>high</OUTCOME>
<PROPERTY>position = (450,200)</PROPERTY>
</VARIABLE>
<VARIABLE TYPE="nature">
<NAME>humidity_kitchen</NAME>
<OUTCOME>low</OUTCOME>
<OUTCOME>high</OUTCOME>
<PROPERTY>position = (0,250)</PROPERTY>
</VARIABLE>
<VARIABLE TYPE="nature">
<NAME>accelerometer</NAME>
<OUTCOME>low</OUTCOME>
<OUTCOME>medium</OUTCOME>
<OUTCOME>high</OUTCOME>
<PROPERTY>position = (50,250)</PROPERTY>
</VARIABLE>
<VARIABLE TYPE="nature">
<NAME>class</NAME>
<OUTCOME>OtherActivity</OUTCOME>
<OUTCOME>g8-1</OUTCOME>
<PROPERTY>position = (100,250)</PROPERTY>
</VARIABLE>
<DEFINITION>
<FOR>PIR_hallway</FOR>
<GIVEN>class</GIVEN>
<TABLE>
0.9966767371601208 0.003323262839879154 
0.9987472365512159 0.0012527634487840824 
</TABLE>
</DEFINITION>
<DEFINITION>
<FOR>PIR_livingroom</FOR>
<GIVEN>class</GIVEN>
<TABLE>
0.8363544813695871 0.16364551863041288 
0.742888725128961 0.2571112748710391 
</TABLE>
</DEFINITION>
<DEFINITION>
<FOR>PIR_bedroom</FOR>
<GIVEN>class</GIVEN>
<TABLE>
0.9998992950654582 1.0070493454179255E-4 
0.9999263080324244 7.369196757553427E-5 
</TABLE>
</DEFINITION>
<DEFINITION>
<FOR>PIR_bathroom</FOR>
<GIVEN>class</GIVEN>
<TABLE>
0.9358509566968781 0.06414904330312185 
0.9445099484156227 0.0554900515843773 
</TABLE>
</DEFINITION>
<DEFINITION>
<FOR>PIR_kitchen</FOR>
<GIVEN>class</GIVEN>
<TABLE>
0.821852970795569 0.178147029204431 
0.9704495210022107 0.02955047899778924 
</TABLE>
</DEFINITION>
<DEFINITION>
<FOR>PIR_balcony</FOR>
<GIVEN>class</GIVEN>
<TABLE>
0.9640483383685801 0.03595166163141994 
0.9999263080324244 7.369196757553427E-5 
</TABLE>
</DEFINITION>
<DEFINITION>
<FOR>light_hallway</FOR>
<GIVEN>class</GIVEN>
<TABLE>
0.9680765357502518 0.031923464249748235 
0.9338983050847458 0.06610169491525424 
</TABLE>
</DEFINITION>
<DEFINITION>
<FOR>light_livingroom</FOR>
<GIVEN>class</GIVEN>
<TABLE>
0.7858006042296073 0.21419939577039274 
7.369196757553427E-5 0.9999263080324244 
</TABLE>
</DEFINITION>
<DEFINITION>
<FOR>light_bedroom</FOR>
<GIVEN>class</GIVEN>
<TABLE>
0.7944612286002014 0.2055387713997986 
0.8560795873249816 0.14392041267501843 
</TABLE>
</DEFINITION>
<DEFINITION>
<FOR>light_bathroom</FOR>
<GIVEN>class</GIVEN>
<TABLE>
0.8363544813695871 0.16364551863041288 
0.8973470891672808 0.10265291083271923 
</TABLE>
</DEFINITION>
<DEFINITION>
<FOR>light_kitchen</FOR>
<GIVEN>class</GIVEN>
<TABLE>
0.8216515609264854 0.1783484390735146 
0.8902726602800295 0.10972733971997052 
</TABLE>
</DEFINITION>
<DEFINITION>
<FOR>light_balcony</FOR>
<GIVEN>class</GIVEN>
<TABLE>
0.9596173212487412 0.04038267875125881 
0.8490051584377303 0.15099484156226972 
</TABLE>
</DEFINITION>
<DEFINITION>
<FOR>audio_hallway</FOR>
<GIVEN>class</GIVEN>
<TABLE>
0.9966767371601208 0.003323262839879154 
0.9987472365512159 0.0012527634487840824 
</TABLE>
</DEFINITION>
<DEFINITION>
<FOR>audio_livingroom</FOR>
<GIVEN>class</GIVEN>
<TABLE>
0.9998992950654582 1.0070493454179255E-4 
0.6002210759027266 0.3997789240972734 
</TABLE>
</DEFINITION>
<DEFINITION>
<FOR>audio_bedroom</FOR>
<GIVEN>class</GIVEN>
<TABLE>
0.9998992950654582 1.0070493454179255E-4 
0.9999263080324244 7.369196757553427E-5 
</TABLE>
</DEFINITION>
<DEFINITION>
<FOR>audio_bathroom</FOR>
<GIVEN>class</GIVEN>
<TABLE>
0.9357567213775048 0.03675359983888833 0.027489678783606888 
0.9444403507479183 0.00478962493552428 0.05077002431655737 
</TABLE>
</DEFINITION>
<DEFINITION>
<FOR>audio_kitchen</FOR>
<GIVEN>class</GIVEN>
<TABLE>
0.8334508105930923 1.006947940791461E-4 0.1664484946128285 
0.9703780119372191 7.36865374696043E-5 0.029548301525311325 
</TABLE>
</DEFINITION>
<DEFINITION>
<FOR>audio_balcony</FOR>
<GIVEN>class</GIVEN>
<TABLE>
0.9998992950654582 1.0070493454179255E-4 
0.9999263080324244 7.369196757553427E-5 
</TABLE>
</DEFINITION>
<DEFINITION>
<FOR>current_TV_livingroom</FOR>
<GIVEN>class</GIVEN>
<TABLE>
1.006947940791461E-4 0.8096868391904138 0.190212466015507 
7.36865374696043E-5 0.2912828826173458 0.7086434308451846 
</TABLE>
</DEFINITION>
<DEFINITION>
<FOR>current_vacuumCleaner_livingroom</FOR>
<GIVEN>class</GIVEN>
<TABLE>
0.9597220823683416 1.006947940791461E-4 0.040177222837579296 
0.7334021074349716 7.36865374696043E-5 0.2665242060275588 
</TABLE>
</DEFINITION>
<DEFINITION>
<FOR>current_kinect_livingroom</FOR>
<GIVEN>class</GIVEN>
<TABLE>
1.006947940791461E-4 0.8062632161917229 0.19363608901419796 
7.36865374696043E-5 0.8017832142067645 0.19814309925576598 
</TABLE>
</DEFINITION>
<DEFINITION>
<FOR>current_AC_livingroom</FOR>
<GIVEN>class</GIVEN>
<TABLE>
0.14288591279830834 1.006947940791461E-4 0.8570133924076125 
7.36865374696043E-5 7.36865374696043E-5 0.9998526269250608 
</TABLE>
</DEFINITION>
<DEFINITION>
<FOR>current_fan_livingroom</FOR>
<GIVEN>class</GIVEN>
<TABLE>
0.7792770113785117 1.006947940791461E-4 0.2206222938274091 
0.799425245007737 7.36865374696043E-5 0.20050106845479332 
</TABLE>
</DEFINITION>
<DEFINITION>
<FOR>current_fanHeater_livingroom</FOR>
<GIVEN>class</GIVEN>
<TABLE>
0.9436109153156782 1.006947940791461E-4 0.05628838989024267 
0.9550512121435414 7.36865374696043E-5 0.04487510131898902 
</TABLE>
</DEFINITION>
<DEFINITION>
<FOR>current_lamp_bedroom</FOR>
<GIVEN>class</GIVEN>
<TABLE>
0.8755412345181754 1.006947940791461E-4 0.12435807068774545 
0.9149657357600767 7.36865374696043E-5 0.08496057770245376 
</TABLE>
</DEFINITION>
<DEFINITION>
<FOR>current_PC_bedroom</FOR>
<GIVEN>class</GIVEN>
<TABLE>
1.006947940791461E-4 0.833249421004934 0.1666498842009868 
7.36865374696043E-5 0.8807751823741803 0.11915113108835015 
</TABLE>
</DEFINITION>
<DEFINITION>
<FOR>current_monitor_bedroom</FOR>
<GIVEN>class</GIVEN>
<TABLE>
1.006947940791461E-4 0.8529856006444467 0.14691370456147418 
7.36865374696043E-5 0.9019969051654263 0.09792940829710411 
</TABLE>
</DEFINITION>
<DEFINITION>
<FOR>current_fan_bedroom</FOR>
<GIVEN>class</GIVEN>
<TABLE>
0.7247004329876146 1.006947940791461E-4 0.2751988722183063 
0.7888143836121141 7.36865374696043E-5 0.21111192985041632 
</TABLE>
</DEFINITION>
<DEFINITION>
<FOR>current_speaker_bedroom</FOR>
<GIVEN>class</GIVEN>
<TABLE>
0.8433189004128486 1.006947940791461E-4 0.1565804047930722 
0.8878490899712622 7.36865374696043E-5 0.11207722349126814 
</TABLE>
</DEFINITION>
<DEFINITION>
<FOR>current_exhaustFan_bathroom</FOR>
<GIVEN>class</GIVEN>
<TABLE>
0.9540831738999094 1.006947940791461E-4 0.045816131306011476 
0.945619335347432 7.36865374696043E-5 0.054306978115098374 
</TABLE>
</DEFINITION>
<DEFINITION>
<FOR>current_fridge_kitchen</FOR>
<GIVEN>class</GIVEN>
<TABLE>
1.006947940791461E-4 0.8048534890746148 0.195045816131306 
7.36865374696043E-5 0.8560165057843931 0.1439098076781372 
</TABLE>
</DEFINITION>
<DEFINITION>
<FOR>current_riceCooker_kitchen</FOR>
<GIVEN>class</GIVEN>
<TABLE>
1.006947940791461E-4 0.8070687745443561 0.1928305306615648 
7.36865374696043E-5 0.9031758897649399 0.09675042369759045 
</TABLE>
</DEFINITION>
<DEFINITION>
<FOR>current_microwave_kitchen</FOR>
<GIVEN>class</GIVEN>
<TABLE>
1.006947940791461E-4 0.805659047427248 0.19424025777867285 
7.36865374696043E-5 0.9397244123498637 0.06020190111266672 
</TABLE>
</DEFINITION>
<DEFINITION>
<FOR>current_Dishwasher_kitchen</FOR>
<GIVEN>class</GIVEN>
<TABLE>
0.9466317591380525 1.006947940791461E-4 0.05326754606786829 
0.942082381548891 7.36865374696043E-5 0.05784393191363938 
</TABLE>
</DEFINITION>
<DEFINITION>
<FOR>current_washMachine_balcony</FOR>
<GIVEN>class</GIVEN>
<TABLE>
0.9615345886617662 1.006947940791461E-4 0.038364716544154666 
0.8949229975683443 7.36865374696043E-5 0.10500331589418613 
</TABLE>
</DEFINITION>
<DEFINITION>
<FOR>current_waterHeater_balcony</FOR>
<GIVEN>class</GIVEN>
<TABLE>
1.006947940791461E-4 0.9222636189708993 0.07763568623502165 
7.36865374696043E-5 0.8619114287819616 0.13801488468056886 
</TABLE>
</DEFINITION>
<DEFINITION>
<FOR>camera_hallway</FOR>
<GIVEN>class</GIVEN>
<TABLE>
0.9966767371601208 0.003323262839879154 
0.9987472365512159 0.0012527634487840824 
</TABLE>
</DEFINITION>
<DEFINITION>
<FOR>camera_livingroom</FOR>
<GIVEN>class</GIVEN>
<TABLE>
0.8363544813695871 0.16364551863041288 
7.369196757553427E-5 0.9999263080324244 
</TABLE>
</DEFINITION>
<DEFINITION>
<FOR>camera_bedroom</FOR>
<GIVEN>class</GIVEN>
<TABLE>
0.5700906344410877 0.4299093655589124 
0.9162122328666176 0.08378776713338246 
</TABLE>
</DEFINITION>
<DEFINITION>
<FOR>camera_kitchen</FOR>
<GIVEN>class</GIVEN>
<TABLE>
0.821852970795569 0.178147029204431 
0.9704495210022107 0.02955047899778924 
</TABLE>
</DEFINITION>
<DEFINITION>
<FOR>camera_balcony</FOR>
<GIVEN>class</GIVEN>
<TABLE>
0.9640483383685801 0.03595166163141994 
0.9999263080324244 7.369196757553427E-5 
</TABLE>
</DEFINITION>
<DEFINITION>
<FOR>temperature_hallway</FOR>
<GIVEN>class</GIVEN>
<TABLE>
0.9998992950654582 1.0070493454179255E-4 
0.9999263080324244 7.369196757553427E-5 
</TABLE>
</DEFINITION>
<DEFINITION>
<FOR>temperature_livingroom</FOR>
<GIVEN>class</GIVEN>
<TABLE>
0.9998992950654582 1.0070493454179255E-4 
0.9999263080324244 7.369196757553427E-5 
</TABLE>
</DEFINITION>
<DEFINITION>
<FOR>temperature_bedroom</FOR>
<GIVEN>class</GIVEN>
<TABLE>
0.9998992950654582 1.0070493454179255E-4 
0.9999263080324244 7.369196757553427E-5 
</TABLE>
</DEFINITION>
<DEFINITION>
<FOR>temperature_bathroom</FOR>
<GIVEN>class</GIVEN>
<TABLE>
0.9725075528700906 0.027492447129909364 
0.9492262343404569 0.05077376565954311 
</TABLE>
</DEFINITION>
<DEFINITION>
<FOR>temperature_kitchen</FOR>
<GIVEN>class</GIVEN>
<TABLE>
0.8335347432024169 0.1664652567975831 
0.9704495210022107 0.02955047899778924 
</TABLE>
</DEFINITION>
<DEFINITION>
<FOR>humidity_hallway</FOR>
<GIVEN>class</GIVEN>
<TABLE>
0.9998992950654582 1.0070493454179255E-4 
0.9999263080324244 7.369196757553427E-5 
</TABLE>
</DEFINITION>
<DEFINITION>
<FOR>humidity_livingroom</FOR>
<GIVEN>class</GIVEN>
<TABLE>
0.9998992950654582 1.0070493454179255E-4 
0.9999263080324244 7.369196757553427E-5 
</TABLE>
</DEFINITION>
<DEFINITION>
<FOR>humidity_bedroom</FOR>
<GIVEN>class</GIVEN>
<TABLE>
0.9998992950654582 1.0070493454179255E-4 
0.9999263080324244 7.369196757553427E-5 
</TABLE>
</DEFINITION>
<DEFINITION>
<FOR>humidity_bathroom</FOR>
<GIVEN>class</GIVEN>
<TABLE>
0.9725075528700906 0.027492447129909364 
0.9492262343404569 0.05077376565954311 
</TABLE>
</DEFINITION>
<DEFINITION>
<FOR>humidity_kitchen</FOR>
<GIVEN>class</GIVEN>
<TABLE>
0.9998992950654582 1.0070493454179255E-4 
0.9999263080324244 7.369196757553427E-5 
</TABLE>
</DEFINITION>
<DEFINITION>
<FOR>accelerometer</FOR>
<GIVEN>class</GIVEN>
<TABLE>
0.25646964051958515 0.5799013191018024 0.16362904037861242 
7.36865374696043E-5 0.8583744749834206 0.14155183847910988 
</TABLE>
</DEFINITION>
<DEFINITION>
<FOR>class</FOR>
<TABLE>
0.42254659971061365 0.5774534002893863 
</TABLE>
</DEFINITION>
</NETWORK>
</BIF>
