<?xml version="1.0"?>
<!-- DTD for the XMLBIF 0.3 format -->
<!DOCTYPE BIF [
	<!ELEMENT BIF ( NETWORK )*>
	      <!ATTLIST BIF VERSION CDATA #REQUIRED>
	<!ELEMENT NETWORK ( NAME, ( PROPERTY | VARIABLE | DEFINITION )* )>
	<!ELEMENT NAME (#PCDATA)>
	<!ELEMENT VARIABLE ( NAME, ( OUTCOME |  PROPERTY )* ) >
	      <!ATTLIST VARIABLE TYPE (nature|decision|utility) "nature">
	<!ELEMENT OUTCOME (#PCDATA)>
	<!ELEMENT DEFINITION ( FOR | GIVEN | TABLE | PROPERTY )* >
	<!ELEMENT FOR (#PCDATA)>
	<!ELEMENT GIVEN (#PCDATA)>
	<!ELEMENT TABLE (#PCDATA)>
	<!ELEMENT PROPERTY (#PCDATA)>
]>


<BIF VERSION="0.3">
<NETWORK>
<NAME>TrainingData_g9-1</NAME>
<VARIABLE TYPE="nature">
<NAME>PIR_hallway</NAME>
<OUTCOME>off</OUTCOME>
<OUTCOME>on</OUTCOME>
<PROPERTY>position = (0,0)</PROPERTY>
</VARIABLE>
<VARIABLE TYPE="nature">
<NAME>PIR_livingroom</NAME>
<OUTCOME>off</OUTCOME>
<OUTCOME>on</OUTCOME>
<PROPERTY>position = (50,0)</PROPERTY>
</VARIABLE>
<VARIABLE TYPE="nature">
<NAME>PIR_bedroom</NAME>
<OUTCOME>off</OUTCOME>
<OUTCOME>on</OUTCOME>
<PROPERTY>position = (100,0)</PROPERTY>
</VARIABLE>
<VARIABLE TYPE="nature">
<NAME>PIR_bathroom</NAME>
<OUTCOME>off</OUTCOME>
<OUTCOME>on</OUTCOME>
<PROPERTY>position = (150,0)</PROPERTY>
</VARIABLE>
<VARIABLE TYPE="nature">
<NAME>PIR_kitchen</NAME>
<OUTCOME>off</OUTCOME>
<OUTCOME>on</OUTCOME>
<PROPERTY>position = (200,0)</PROPERTY>
</VARIABLE>
<VARIABLE TYPE="nature">
<NAME>PIR_balcony</NAME>
<OUTCOME>off</OUTCOME>
<OUTCOME>on</OUTCOME>
<PROPERTY>position = (250,0)</PROPERTY>
</VARIABLE>
<VARIABLE TYPE="nature">
<NAME>light_hallway</NAME>
<OUTCOME>off</OUTCOME>
<OUTCOME>on</OUTCOME>
<PROPERTY>position = (300,0)</PROPERTY>
</VARIABLE>
<VARIABLE TYPE="nature">
<NAME>light_livingroom</NAME>
<OUTCOME>off</OUTCOME>
<OUTCOME>on</OUTCOME>
<PROPERTY>position = (350,0)</PROPERTY>
</VARIABLE>
<VARIABLE TYPE="nature">
<NAME>light_bedroom</NAME>
<OUTCOME>off</OUTCOME>
<OUTCOME>on</OUTCOME>
<PROPERTY>position = (400,0)</PROPERTY>
</VARIABLE>
<VARIABLE TYPE="nature">
<NAME>light_bathroom</NAME>
<OUTCOME>off</OUTCOME>
<OUTCOME>on</OUTCOME>
<PROPERTY>position = (450,0)</PROPERTY>
</VARIABLE>
<VARIABLE TYPE="nature">
<NAME>light_kitchen</NAME>
<OUTCOME>off</OUTCOME>
<OUTCOME>on</OUTCOME>
<PROPERTY>position = (0,50)</PROPERTY>
</VARIABLE>
<VARIABLE TYPE="nature">
<NAME>light_balcony</NAME>
<OUTCOME>off</OUTCOME>
<OUTCOME>on</OUTCOME>
<PROPERTY>position = (50,50)</PROPERTY>
</VARIABLE>
<VARIABLE TYPE="nature">
<NAME>audio_hallway</NAME>
<OUTCOME>off</OUTCOME>
<OUTCOME>on</OUTCOME>
<PROPERTY>position = (100,50)</PROPERTY>
</VARIABLE>
<VARIABLE TYPE="nature">
<NAME>audio_livingroom</NAME>
<OUTCOME>off</OUTCOME>
<OUTCOME>on</OUTCOME>
<PROPERTY>position = (150,50)</PROPERTY>
</VARIABLE>
<VARIABLE TYPE="nature">
<NAME>audio_bedroom</NAME>
<OUTCOME>off</OUTCOME>
<OUTCOME>on</OUTCOME>
<PROPERTY>position = (200,50)</PROPERTY>
</VARIABLE>
<VARIABLE TYPE="nature">
<NAME>audio_bathroom</NAME>
<OUTCOME>off</OUTCOME>
<OUTCOME>little</OUTCOME>
<OUTCOME>loud</OUTCOME>
<PROPERTY>position = (250,50)</PROPERTY>
</VARIABLE>
<VARIABLE TYPE="nature">
<NAME>audio_kitchen</NAME>
<OUTCOME>off</OUTCOME>
<OUTCOME>little</OUTCOME>
<OUTCOME>loud</OUTCOME>
<PROPERTY>position = (300,50)</PROPERTY>
</VARIABLE>
<VARIABLE TYPE="nature">
<NAME>audio_balcony</NAME>
<OUTCOME>off</OUTCOME>
<OUTCOME>on</OUTCOME>
<PROPERTY>position = (350,50)</PROPERTY>
</VARIABLE>
<VARIABLE TYPE="nature">
<NAME>current_TV_livingroom</NAME>
<OUTCOME>off</OUTCOME>
<OUTCOME>standby</OUTCOME>
<OUTCOME>on</OUTCOME>
<PROPERTY>position = (400,50)</PROPERTY>
</VARIABLE>
<VARIABLE TYPE="nature">
<NAME>current_vacuumCleaner_livingroom</NAME>
<OUTCOME>off</OUTCOME>
<OUTCOME>standby</OUTCOME>
<OUTCOME>on</OUTCOME>
<PROPERTY>position = (450,50)</PROPERTY>
</VARIABLE>
<VARIABLE TYPE="nature">
<NAME>current_kinect_livingroom</NAME>
<OUTCOME>off</OUTCOME>
<OUTCOME>standby</OUTCOME>
<OUTCOME>on</OUTCOME>
<PROPERTY>position = (0,100)</PROPERTY>
</VARIABLE>
<VARIABLE TYPE="nature">
<NAME>current_AC_livingroom</NAME>
<OUTCOME>off</OUTCOME>
<OUTCOME>standby</OUTCOME>
<OUTCOME>on</OUTCOME>
<PROPERTY>position = (50,100)</PROPERTY>
</VARIABLE>
<VARIABLE TYPE="nature">
<NAME>current_fan_livingroom</NAME>
<OUTCOME>off</OUTCOME>
<OUTCOME>standby</OUTCOME>
<OUTCOME>on</OUTCOME>
<PROPERTY>position = (100,100)</PROPERTY>
</VARIABLE>
<VARIABLE TYPE="nature">
<NAME>current_fanHeater_livingroom</NAME>
<OUTCOME>off</OUTCOME>
<OUTCOME>standby</OUTCOME>
<OUTCOME>on</OUTCOME>
<PROPERTY>position = (150,100)</PROPERTY>
</VARIABLE>
<VARIABLE TYPE="nature">
<NAME>current_lamp_bedroom</NAME>
<OUTCOME>off</OUTCOME>
<OUTCOME>standby</OUTCOME>
<OUTCOME>on</OUTCOME>
<PROPERTY>position = (200,100)</PROPERTY>
</VARIABLE>
<VARIABLE TYPE="nature">
<NAME>current_PC_bedroom</NAME>
<OUTCOME>off</OUTCOME>
<OUTCOME>standby</OUTCOME>
<OUTCOME>on</OUTCOME>
<PROPERTY>position = (250,100)</PROPERTY>
</VARIABLE>
<VARIABLE TYPE="nature">
<NAME>current_monitor_bedroom</NAME>
<OUTCOME>off</OUTCOME>
<OUTCOME>standby</OUTCOME>
<OUTCOME>on</OUTCOME>
<PROPERTY>position = (300,100)</PROPERTY>
</VARIABLE>
<VARIABLE TYPE="nature">
<NAME>current_fan_bedroom</NAME>
<OUTCOME>off</OUTCOME>
<OUTCOME>standby</OUTCOME>
<OUTCOME>on</OUTCOME>
<PROPERTY>position = (350,100)</PROPERTY>
</VARIABLE>
<VARIABLE TYPE="nature">
<NAME>current_speaker_bedroom</NAME>
<OUTCOME>off</OUTCOME>
<OUTCOME>standby</OUTCOME>
<OUTCOME>on</OUTCOME>
<PROPERTY>position = (400,100)</PROPERTY>
</VARIABLE>
<VARIABLE TYPE="nature">
<NAME>current_exhaustFan_bathroom</NAME>
<OUTCOME>off</OUTCOME>
<OUTCOME>standby</OUTCOME>
<OUTCOME>on</OUTCOME>
<PROPERTY>position = (450,100)</PROPERTY>
</VARIABLE>
<VARIABLE TYPE="nature">
<NAME>current_fridge_kitchen</NAME>
<OUTCOME>off</OUTCOME>
<OUTCOME>standby</OUTCOME>
<OUTCOME>on</OUTCOME>
<PROPERTY>position = (0,150)</PROPERTY>
</VARIABLE>
<VARIABLE TYPE="nature">
<NAME>current_riceCooker_kitchen</NAME>
<OUTCOME>off</OUTCOME>
<OUTCOME>standby</OUTCOME>
<OUTCOME>on</OUTCOME>
<PROPERTY>position = (50,150)</PROPERTY>
</VARIABLE>
<VARIABLE TYPE="nature">
<NAME>current_microwave_kitchen</NAME>
<OUTCOME>off</OUTCOME>
<OUTCOME>standby</OUTCOME>
<OUTCOME>on</OUTCOME>
<PROPERTY>position = (100,150)</PROPERTY>
</VARIABLE>
<VARIABLE TYPE="nature">
<NAME>current_Dishwasher_kitchen</NAME>
<OUTCOME>off</OUTCOME>
<OUTCOME>standby</OUTCOME>
<OUTCOME>on</OUTCOME>
<PROPERTY>position = (150,150)</PROPERTY>
</VARIABLE>
<VARIABLE TYPE="nature">
<NAME>current_washMachine_balcony</NAME>
<OUTCOME>off</OUTCOME>
<OUTCOME>standby</OUTCOME>
<OUTCOME>on</OUTCOME>
<PROPERTY>position = (200,150)</PROPERTY>
</VARIABLE>
<VARIABLE TYPE="nature">
<NAME>current_waterHeater_balcony</NAME>
<OUTCOME>off</OUTCOME>
<OUTCOME>standby</OUTCOME>
<OUTCOME>on</OUTCOME>
<PROPERTY>position = (250,150)</PROPERTY>
</VARIABLE>
<VARIABLE TYPE="nature">
<NAME>camera_hallway</NAME>
<OUTCOME>off</OUTCOME>
<OUTCOME>on</OUTCOME>
<PROPERTY>position = (300,150)</PROPERTY>
</VARIABLE>
<VARIABLE TYPE="nature">
<NAME>camera_livingroom</NAME>
<OUTCOME>off</OUTCOME>
<OUTCOME>on</OUTCOME>
<PROPERTY>position = (350,150)</PROPERTY>
</VARIABLE>
<VARIABLE TYPE="nature">
<NAME>camera_bedroom</NAME>
<OUTCOME>off</OUTCOME>
<OUTCOME>on</OUTCOME>
<PROPERTY>position = (400,150)</PROPERTY>
</VARIABLE>
<VARIABLE TYPE="nature">
<NAME>camera_kitchen</NAME>
<OUTCOME>off</OUTCOME>
<OUTCOME>on</OUTCOME>
<PROPERTY>position = (450,150)</PROPERTY>
</VARIABLE>
<VARIABLE TYPE="nature">
<NAME>camera_balcony</NAME>
<OUTCOME>off</OUTCOME>
<OUTCOME>on</OUTCOME>
<PROPERTY>position = (0,200)</PROPERTY>
</VARIABLE>
<VARIABLE TYPE="nature">
<NAME>temperature_hallway</NAME>
<OUTCOME>low</OUTCOME>
<OUTCOME>high</OUTCOME>
<PROPERTY>position = (50,200)</PROPERTY>
</VARIABLE>
<VARIABLE TYPE="nature">
<NAME>temperature_livingroom</NAME>
<OUTCOME>low</OUTCOME>
<OUTCOME>high</OUTCOME>
<PROPERTY>position = (100,200)</PROPERTY>
</VARIABLE>
<VARIABLE TYPE="nature">
<NAME>temperature_bedroom</NAME>
<OUTCOME>low</OUTCOME>
<OUTCOME>high</OUTCOME>
<PROPERTY>position = (150,200)</PROPERTY>
</VARIABLE>
<VARIABLE TYPE="nature">
<NAME>temperature_bathroom</NAME>
<OUTCOME>low</OUTCOME>
<OUTCOME>high</OUTCOME>
<PROPERTY>position = (200,200)</PROPERTY>
</VARIABLE>
<VARIABLE TYPE="nature">
<NAME>temperature_kitchen</NAME>
<OUTCOME>low</OUTCOME>
<OUTCOME>high</OUTCOME>
<PROPERTY>position = (250,200)</PROPERTY>
</VARIABLE>
<VARIABLE TYPE="nature">
<NAME>humidity_hallway</NAME>
<OUTCOME>low</OUTCOME>
<OUTCOME>high</OUTCOME>
<PROPERTY>position = (300,200)</PROPERTY>
</VARIABLE>
<VARIABLE TYPE="nature">
<NAME>humidity_livingroom</NAME>
<OUTCOME>low</OUTCOME>
<OUTCOME>high</OUTCOME>
<PROPERTY>position = (350,200)</PROPERTY>
</VARIABLE>
<VARIABLE TYPE="nature">
<NAME>humidity_bedroom</NAME>
<OUTCOME>low</OUTCOME>
<OUTCOME>high</OUTCOME>
<PROPERTY>position = (400,200)</PROPERTY>
</VARIABLE>
<VARIABLE TYPE="nature">
<NAME>humidity_bathroom</NAME>
<OUTCOME>low</OUTCOME>
<OUTCOME>high</OUTCOME>
<PROPERTY>position = (450,200)</PROPERTY>
</VARIABLE>
<VARIABLE TYPE="nature">
<NAME>humidity_kitchen</NAME>
<OUTCOME>low</OUTCOME>
<OUTCOME>high</OUTCOME>
<PROPERTY>position = (0,250)</PROPERTY>
</VARIABLE>
<VARIABLE TYPE="nature">
<NAME>accelerometer</NAME>
<OUTCOME>low</OUTCOME>
<OUTCOME>medium</OUTCOME>
<OUTCOME>high</OUTCOME>
<PROPERTY>position = (50,250)</PROPERTY>
</VARIABLE>
<VARIABLE TYPE="nature">
<NAME>class</NAME>
<OUTCOME>OtherActivity</OUTCOME>
<OUTCOME>g9-1</OUTCOME>
<PROPERTY>position = (100,250)</PROPERTY>
</VARIABLE>
<DEFINITION>
<FOR>PIR_hallway</FOR>
<GIVEN>class</GIVEN>
<TABLE>
0.9960269684565375 0.003973031543462557 
0.9993599879527144 6.400120472855959E-4 
</TABLE>
</DEFINITION>
<DEFINITION>
<FOR>PIR_livingroom</FOR>
<GIVEN>class</GIVEN>
<TABLE>
0.9998796051047436 1.2039489525644112E-4 
0.3795271440403584 0.6204728559596416 
</TABLE>
</DEFINITION>
<DEFINITION>
<FOR>PIR_bedroom</FOR>
<GIVEN>class</GIVEN>
<TABLE>
0.9998796051047436 1.2039489525644112E-4 
0.9999623522325126 3.7647767487387995E-5 
</TABLE>
</DEFINITION>
<DEFINITION>
<FOR>PIR_bathroom</FOR>
<GIVEN>class</GIVEN>
<TABLE>
0.923308451721647 0.07669154827835299 
0.9716512310819968 0.028348768918003163 
</TABLE>
</DEFINITION>
<DEFINITION>
<FOR>PIR_kitchen</FOR>
<GIVEN>class</GIVEN>
<TABLE>
0.7884661690344329 0.21153383096556705 
0.9812890595587682 0.018710940441231835 
</TABLE>
</DEFINITION>
<DEFINITION>
<FOR>PIR_balcony</FOR>
<GIVEN>class</GIVEN>
<TABLE>
0.9570190223934505 0.04298097760654948 
0.9999623522325126 3.7647767487387995E-5 
</TABLE>
</DEFINITION>
<DEFINITION>
<FOR>light_hallway</FOR>
<GIVEN>class</GIVEN>
<TABLE>
0.9644835058993498 0.03551649410065013 
0.9596039454860327 0.04039605451396732 
</TABLE>
</DEFINITION>
<DEFINITION>
<FOR>light_livingroom</FOR>
<GIVEN>class</GIVEN>
<TABLE>
0.9394413676860102 0.060558632313989884 
3.7647767487387995E-5 0.9999623522325126 
</TABLE>
</DEFINITION>
<DEFINITION>
<FOR>light_bedroom</FOR>
<GIVEN>class</GIVEN>
<TABLE>
0.7627016614495545 0.23729833855044546 
0.905391160304194 0.09460883969580604 
</TABLE>
</DEFINITION>
<DEFINITION>
<FOR>light_bathroom</FOR>
<GIVEN>class</GIVEN>
<TABLE>
0.8043582952082832 0.19564170479171683 
0.9475566598900685 0.05244334010993148 
</TABLE>
</DEFINITION>
<DEFINITION>
<FOR>light_kitchen</FOR>
<GIVEN>class</GIVEN>
<TABLE>
0.7882253792439201 0.21177462075607995 
0.9403282885324901 0.05967171146750998 
</TABLE>
</DEFINITION>
<DEFINITION>
<FOR>light_balcony</FOR>
<GIVEN>class</GIVEN>
<TABLE>
0.9517216470021671 0.04827835299783289 
0.922859724418342 0.07714027558165801 
</TABLE>
</DEFINITION>
<DEFINITION>
<FOR>audio_hallway</FOR>
<GIVEN>class</GIVEN>
<TABLE>
0.9960269684565375 0.003973031543462557 
0.9993599879527144 6.400120472855959E-4 
</TABLE>
</DEFINITION>
<DEFINITION>
<FOR>audio_livingroom</FOR>
<GIVEN>class</GIVEN>
<TABLE>
0.9998796051047436 1.2039489525644112E-4 
0.7957608613809201 0.20423913861907989 
</TABLE>
</DEFINITION>
<DEFINITION>
<FOR>audio_bedroom</FOR>
<GIVEN>class</GIVEN>
<TABLE>
0.9998796051047436 1.2039489525644112E-4 
0.9999623522325126 3.7647767487387995E-5 
</TABLE>
</DEFINITION>
<DEFINITION>
<FOR>audio_bathroom</FOR>
<GIVEN>class</GIVEN>
<TABLE>
0.9231973034789936 0.04393884675574816 0.03286384976525822 
0.9716146519594925 0.0024470127621127134 0.02593833527839476 
</TABLE>
</DEFINITION>
<DEFINITION>
<FOR>audio_kitchen</FOR>
<GIVEN>class</GIVEN>
<TABLE>
0.800890814975322 1.2038040207054291E-4 0.19898880462260743 
0.9848661672250876 3.764635018634943E-5 0.015096186424726123 
</TABLE>
</DEFINITION>
<DEFINITION>
<FOR>audio_balcony</FOR>
<GIVEN>class</GIVEN>
<TABLE>
0.9998796051047436 1.2039489525644112E-4 
0.9999623522325126 3.7647767487387995E-5 
</TABLE>
</DEFINITION>
<DEFINITION>
<FOR>current_TV_livingroom</FOR>
<GIVEN>class</GIVEN>
<TABLE>
1.2038040207054291E-4 0.9679788130492356 0.03190080654869387 
3.764635018634943E-5 0.14881602228663932 0.8511463313631743 
</TABLE>
</DEFINITION>
<DEFINITION>
<FOR>current_vacuumCleaner_livingroom</FOR>
<GIVEN>class</GIVEN>
<TABLE>
0.9617190321415674 1.2038040207054291E-4 0.038160587456362104 
0.8390994993035426 3.764635018634943E-5 0.16086285434627112 
</TABLE>
</DEFINITION>
<DEFINITION>
<FOR>current_kinect_livingroom</FOR>
<GIVEN>class</GIVEN>
<TABLE>
1.2038040207054291E-4 0.9638858793788371 0.03599374021909233 
3.764635018634943E-5 0.4096299363776682 0.5903324172721455 
</TABLE>
</DEFINITION>
<DEFINITION>
<FOR>current_AC_livingroom</FOR>
<GIVEN>class</GIVEN>
<TABLE>
0.1708197905381004 1.2038040207054291E-4 0.8290598290598291 
3.764635018634943E-5 3.764635018634943E-5 0.9999247072996273 
</TABLE>
</DEFINITION>
<DEFINITION>
<FOR>current_fan_livingroom</FOR>
<GIVEN>class</GIVEN>
<TABLE>
0.9316239316239316 1.2038040207054291E-4 0.06825568797399784 
0.408425253171705 3.764635018634943E-5 0.5915371004781087 
</TABLE>
</DEFINITION>
<DEFINITION>
<FOR>current_fanHeater_livingroom</FOR>
<GIVEN>class</GIVEN>
<TABLE>
0.9352353436860479 1.2038040207054291E-4 0.06464427591188154 
0.9704099687535294 3.764635018634943E-5 0.029552384896284305 
</TABLE>
</DEFINITION>
<DEFINITION>
<FOR>current_lamp_bedroom</FOR>
<GIVEN>class</GIVEN>
<TABLE>
0.8512098230408089 1.2038040207054291E-4 0.1486697965571205 
0.9565561118849527 3.764635018634943E-5 0.043406241764860895 
</TABLE>
</DEFINITION>
<DEFINITION>
<FOR>current_PC_bedroom</FOR>
<GIVEN>class</GIVEN>
<TABLE>
1.2038040207054291E-4 0.8032984230167328 0.19658119658119658 
3.764635018634943E-5 0.9324624477656891 0.06749990588412454 
</TABLE>
</DEFINITION>
<DEFINITION>
<FOR>current_monitor_bedroom</FOR>
<GIVEN>class</GIVEN>
<TABLE>
1.2038040207054291E-4 0.8341158059467919 0.1657638136511376 
3.764635018634943E-5 0.92523434852991 0.07472800511990363 
</TABLE>
</DEFINITION>
<DEFINITION>
<FOR>current_fan_bedroom</FOR>
<GIVEN>class</GIVEN>
<TABLE>
0.6735283495846877 1.2038040207054291E-4 0.3263512700132418 
0.885479802733125 3.764635018634943E-5 0.11448255091668863 
</TABLE>
</DEFINITION>
<DEFINITION>
<FOR>current_speaker_bedroom</FOR>
<GIVEN>class</GIVEN>
<TABLE>
0.8153364632237872 1.2038040207054291E-4 0.1845431563741423 
0.9360764973835787 3.764635018634943E-5 0.06388585626623498 
</TABLE>
</DEFINITION>
<DEFINITION>
<FOR>current_exhaustFan_bathroom</FOR>
<GIVEN>class</GIVEN>
<TABLE>
0.9451065366558324 1.2038040207054291E-4 0.054773082942097026 
0.9722169935624742 3.764635018634943E-5 0.02774536008733953 
</TABLE>
</DEFINITION>
<DEFINITION>
<FOR>current_fridge_kitchen</FOR>
<GIVEN>class</GIVEN>
<TABLE>
1.2038040207054291E-4 0.7693511496328398 0.2305284699650897 
3.764635018634943E-5 0.9198132741030757 0.08014907954673794 
</TABLE>
</DEFINITION>
<DEFINITION>
<FOR>current_riceCooker_kitchen</FOR>
<GIVEN>class</GIVEN>
<TABLE>
1.2038040207054291E-4 0.7693511496328398 0.2305284699650897 
3.764635018634943E-5 0.9505326958551369 0.049429657794676805 
</TABLE>
</DEFINITION>
<DEFINITION>
<FOR>current_microwave_kitchen</FOR>
<GIVEN>class</GIVEN>
<TABLE>
1.2038040207054291E-4 0.7676658240038522 0.2322137955940773 
3.764635018634943E-5 0.9692052855475661 0.030757068102247487 
</TABLE>
</DEFINITION>
<DEFINITION>
<FOR>current_Dishwasher_kitchen</FOR>
<GIVEN>class</GIVEN>
<TABLE>
0.9460695798723968 1.2038040207054291E-4 0.053810039725532686 
0.9457139630312841 3.764635018634943E-5 0.054248390618529534 
</TABLE>
</DEFINITION>
<DEFINITION>
<FOR>current_washMachine_balcony</FOR>
<GIVEN>class</GIVEN>
<TABLE>
0.9554592512338991 1.2038040207054291E-4 0.044420368364030335 
0.9427022550163762 3.764635018634943E-5 0.057260098633437485 
</TABLE>
</DEFINITION>
<DEFINITION>
<FOR>current_waterHeater_balcony</FOR>
<GIVEN>class</GIVEN>
<TABLE>
1.2038040207054291E-4 0.9097146984470929 0.09016492115083664 
3.764635018634943E-5 0.9228249821179837 0.07713737153182999 
</TABLE>
</DEFINITION>
<DEFINITION>
<FOR>camera_hallway</FOR>
<GIVEN>class</GIVEN>
<TABLE>
0.9960269684565375 0.003973031543462557 
0.9993599879527144 6.400120472855959E-4 
</TABLE>
</DEFINITION>
<DEFINITION>
<FOR>camera_livingroom</FOR>
<GIVEN>class</GIVEN>
<TABLE>
0.9998796051047436 1.2039489525644112E-4 
3.7647767487387995E-5 0.9999623522325126 
</TABLE>
</DEFINITION>
<DEFINITION>
<FOR>camera_bedroom</FOR>
<GIVEN>class</GIVEN>
<TABLE>
0.48868287984589454 0.5113171201541055 
0.9505684812890596 0.04943151871094044 
</TABLE>
</DEFINITION>
<DEFINITION>
<FOR>camera_kitchen</FOR>
<GIVEN>class</GIVEN>
<TABLE>
0.7884661690344329 0.21153383096556705 
0.9812890595587682 0.018710940441231835 
</TABLE>
</DEFINITION>
<DEFINITION>
<FOR>camera_balcony</FOR>
<GIVEN>class</GIVEN>
<TABLE>
0.9570190223934505 0.04298097760654948 
0.9999623522325126 3.7647767487387995E-5 
</TABLE>
</DEFINITION>
<DEFINITION>
<FOR>temperature_hallway</FOR>
<GIVEN>class</GIVEN>
<TABLE>
0.9998796051047436 1.2039489525644112E-4 
0.9999623522325126 3.7647767487387995E-5 
</TABLE>
</DEFINITION>
<DEFINITION>
<FOR>temperature_livingroom</FOR>
<GIVEN>class</GIVEN>
<TABLE>
0.9998796051047436 1.2039489525644112E-4 
0.9999623522325126 3.7647767487387995E-5 
</TABLE>
</DEFINITION>
<DEFINITION>
<FOR>temperature_bedroom</FOR>
<GIVEN>class</GIVEN>
<TABLE>
0.9998796051047436 1.2039489525644112E-4 
0.9999623522325126 3.7647767487387995E-5 
</TABLE>
</DEFINITION>
<DEFINITION>
<FOR>temperature_bathroom</FOR>
<GIVEN>class</GIVEN>
<TABLE>
0.9671321935949916 0.03286780640500843 
0.9740606882011896 0.02593931179881033 
</TABLE>
</DEFINITION>
<DEFINITION>
<FOR>temperature_kitchen</FOR>
<GIVEN>class</GIVEN>
<TABLE>
0.8009872381411028 0.19901276185889719 
0.9849032452375575 0.015096754762442587 
</TABLE>
</DEFINITION>
<DEFINITION>
<FOR>humidity_hallway</FOR>
<GIVEN>class</GIVEN>
<TABLE>
0.9998796051047436 1.2039489525644112E-4 
0.9999623522325126 3.7647767487387995E-5 
</TABLE>
</DEFINITION>
<DEFINITION>
<FOR>humidity_livingroom</FOR>
<GIVEN>class</GIVEN>
<TABLE>
0.9998796051047436 1.2039489525644112E-4 
0.9999623522325126 3.7647767487387995E-5 
</TABLE>
</DEFINITION>
<DEFINITION>
<FOR>humidity_bedroom</FOR>
<GIVEN>class</GIVEN>
<TABLE>
0.9998796051047436 1.2039489525644112E-4 
0.9999623522325126 3.7647767487387995E-5 
</TABLE>
</DEFINITION>
<DEFINITION>
<FOR>humidity_bathroom</FOR>
<GIVEN>class</GIVEN>
<TABLE>
0.9671321935949916 0.03286780640500843 
0.9740606882011896 0.02593931179881033 
</TABLE>
</DEFINITION>
<DEFINITION>
<FOR>humidity_kitchen</FOR>
<GIVEN>class</GIVEN>
<TABLE>
0.9998796051047436 1.2039489525644112E-4 
0.9999623522325126 3.7647767487387995E-5 
</TABLE>
</DEFINITION>
<DEFINITION>
<FOR>accelerometer</FOR>
<GIVEN>class</GIVEN>
<TABLE>
0.3066088840736728 0.6932707355242567 1.2038040207054291E-4 
3.764635018634943E-5 0.43854233332078457 0.561420020329029 
</TABLE>
</DEFINITION>
<DEFINITION>
<FOR>class</FOR>
<TABLE>
0.23819767108357712 0.7618023289164229 
</TABLE>
</DEFINITION>
</NETWORK>
</BIF>
