<?xml version="1.0"?>
<!-- DTD for the XMLBIF 0.3 format -->
<!DOCTYPE BIF [
	<!ELEMENT BIF ( NETWORK )*>
	      <!ATTLIST BIF VERSION CDATA #REQUIRED>
	<!ELEMENT NETWORK ( NAME, ( PROPERTY | VARIABLE | DEFINITION )* )>
	<!ELEMENT NAME (#PCDATA)>
	<!ELEMENT VARIABLE ( NAME, ( OUTCOME |  PROPERTY )* ) >
	      <!ATTLIST VARIABLE TYPE (nature|decision|utility) "nature">
	<!ELEMENT OUTCOME (#PCDATA)>
	<!ELEMENT DEFINITION ( FOR | GIVEN | TABLE | PROPERTY )* >
	<!ELEMENT FOR (#PCDATA)>
	<!ELEMENT GIVEN (#PCDATA)>
	<!ELEMENT TABLE (#PCDATA)>
	<!ELEMENT PROPERTY (#PCDATA)>
]>


<BIF VERSION="0.3">
<NETWORK>
<NAME>TrainingData_g5-3</NAME>
<VARIABLE TYPE="nature">
<NAME>PIR_hallway</NAME>
<OUTCOME>off</OUTCOME>
<OUTCOME>on</OUTCOME>
<PROPERTY>position = (0,0)</PROPERTY>
</VARIABLE>
<VARIABLE TYPE="nature">
<NAME>PIR_livingroom</NAME>
<OUTCOME>off</OUTCOME>
<OUTCOME>on</OUTCOME>
<PROPERTY>position = (50,0)</PROPERTY>
</VARIABLE>
<VARIABLE TYPE="nature">
<NAME>PIR_bedroom</NAME>
<OUTCOME>off</OUTCOME>
<OUTCOME>on</OUTCOME>
<PROPERTY>position = (100,0)</PROPERTY>
</VARIABLE>
<VARIABLE TYPE="nature">
<NAME>PIR_bathroom</NAME>
<OUTCOME>off</OUTCOME>
<OUTCOME>on</OUTCOME>
<PROPERTY>position = (150,0)</PROPERTY>
</VARIABLE>
<VARIABLE TYPE="nature">
<NAME>PIR_kitchen</NAME>
<OUTCOME>off</OUTCOME>
<OUTCOME>on</OUTCOME>
<PROPERTY>position = (200,0)</PROPERTY>
</VARIABLE>
<VARIABLE TYPE="nature">
<NAME>PIR_balcony</NAME>
<OUTCOME>off</OUTCOME>
<OUTCOME>on</OUTCOME>
<PROPERTY>position = (250,0)</PROPERTY>
</VARIABLE>
<VARIABLE TYPE="nature">
<NAME>light_hallway</NAME>
<OUTCOME>off</OUTCOME>
<OUTCOME>on</OUTCOME>
<PROPERTY>position = (300,0)</PROPERTY>
</VARIABLE>
<VARIABLE TYPE="nature">
<NAME>light_livingroom</NAME>
<OUTCOME>off</OUTCOME>
<OUTCOME>on</OUTCOME>
<PROPERTY>position = (350,0)</PROPERTY>
</VARIABLE>
<VARIABLE TYPE="nature">
<NAME>light_bedroom</NAME>
<OUTCOME>off</OUTCOME>
<OUTCOME>on</OUTCOME>
<PROPERTY>position = (400,0)</PROPERTY>
</VARIABLE>
<VARIABLE TYPE="nature">
<NAME>light_bathroom</NAME>
<OUTCOME>off</OUTCOME>
<OUTCOME>on</OUTCOME>
<PROPERTY>position = (450,0)</PROPERTY>
</VARIABLE>
<VARIABLE TYPE="nature">
<NAME>light_kitchen</NAME>
<OUTCOME>off</OUTCOME>
<OUTCOME>on</OUTCOME>
<PROPERTY>position = (0,50)</PROPERTY>
</VARIABLE>
<VARIABLE TYPE="nature">
<NAME>light_balcony</NAME>
<OUTCOME>off</OUTCOME>
<OUTCOME>on</OUTCOME>
<PROPERTY>position = (50,50)</PROPERTY>
</VARIABLE>
<VARIABLE TYPE="nature">
<NAME>audio_hallway</NAME>
<OUTCOME>off</OUTCOME>
<OUTCOME>on</OUTCOME>
<PROPERTY>position = (100,50)</PROPERTY>
</VARIABLE>
<VARIABLE TYPE="nature">
<NAME>audio_livingroom</NAME>
<OUTCOME>off</OUTCOME>
<OUTCOME>on</OUTCOME>
<PROPERTY>position = (150,50)</PROPERTY>
</VARIABLE>
<VARIABLE TYPE="nature">
<NAME>audio_bedroom</NAME>
<OUTCOME>off</OUTCOME>
<OUTCOME>on</OUTCOME>
<PROPERTY>position = (200,50)</PROPERTY>
</VARIABLE>
<VARIABLE TYPE="nature">
<NAME>audio_bathroom</NAME>
<OUTCOME>off</OUTCOME>
<OUTCOME>little</OUTCOME>
<OUTCOME>loud</OUTCOME>
<PROPERTY>position = (250,50)</PROPERTY>
</VARIABLE>
<VARIABLE TYPE="nature">
<NAME>audio_kitchen</NAME>
<OUTCOME>off</OUTCOME>
<OUTCOME>little</OUTCOME>
<OUTCOME>loud</OUTCOME>
<PROPERTY>position = (300,50)</PROPERTY>
</VARIABLE>
<VARIABLE TYPE="nature">
<NAME>audio_balcony</NAME>
<OUTCOME>off</OUTCOME>
<OUTCOME>on</OUTCOME>
<PROPERTY>position = (350,50)</PROPERTY>
</VARIABLE>
<VARIABLE TYPE="nature">
<NAME>current_TV_livingroom</NAME>
<OUTCOME>off</OUTCOME>
<OUTCOME>standby</OUTCOME>
<OUTCOME>on</OUTCOME>
<PROPERTY>position = (400,50)</PROPERTY>
</VARIABLE>
<VARIABLE TYPE="nature">
<NAME>current_vacuumCleaner_livingroom</NAME>
<OUTCOME>off</OUTCOME>
<OUTCOME>standby</OUTCOME>
<OUTCOME>on</OUTCOME>
<PROPERTY>position = (450,50)</PROPERTY>
</VARIABLE>
<VARIABLE TYPE="nature">
<NAME>current_kinect_livingroom</NAME>
<OUTCOME>off</OUTCOME>
<OUTCOME>standby</OUTCOME>
<OUTCOME>on</OUTCOME>
<PROPERTY>position = (0,100)</PROPERTY>
</VARIABLE>
<VARIABLE TYPE="nature">
<NAME>current_AC_livingroom</NAME>
<OUTCOME>off</OUTCOME>
<OUTCOME>standby</OUTCOME>
<OUTCOME>on</OUTCOME>
<PROPERTY>position = (50,100)</PROPERTY>
</VARIABLE>
<VARIABLE TYPE="nature">
<NAME>current_fan_livingroom</NAME>
<OUTCOME>off</OUTCOME>
<OUTCOME>standby</OUTCOME>
<OUTCOME>on</OUTCOME>
<PROPERTY>position = (100,100)</PROPERTY>
</VARIABLE>
<VARIABLE TYPE="nature">
<NAME>current_fanHeater_livingroom</NAME>
<OUTCOME>off</OUTCOME>
<OUTCOME>standby</OUTCOME>
<OUTCOME>on</OUTCOME>
<PROPERTY>position = (150,100)</PROPERTY>
</VARIABLE>
<VARIABLE TYPE="nature">
<NAME>current_lamp_bedroom</NAME>
<OUTCOME>off</OUTCOME>
<OUTCOME>standby</OUTCOME>
<OUTCOME>on</OUTCOME>
<PROPERTY>position = (200,100)</PROPERTY>
</VARIABLE>
<VARIABLE TYPE="nature">
<NAME>current_PC_bedroom</NAME>
<OUTCOME>off</OUTCOME>
<OUTCOME>standby</OUTCOME>
<OUTCOME>on</OUTCOME>
<PROPERTY>position = (250,100)</PROPERTY>
</VARIABLE>
<VARIABLE TYPE="nature">
<NAME>current_monitor_bedroom</NAME>
<OUTCOME>off</OUTCOME>
<OUTCOME>standby</OUTCOME>
<OUTCOME>on</OUTCOME>
<PROPERTY>position = (300,100)</PROPERTY>
</VARIABLE>
<VARIABLE TYPE="nature">
<NAME>current_fan_bedroom</NAME>
<OUTCOME>off</OUTCOME>
<OUTCOME>standby</OUTCOME>
<OUTCOME>on</OUTCOME>
<PROPERTY>position = (350,100)</PROPERTY>
</VARIABLE>
<VARIABLE TYPE="nature">
<NAME>current_speaker_bedroom</NAME>
<OUTCOME>off</OUTCOME>
<OUTCOME>standby</OUTCOME>
<OUTCOME>on</OUTCOME>
<PROPERTY>position = (400,100)</PROPERTY>
</VARIABLE>
<VARIABLE TYPE="nature">
<NAME>current_exhaustFan_bathroom</NAME>
<OUTCOME>off</OUTCOME>
<OUTCOME>standby</OUTCOME>
<OUTCOME>on</OUTCOME>
<PROPERTY>position = (450,100)</PROPERTY>
</VARIABLE>
<VARIABLE TYPE="nature">
<NAME>current_fridge_kitchen</NAME>
<OUTCOME>off</OUTCOME>
<OUTCOME>standby</OUTCOME>
<OUTCOME>on</OUTCOME>
<PROPERTY>position = (0,150)</PROPERTY>
</VARIABLE>
<VARIABLE TYPE="nature">
<NAME>current_riceCooker_kitchen</NAME>
<OUTCOME>off</OUTCOME>
<OUTCOME>standby</OUTCOME>
<OUTCOME>on</OUTCOME>
<PROPERTY>position = (50,150)</PROPERTY>
</VARIABLE>
<VARIABLE TYPE="nature">
<NAME>current_microwave_kitchen</NAME>
<OUTCOME>off</OUTCOME>
<OUTCOME>standby</OUTCOME>
<OUTCOME>on</OUTCOME>
<PROPERTY>position = (100,150)</PROPERTY>
</VARIABLE>
<VARIABLE TYPE="nature">
<NAME>current_Dishwasher_kitchen</NAME>
<OUTCOME>off</OUTCOME>
<OUTCOME>standby</OUTCOME>
<OUTCOME>on</OUTCOME>
<PROPERTY>position = (150,150)</PROPERTY>
</VARIABLE>
<VARIABLE TYPE="nature">
<NAME>current_washMachine_balcony</NAME>
<OUTCOME>off</OUTCOME>
<OUTCOME>standby</OUTCOME>
<OUTCOME>on</OUTCOME>
<PROPERTY>position = (200,150)</PROPERTY>
</VARIABLE>
<VARIABLE TYPE="nature">
<NAME>current_waterHeater_balcony</NAME>
<OUTCOME>off</OUTCOME>
<OUTCOME>standby</OUTCOME>
<OUTCOME>on</OUTCOME>
<PROPERTY>position = (250,150)</PROPERTY>
</VARIABLE>
<VARIABLE TYPE="nature">
<NAME>camera_hallway</NAME>
<OUTCOME>off</OUTCOME>
<OUTCOME>on</OUTCOME>
<PROPERTY>position = (300,150)</PROPERTY>
</VARIABLE>
<VARIABLE TYPE="nature">
<NAME>camera_livingroom</NAME>
<OUTCOME>off</OUTCOME>
<OUTCOME>on</OUTCOME>
<PROPERTY>position = (350,150)</PROPERTY>
</VARIABLE>
<VARIABLE TYPE="nature">
<NAME>camera_bedroom</NAME>
<OUTCOME>off</OUTCOME>
<OUTCOME>on</OUTCOME>
<PROPERTY>position = (400,150)</PROPERTY>
</VARIABLE>
<VARIABLE TYPE="nature">
<NAME>camera_kitchen</NAME>
<OUTCOME>off</OUTCOME>
<OUTCOME>on</OUTCOME>
<PROPERTY>position = (450,150)</PROPERTY>
</VARIABLE>
<VARIABLE TYPE="nature">
<NAME>camera_balcony</NAME>
<OUTCOME>off</OUTCOME>
<OUTCOME>on</OUTCOME>
<PROPERTY>position = (0,200)</PROPERTY>
</VARIABLE>
<VARIABLE TYPE="nature">
<NAME>temperature_hallway</NAME>
<OUTCOME>low</OUTCOME>
<OUTCOME>high</OUTCOME>
<PROPERTY>position = (50,200)</PROPERTY>
</VARIABLE>
<VARIABLE TYPE="nature">
<NAME>temperature_livingroom</NAME>
<OUTCOME>low</OUTCOME>
<OUTCOME>high</OUTCOME>
<PROPERTY>position = (100,200)</PROPERTY>
</VARIABLE>
<VARIABLE TYPE="nature">
<NAME>temperature_bedroom</NAME>
<OUTCOME>low</OUTCOME>
<OUTCOME>high</OUTCOME>
<PROPERTY>position = (150,200)</PROPERTY>
</VARIABLE>
<VARIABLE TYPE="nature">
<NAME>temperature_bathroom</NAME>
<OUTCOME>low</OUTCOME>
<OUTCOME>high</OUTCOME>
<PROPERTY>position = (200,200)</PROPERTY>
</VARIABLE>
<VARIABLE TYPE="nature">
<NAME>temperature_kitchen</NAME>
<OUTCOME>low</OUTCOME>
<OUTCOME>high</OUTCOME>
<PROPERTY>position = (250,200)</PROPERTY>
</VARIABLE>
<VARIABLE TYPE="nature">
<NAME>humidity_hallway</NAME>
<OUTCOME>low</OUTCOME>
<OUTCOME>high</OUTCOME>
<PROPERTY>position = (300,200)</PROPERTY>
</VARIABLE>
<VARIABLE TYPE="nature">
<NAME>humidity_livingroom</NAME>
<OUTCOME>low</OUTCOME>
<OUTCOME>high</OUTCOME>
<PROPERTY>position = (350,200)</PROPERTY>
</VARIABLE>
<VARIABLE TYPE="nature">
<NAME>humidity_bedroom</NAME>
<OUTCOME>low</OUTCOME>
<OUTCOME>high</OUTCOME>
<PROPERTY>position = (400,200)</PROPERTY>
</VARIABLE>
<VARIABLE TYPE="nature">
<NAME>humidity_bathroom</NAME>
<OUTCOME>low</OUTCOME>
<OUTCOME>high</OUTCOME>
<PROPERTY>position = (450,200)</PROPERTY>
</VARIABLE>
<VARIABLE TYPE="nature">
<NAME>humidity_kitchen</NAME>
<OUTCOME>low</OUTCOME>
<OUTCOME>high</OUTCOME>
<PROPERTY>position = (0,250)</PROPERTY>
</VARIABLE>
<VARIABLE TYPE="nature">
<NAME>accelerometer</NAME>
<OUTCOME>low</OUTCOME>
<OUTCOME>medium</OUTCOME>
<OUTCOME>high</OUTCOME>
<PROPERTY>position = (50,250)</PROPERTY>
</VARIABLE>
<VARIABLE TYPE="nature">
<NAME>class</NAME>
<OUTCOME>OtherActivity</OUTCOME>
<OUTCOME>g5-3</OUTCOME>
<PROPERTY>position = (100,250)</PROPERTY>
</VARIABLE>
<DEFINITION>
<FOR>PIR_hallway</FOR>
<GIVEN>class</GIVEN>
<TABLE>
0.9969112691875702 0.0030887308124298014 
0.9977447598832582 0.0022552401167418414 
</TABLE>
</DEFINITION>
<DEFINITION>
<FOR>PIR_livingroom</FOR>
<GIVEN>class</GIVEN>
<TABLE>
0.8108386372145264 0.1891613627854736 
0.9574157601485805 0.04258423985141947 
</TABLE>
</DEFINITION>
<DEFINITION>
<FOR>PIR_bedroom</FOR>
<GIVEN>class</GIVEN>
<TABLE>
0.999906402096593 9.359790340696369E-5 
0.9998673388166622 1.3266118333775536E-4 
</TABLE>
</DEFINITION>
<DEFINITION>
<FOR>PIR_bathroom</FOR>
<GIVEN>class</GIVEN>
<TABLE>
0.9403781355297641 0.05962186447023587 
0.9001061289466702 0.0998938710533298 
</TABLE>
</DEFINITION>
<DEFINITION>
<FOR>PIR_kitchen</FOR>
<GIVEN>class</GIVEN>
<TABLE>
0.8344253088730812 0.16557469112691875 
0.9468028654815601 0.0531971345184399 
</TABLE>
</DEFINITION>
<DEFINITION>
<FOR>PIR_balcony</FOR>
<GIVEN>class</GIVEN>
<TABLE>
0.9665855484837139 0.03341445151628603 
0.9998673388166622 1.3266118333775536E-4 
</TABLE>
</DEFINITION>
<DEFINITION>
<FOR>light_hallway</FOR>
<GIVEN>class</GIVEN>
<TABLE>
0.9647135904155747 0.03528640958442531 
0.9446802865481561 0.05531971345184399 
</TABLE>
</DEFINITION>
<DEFINITION>
<FOR>light_livingroom</FOR>
<GIVEN>class</GIVEN>
<TABLE>
0.7303444402845376 0.2696555597154624 
1.3266118333775536E-4 0.9998673388166622 
</TABLE>
</DEFINITION>
<DEFINITION>
<FOR>light_bedroom</FOR>
<GIVEN>class</GIVEN>
<TABLE>
0.8044739797828528 0.19552602021714713 
0.7918546033430618 0.20814539665693818 
</TABLE>
</DEFINITION>
<DEFINITION>
<FOR>light_bathroom</FOR>
<GIVEN>class</GIVEN>
<TABLE>
0.8467802321228004 0.15321976787719954 
0.8279384452109313 0.1720615547890687 
</TABLE>
</DEFINITION>
<DEFINITION>
<FOR>light_kitchen</FOR>
<GIVEN>class</GIVEN>
<TABLE>
0.8331149382253837 0.16688506177461626 
0.8152029716105068 0.18479702838949325 
</TABLE>
</DEFINITION>
<DEFINITION>
<FOR>light_balcony</FOR>
<GIVEN>class</GIVEN>
<TABLE>
0.9602208910520404 0.039779108947959566 
0.7536481825417882 0.24635181745821172 
</TABLE>
</DEFINITION>
<DEFINITION>
<FOR>audio_hallway</FOR>
<GIVEN>class</GIVEN>
<TABLE>
0.9969112691875702 0.0030887308124298014 
0.9977447598832582 0.0022552401167418414 
</TABLE>
</DEFINITION>
<DEFINITION>
<FOR>audio_livingroom</FOR>
<GIVEN>class</GIVEN>
<TABLE>
0.9514226881317859 0.04857731186821415 
0.8300610241443354 0.16993897585566464 
</TABLE>
</DEFINITION>
<DEFINITION>
<FOR>audio_bedroom</FOR>
<GIVEN>class</GIVEN>
<TABLE>
0.999906402096593 9.359790340696369E-5 
0.9998673388166622 1.3266118333775536E-4 
</TABLE>
</DEFINITION>
<DEFINITION>
<FOR>audio_bathroom</FOR>
<GIVEN>class</GIVEN>
<TABLE>
0.9402901263453439 0.034160037435657466 0.025549836218998596 
0.8999867356413317 0.008621833134367953 0.09139143122430031 
</TABLE>
</DEFINITION>
<DEFINITION>
<FOR>audio_kitchen</FOR>
<GIVEN>class</GIVEN>
<TABLE>
0.845203556387459 9.358914365933551E-5 0.1547028544688816 
0.9466772781536013 1.3264358668258389E-4 0.053190078259716146 
</TABLE>
</DEFINITION>
<DEFINITION>
<FOR>audio_balcony</FOR>
<GIVEN>class</GIVEN>
<TABLE>
0.999906402096593 9.359790340696369E-5 
0.9998673388166622 1.3266118333775536E-4 
</TABLE>
</DEFINITION>
<DEFINITION>
<FOR>current_TV_livingroom</FOR>
<GIVEN>class</GIVEN>
<TABLE>
9.358914365933551E-5 0.7987833411324287 0.20112306972391203 
1.3264358668258389E-4 1.3264358668258389E-4 0.9997347128266348 
</TABLE>
</DEFINITION>
<DEFINITION>
<FOR>current_vacuumCleaner_livingroom</FOR>
<GIVEN>class</GIVEN>
<TABLE>
0.9371080954609265 9.358914365933551E-5 0.06279831539541413 
0.8087279480037141 1.3264358668258389E-4 0.1911394084096034 
</TABLE>
</DEFINITION>
<DEFINITION>
<FOR>current_kinect_livingroom</FOR>
<GIVEN>class</GIVEN>
<TABLE>
9.358914365933551E-5 0.8000935891436594 0.19981282171268133 
1.3264358668258389E-4 0.8681522748375116 0.1317150815758058 
</TABLE>
</DEFINITION>
<DEFINITION>
<FOR>current_AC_livingroom</FOR>
<GIVEN>class</GIVEN>
<TABLE>
0.1328029948525971 9.358914365933551E-5 0.8671034160037435 
1.3264358668258389E-4 1.3264358668258389E-4 0.9997347128266348 
</TABLE>
</DEFINITION>
<DEFINITION>
<FOR>current_fan_livingroom</FOR>
<GIVEN>class</GIVEN>
<TABLE>
0.7716424894712214 9.358914365933551E-5 0.22826392138511933 
0.9021090330282531 1.3264358668258389E-4 0.09775832338506434 
</TABLE>
</DEFINITION>
<DEFINITION>
<FOR>current_fanHeater_livingroom</FOR>
<GIVEN>class</GIVEN>
<TABLE>
0.94646700982686 9.358914365933551E-5 0.05343940102948058 
0.9318211964451518 1.3264358668258389E-4 0.06804615996816554 
</TABLE>
</DEFINITION>
<DEFINITION>
<FOR>current_lamp_bedroom</FOR>
<GIVEN>class</GIVEN>
<TABLE>
0.8832007487131492 9.358914365933551E-5 0.11670566214319139 
0.8596630852898263 1.3264358668258389E-4 0.14020427112349118 
</TABLE>
</DEFINITION>
<DEFINITION>
<FOR>current_PC_bedroom</FOR>
<GIVEN>class</GIVEN>
<TABLE>
9.358914365933551E-5 0.8416471689284043 0.15825924192793636 
1.3264358668258389E-4 0.8235840297121634 0.176283326701154 
</TABLE>
</DEFINITION>
<DEFINITION>
<FOR>current_monitor_bedroom</FOR>
<GIVEN>class</GIVEN>
<TABLE>
9.358914365933551E-5 0.859990641085634 0.1399157697707066 
1.3264358668258389E-4 0.8617853826767475 0.13808197373656983 
</TABLE>
</DEFINITION>
<DEFINITION>
<FOR>current_fan_bedroom</FOR>
<GIVEN>class</GIVEN>
<TABLE>
0.7396350023397286 9.358914365933551E-5 0.26027140851661207 
0.6707786178538268 1.3264358668258389E-4 0.32908873855949067 
</TABLE>
</DEFINITION>
<DEFINITION>
<FOR>current_speaker_bedroom</FOR>
<GIVEN>class</GIVEN>
<TABLE>
0.8498830135704258 9.358914365933551E-5 0.15002339728591482 
0.8490515983552195 1.3264358668258389E-4 0.15081575805809788 
</TABLE>
</DEFINITION>
<DEFINITION>
<FOR>current_exhaustFan_bathroom</FOR>
<GIVEN>class</GIVEN>
<TABLE>
0.956200280767431 9.358914365933551E-5 0.04370613008890969 
0.9148428173497811 1.3264358668258389E-4 0.08502453906353628 
</TABLE>
</DEFINITION>
<DEFINITION>
<FOR>current_fridge_kitchen</FOR>
<GIVEN>class</GIVEN>
<TABLE>
9.358914365933551E-5 0.8163781001403837 0.18352831071595696 
1.3264358668258389E-4 0.7662820002652871 0.23358535614803025 
</TABLE>
</DEFINITION>
<DEFINITION>
<FOR>current_riceCooker_kitchen</FOR>
<GIVEN>class</GIVEN>
<TABLE>
9.358914365933551E-5 0.8206832007487131 0.1792232101076275 
1.3264358668258389E-4 0.8257063270990848 0.17416102931423266 
</TABLE>
</DEFINITION>
<DEFINITION>
<FOR>current_microwave_kitchen</FOR>
<GIVEN>class</GIVEN>
<TABLE>
9.358914365933551E-5 0.8182498830135704 0.18165652784277023 
1.3264358668258389E-4 0.9042313304151745 0.09563602599814298 
</TABLE>
</DEFINITION>
<DEFINITION>
<FOR>current_Dishwasher_kitchen</FOR>
<GIVEN>class</GIVEN>
<TABLE>
0.944782405240992 9.358914365933551E-5 0.05512400561534862 
0.9594110624751293 1.3264358668258389E-4 0.04045629393818809 
</TABLE>
</DEFINITION>
<DEFINITION>
<FOR>current_washMachine_balcony</FOR>
<GIVEN>class</GIVEN>
<TABLE>
0.9642489471221338 9.358914365933551E-5 0.035657463734206835 
0.8108502453906353 1.3264358668258389E-4 0.18901711102268207 
</TABLE>
</DEFINITION>
<DEFINITION>
<FOR>current_waterHeater_balcony</FOR>
<GIVEN>class</GIVEN>
<TABLE>
9.358914365933551E-5 0.9255030416471689 0.07440336920917173 
1.3264358668258389E-4 0.7768934871998939 0.22297386921342352 
</TABLE>
</DEFINITION>
<DEFINITION>
<FOR>camera_hallway</FOR>
<GIVEN>class</GIVEN>
<TABLE>
0.9969112691875702 0.0030887308124298014 
0.9977447598832582 0.0022552401167418414 
</TABLE>
</DEFINITION>
<DEFINITION>
<FOR>camera_livingroom</FOR>
<GIVEN>class</GIVEN>
<TABLE>
0.7773305877948334 0.22266941220516662 
1.3266118333775536E-4 0.9998673388166622 
</TABLE>
</DEFINITION>
<DEFINITION>
<FOR>camera_bedroom</FOR>
<GIVEN>class</GIVEN>
<TABLE>
0.5970610258330213 0.40293897416697866 
0.8873706553462457 0.1126293446537543 
</TABLE>
</DEFINITION>
<DEFINITION>
<FOR>camera_kitchen</FOR>
<GIVEN>class</GIVEN>
<TABLE>
0.8344253088730812 0.16557469112691875 
0.9468028654815601 0.0531971345184399 
</TABLE>
</DEFINITION>
<DEFINITION>
<FOR>camera_balcony</FOR>
<GIVEN>class</GIVEN>
<TABLE>
0.9665855484837139 0.03341445151628603 
0.9998673388166622 1.3266118333775536E-4 
</TABLE>
</DEFINITION>
<DEFINITION>
<FOR>temperature_hallway</FOR>
<GIVEN>class</GIVEN>
<TABLE>
0.999906402096593 9.359790340696369E-5 
0.9998673388166622 1.3266118333775536E-4 
</TABLE>
</DEFINITION>
<DEFINITION>
<FOR>temperature_livingroom</FOR>
<GIVEN>class</GIVEN>
<TABLE>
0.999906402096593 9.359790340696369E-5 
0.9998673388166622 1.3266118333775536E-4 
</TABLE>
</DEFINITION>
<DEFINITION>
<FOR>temperature_bedroom</FOR>
<GIVEN>class</GIVEN>
<TABLE>
0.999906402096593 9.359790340696369E-5 
0.9998673388166622 1.3266118333775536E-4 
</TABLE>
</DEFINITION>
<DEFINITION>
<FOR>temperature_bathroom</FOR>
<GIVEN>class</GIVEN>
<TABLE>
0.9744477723698989 0.025552227630101086 
0.9085964446802866 0.09140355531971345 
</TABLE>
</DEFINITION>
<DEFINITION>
<FOR>temperature_kitchen</FOR>
<GIVEN>class</GIVEN>
<TABLE>
0.845282665668289 0.15471733433171098 
0.9468028654815601 0.0531971345184399 
</TABLE>
</DEFINITION>
<DEFINITION>
<FOR>humidity_hallway</FOR>
<GIVEN>class</GIVEN>
<TABLE>
0.999906402096593 9.359790340696369E-5 
0.9998673388166622 1.3266118333775536E-4 
</TABLE>
</DEFINITION>
<DEFINITION>
<FOR>humidity_livingroom</FOR>
<GIVEN>class</GIVEN>
<TABLE>
0.999906402096593 9.359790340696369E-5 
0.9998673388166622 1.3266118333775536E-4 
</TABLE>
</DEFINITION>
<DEFINITION>
<FOR>humidity_bedroom</FOR>
<GIVEN>class</GIVEN>
<TABLE>
0.999906402096593 9.359790340696369E-5 
0.9998673388166622 1.3266118333775536E-4 
</TABLE>
</DEFINITION>
<DEFINITION>
<FOR>humidity_bathroom</FOR>
<GIVEN>class</GIVEN>
<TABLE>
0.9744477723698989 0.025552227630101086 
0.9085964446802866 0.09140355531971345 
</TABLE>
</DEFINITION>
<DEFINITION>
<FOR>humidity_kitchen</FOR>
<GIVEN>class</GIVEN>
<TABLE>
0.999906402096593 9.359790340696369E-5 
0.9998673388166622 1.3266118333775536E-4 
</TABLE>
</DEFINITION>
<DEFINITION>
<FOR>accelerometer</FOR>
<GIVEN>class</GIVEN>
<TABLE>
0.23837154890032755 0.5908282639213851 0.17080018717828732 
1.3264358668258389E-4 0.957288765088208 0.04257859132510943 
</TABLE>
</DEFINITION>
<DEFINITION>
<FOR>class</FOR>
<TABLE>
0.5863336992316136 0.4136663007683864 
</TABLE>
</DEFINITION>
</NETWORK>
</BIF>
