<?xml version="1.0"?>
<!-- DTD for the XMLBIF 0.3 format -->
<!DOCTYPE BIF [
	<!ELEMENT BIF ( NETWORK )*>
	      <!ATTLIST BIF VERSION CDATA #REQUIRED>
	<!ELEMENT NETWORK ( NAME, ( PROPERTY | VARIABLE | DEFINITION )* )>
	<!ELEMENT NAME (#PCDATA)>
	<!ELEMENT VARIABLE ( NAME, ( OUTCOME |  PROPERTY )* ) >
	      <!ATTLIST VARIABLE TYPE (nature|decision|utility) "nature">
	<!ELEMENT OUTCOME (#PCDATA)>
	<!ELEMENT DEFINITION ( FOR | GIVEN | TABLE | PROPERTY )* >
	<!ELEMENT FOR (#PCDATA)>
	<!ELEMENT GIVEN (#PCDATA)>
	<!ELEMENT TABLE (#PCDATA)>
	<!ELEMENT PROPERTY (#PCDATA)>
]>


<BIF VERSION="0.3">
<NETWORK>
<NAME>TrainingData_g4-8</NAME>
<VARIABLE TYPE="nature">
<NAME>PIR_hallway</NAME>
<OUTCOME>off</OUTCOME>
<OUTCOME>on</OUTCOME>
<PROPERTY>position = (0,0)</PROPERTY>
</VARIABLE>
<VARIABLE TYPE="nature">
<NAME>PIR_livingroom</NAME>
<OUTCOME>off</OUTCOME>
<OUTCOME>on</OUTCOME>
<PROPERTY>position = (50,0)</PROPERTY>
</VARIABLE>
<VARIABLE TYPE="nature">
<NAME>PIR_bedroom</NAME>
<OUTCOME>off</OUTCOME>
<OUTCOME>on</OUTCOME>
<PROPERTY>position = (100,0)</PROPERTY>
</VARIABLE>
<VARIABLE TYPE="nature">
<NAME>PIR_bathroom</NAME>
<OUTCOME>off</OUTCOME>
<OUTCOME>on</OUTCOME>
<PROPERTY>position = (150,0)</PROPERTY>
</VARIABLE>
<VARIABLE TYPE="nature">
<NAME>PIR_kitchen</NAME>
<OUTCOME>off</OUTCOME>
<OUTCOME>on</OUTCOME>
<PROPERTY>position = (200,0)</PROPERTY>
</VARIABLE>
<VARIABLE TYPE="nature">
<NAME>PIR_balcony</NAME>
<OUTCOME>off</OUTCOME>
<OUTCOME>on</OUTCOME>
<PROPERTY>position = (250,0)</PROPERTY>
</VARIABLE>
<VARIABLE TYPE="nature">
<NAME>light_hallway</NAME>
<OUTCOME>off</OUTCOME>
<OUTCOME>on</OUTCOME>
<PROPERTY>position = (300,0)</PROPERTY>
</VARIABLE>
<VARIABLE TYPE="nature">
<NAME>light_livingroom</NAME>
<OUTCOME>off</OUTCOME>
<OUTCOME>on</OUTCOME>
<PROPERTY>position = (350,0)</PROPERTY>
</VARIABLE>
<VARIABLE TYPE="nature">
<NAME>light_bedroom</NAME>
<OUTCOME>off</OUTCOME>
<OUTCOME>on</OUTCOME>
<PROPERTY>position = (400,0)</PROPERTY>
</VARIABLE>
<VARIABLE TYPE="nature">
<NAME>light_bathroom</NAME>
<OUTCOME>off</OUTCOME>
<OUTCOME>on</OUTCOME>
<PROPERTY>position = (450,0)</PROPERTY>
</VARIABLE>
<VARIABLE TYPE="nature">
<NAME>light_kitchen</NAME>
<OUTCOME>off</OUTCOME>
<OUTCOME>on</OUTCOME>
<PROPERTY>position = (0,50)</PROPERTY>
</VARIABLE>
<VARIABLE TYPE="nature">
<NAME>light_balcony</NAME>
<OUTCOME>off</OUTCOME>
<OUTCOME>on</OUTCOME>
<PROPERTY>position = (50,50)</PROPERTY>
</VARIABLE>
<VARIABLE TYPE="nature">
<NAME>audio_hallway</NAME>
<OUTCOME>off</OUTCOME>
<OUTCOME>on</OUTCOME>
<PROPERTY>position = (100,50)</PROPERTY>
</VARIABLE>
<VARIABLE TYPE="nature">
<NAME>audio_livingroom</NAME>
<OUTCOME>off</OUTCOME>
<OUTCOME>on</OUTCOME>
<PROPERTY>position = (150,50)</PROPERTY>
</VARIABLE>
<VARIABLE TYPE="nature">
<NAME>audio_bedroom</NAME>
<OUTCOME>off</OUTCOME>
<OUTCOME>on</OUTCOME>
<PROPERTY>position = (200,50)</PROPERTY>
</VARIABLE>
<VARIABLE TYPE="nature">
<NAME>audio_bathroom</NAME>
<OUTCOME>off</OUTCOME>
<OUTCOME>little</OUTCOME>
<OUTCOME>loud</OUTCOME>
<PROPERTY>position = (250,50)</PROPERTY>
</VARIABLE>
<VARIABLE TYPE="nature">
<NAME>audio_kitchen</NAME>
<OUTCOME>off</OUTCOME>
<OUTCOME>little</OUTCOME>
<OUTCOME>loud</OUTCOME>
<PROPERTY>position = (300,50)</PROPERTY>
</VARIABLE>
<VARIABLE TYPE="nature">
<NAME>audio_balcony</NAME>
<OUTCOME>off</OUTCOME>
<OUTCOME>on</OUTCOME>
<PROPERTY>position = (350,50)</PROPERTY>
</VARIABLE>
<VARIABLE TYPE="nature">
<NAME>current_TV_livingroom</NAME>
<OUTCOME>off</OUTCOME>
<OUTCOME>standby</OUTCOME>
<OUTCOME>on</OUTCOME>
<PROPERTY>position = (400,50)</PROPERTY>
</VARIABLE>
<VARIABLE TYPE="nature">
<NAME>current_vacuumCleaner_livingroom</NAME>
<OUTCOME>off</OUTCOME>
<OUTCOME>standby</OUTCOME>
<OUTCOME>on</OUTCOME>
<PROPERTY>position = (450,50)</PROPERTY>
</VARIABLE>
<VARIABLE TYPE="nature">
<NAME>current_kinect_livingroom</NAME>
<OUTCOME>off</OUTCOME>
<OUTCOME>standby</OUTCOME>
<OUTCOME>on</OUTCOME>
<PROPERTY>position = (0,100)</PROPERTY>
</VARIABLE>
<VARIABLE TYPE="nature">
<NAME>current_AC_livingroom</NAME>
<OUTCOME>off</OUTCOME>
<OUTCOME>standby</OUTCOME>
<OUTCOME>on</OUTCOME>
<PROPERTY>position = (50,100)</PROPERTY>
</VARIABLE>
<VARIABLE TYPE="nature">
<NAME>current_fan_livingroom</NAME>
<OUTCOME>off</OUTCOME>
<OUTCOME>standby</OUTCOME>
<OUTCOME>on</OUTCOME>
<PROPERTY>position = (100,100)</PROPERTY>
</VARIABLE>
<VARIABLE TYPE="nature">
<NAME>current_fanHeater_livingroom</NAME>
<OUTCOME>off</OUTCOME>
<OUTCOME>standby</OUTCOME>
<OUTCOME>on</OUTCOME>
<PROPERTY>position = (150,100)</PROPERTY>
</VARIABLE>
<VARIABLE TYPE="nature">
<NAME>current_lamp_bedroom</NAME>
<OUTCOME>off</OUTCOME>
<OUTCOME>standby</OUTCOME>
<OUTCOME>on</OUTCOME>
<PROPERTY>position = (200,100)</PROPERTY>
</VARIABLE>
<VARIABLE TYPE="nature">
<NAME>current_PC_bedroom</NAME>
<OUTCOME>off</OUTCOME>
<OUTCOME>standby</OUTCOME>
<OUTCOME>on</OUTCOME>
<PROPERTY>position = (250,100)</PROPERTY>
</VARIABLE>
<VARIABLE TYPE="nature">
<NAME>current_monitor_bedroom</NAME>
<OUTCOME>off</OUTCOME>
<OUTCOME>standby</OUTCOME>
<OUTCOME>on</OUTCOME>
<PROPERTY>position = (300,100)</PROPERTY>
</VARIABLE>
<VARIABLE TYPE="nature">
<NAME>current_fan_bedroom</NAME>
<OUTCOME>off</OUTCOME>
<OUTCOME>standby</OUTCOME>
<OUTCOME>on</OUTCOME>
<PROPERTY>position = (350,100)</PROPERTY>
</VARIABLE>
<VARIABLE TYPE="nature">
<NAME>current_speaker_bedroom</NAME>
<OUTCOME>off</OUTCOME>
<OUTCOME>standby</OUTCOME>
<OUTCOME>on</OUTCOME>
<PROPERTY>position = (400,100)</PROPERTY>
</VARIABLE>
<VARIABLE TYPE="nature">
<NAME>current_exhaustFan_bathroom</NAME>
<OUTCOME>off</OUTCOME>
<OUTCOME>standby</OUTCOME>
<OUTCOME>on</OUTCOME>
<PROPERTY>position = (450,100)</PROPERTY>
</VARIABLE>
<VARIABLE TYPE="nature">
<NAME>current_fridge_kitchen</NAME>
<OUTCOME>off</OUTCOME>
<OUTCOME>standby</OUTCOME>
<OUTCOME>on</OUTCOME>
<PROPERTY>position = (0,150)</PROPERTY>
</VARIABLE>
<VARIABLE TYPE="nature">
<NAME>current_riceCooker_kitchen</NAME>
<OUTCOME>off</OUTCOME>
<OUTCOME>standby</OUTCOME>
<OUTCOME>on</OUTCOME>
<PROPERTY>position = (50,150)</PROPERTY>
</VARIABLE>
<VARIABLE TYPE="nature">
<NAME>current_microwave_kitchen</NAME>
<OUTCOME>off</OUTCOME>
<OUTCOME>standby</OUTCOME>
<OUTCOME>on</OUTCOME>
<PROPERTY>position = (100,150)</PROPERTY>
</VARIABLE>
<VARIABLE TYPE="nature">
<NAME>current_Dishwasher_kitchen</NAME>
<OUTCOME>off</OUTCOME>
<OUTCOME>standby</OUTCOME>
<OUTCOME>on</OUTCOME>
<PROPERTY>position = (150,150)</PROPERTY>
</VARIABLE>
<VARIABLE TYPE="nature">
<NAME>current_washMachine_balcony</NAME>
<OUTCOME>off</OUTCOME>
<OUTCOME>standby</OUTCOME>
<OUTCOME>on</OUTCOME>
<PROPERTY>position = (200,150)</PROPERTY>
</VARIABLE>
<VARIABLE TYPE="nature">
<NAME>current_waterHeater_balcony</NAME>
<OUTCOME>off</OUTCOME>
<OUTCOME>standby</OUTCOME>
<OUTCOME>on</OUTCOME>
<PROPERTY>position = (250,150)</PROPERTY>
</VARIABLE>
<VARIABLE TYPE="nature">
<NAME>camera_hallway</NAME>
<OUTCOME>off</OUTCOME>
<OUTCOME>on</OUTCOME>
<PROPERTY>position = (300,150)</PROPERTY>
</VARIABLE>
<VARIABLE TYPE="nature">
<NAME>camera_livingroom</NAME>
<OUTCOME>off</OUTCOME>
<OUTCOME>on</OUTCOME>
<PROPERTY>position = (350,150)</PROPERTY>
</VARIABLE>
<VARIABLE TYPE="nature">
<NAME>camera_bedroom</NAME>
<OUTCOME>off</OUTCOME>
<OUTCOME>on</OUTCOME>
<PROPERTY>position = (400,150)</PROPERTY>
</VARIABLE>
<VARIABLE TYPE="nature">
<NAME>camera_kitchen</NAME>
<OUTCOME>off</OUTCOME>
<OUTCOME>on</OUTCOME>
<PROPERTY>position = (450,150)</PROPERTY>
</VARIABLE>
<VARIABLE TYPE="nature">
<NAME>camera_balcony</NAME>
<OUTCOME>off</OUTCOME>
<OUTCOME>on</OUTCOME>
<PROPERTY>position = (0,200)</PROPERTY>
</VARIABLE>
<VARIABLE TYPE="nature">
<NAME>temperature_hallway</NAME>
<OUTCOME>low</OUTCOME>
<OUTCOME>high</OUTCOME>
<PROPERTY>position = (50,200)</PROPERTY>
</VARIABLE>
<VARIABLE TYPE="nature">
<NAME>temperature_livingroom</NAME>
<OUTCOME>low</OUTCOME>
<OUTCOME>high</OUTCOME>
<PROPERTY>position = (100,200)</PROPERTY>
</VARIABLE>
<VARIABLE TYPE="nature">
<NAME>temperature_bedroom</NAME>
<OUTCOME>low</OUTCOME>
<OUTCOME>high</OUTCOME>
<PROPERTY>position = (150,200)</PROPERTY>
</VARIABLE>
<VARIABLE TYPE="nature">
<NAME>temperature_bathroom</NAME>
<OUTCOME>low</OUTCOME>
<OUTCOME>high</OUTCOME>
<PROPERTY>position = (200,200)</PROPERTY>
</VARIABLE>
<VARIABLE TYPE="nature">
<NAME>temperature_kitchen</NAME>
<OUTCOME>low</OUTCOME>
<OUTCOME>high</OUTCOME>
<PROPERTY>position = (250,200)</PROPERTY>
</VARIABLE>
<VARIABLE TYPE="nature">
<NAME>humidity_hallway</NAME>
<OUTCOME>low</OUTCOME>
<OUTCOME>high</OUTCOME>
<PROPERTY>position = (300,200)</PROPERTY>
</VARIABLE>
<VARIABLE TYPE="nature">
<NAME>humidity_livingroom</NAME>
<OUTCOME>low</OUTCOME>
<OUTCOME>high</OUTCOME>
<PROPERTY>position = (350,200)</PROPERTY>
</VARIABLE>
<VARIABLE TYPE="nature">
<NAME>humidity_bedroom</NAME>
<OUTCOME>low</OUTCOME>
<OUTCOME>high</OUTCOME>
<PROPERTY>position = (400,200)</PROPERTY>
</VARIABLE>
<VARIABLE TYPE="nature">
<NAME>humidity_bathroom</NAME>
<OUTCOME>low</OUTCOME>
<OUTCOME>high</OUTCOME>
<PROPERTY>position = (450,200)</PROPERTY>
</VARIABLE>
<VARIABLE TYPE="nature">
<NAME>humidity_kitchen</NAME>
<OUTCOME>low</OUTCOME>
<OUTCOME>high</OUTCOME>
<PROPERTY>position = (0,250)</PROPERTY>
</VARIABLE>
<VARIABLE TYPE="nature">
<NAME>accelerometer</NAME>
<OUTCOME>low</OUTCOME>
<OUTCOME>medium</OUTCOME>
<OUTCOME>high</OUTCOME>
<PROPERTY>position = (50,250)</PROPERTY>
</VARIABLE>
<VARIABLE TYPE="nature">
<NAME>class</NAME>
<OUTCOME>OtherActivity</OUTCOME>
<OUTCOME>g4-8</OUTCOME>
<PROPERTY>position = (100,250)</PROPERTY>
</VARIABLE>
<DEFINITION>
<FOR>PIR_hallway</FOR>
<GIVEN>class</GIVEN>
<TABLE>
0.996936810782426 0.003063189217573954 
0.995049504950495 0.0049504950495049506 
</TABLE>
</DEFINITION>
<DEFINITION>
<FOR>PIR_livingroom</FOR>
<GIVEN>class</GIVEN>
<TABLE>
0.8196219149308595 0.18037808506914055 
0.995049504950495 0.0049504950495049506 
</TABLE>
</DEFINITION>
<DEFINITION>
<FOR>PIR_bedroom</FOR>
<GIVEN>class</GIVEN>
<TABLE>
0.9999124803080693 8.751969193068441E-5 
0.995049504950495 0.0049504950495049506 
</TABLE>
</DEFINITION>
<DEFINITION>
<FOR>PIR_bathroom</FOR>
<GIVEN>class</GIVEN>
<TABLE>
0.9535270435848066 0.04647295641519342 
0.0049504950495049506 0.995049504950495 
</TABLE>
</DEFINITION>
<DEFINITION>
<FOR>PIR_kitchen</FOR>
<GIVEN>class</GIVEN>
<TABLE>
0.8408016803780851 0.15919831962191494 
0.995049504950495 0.0049504950495049506 
</TABLE>
</DEFINITION>
<DEFINITION>
<FOR>PIR_balcony</FOR>
<GIVEN>class</GIVEN>
<TABLE>
0.9687554699807457 0.031244530019254334 
0.995049504950495 0.0049504950495049506 
</TABLE>
</DEFINITION>
<DEFINITION>
<FOR>light_hallway</FOR>
<GIVEN>class</GIVEN>
<TABLE>
0.9624540521617364 0.03754594783826361 
0.995049504950495 0.0049504950495049506 
</TABLE>
</DEFINITION>
<DEFINITION>
<FOR>light_livingroom</FOR>
<GIVEN>class</GIVEN>
<TABLE>
0.6654122177489935 0.3345877822510065 
0.995049504950495 0.0049504950495049506 
</TABLE>
</DEFINITION>
<DEFINITION>
<FOR>light_bedroom</FOR>
<GIVEN>class</GIVEN>
<TABLE>
0.8000175039383861 0.19998249606161386 
0.995049504950495 0.0049504950495049506 
</TABLE>
</DEFINITION>
<DEFINITION>
<FOR>light_bathroom</FOR>
<GIVEN>class</GIVEN>
<TABLE>
0.8600560126028356 0.13994398739716435 
0.0049504950495049506 0.995049504950495 
</TABLE>
</DEFINITION>
<DEFINITION>
<FOR>light_kitchen</FOR>
<GIVEN>class</GIVEN>
<TABLE>
0.8287239628916506 0.17127603710834938 
0.995049504950495 0.0049504950495049506 
</TABLE>
</DEFINITION>
<DEFINITION>
<FOR>light_balcony</FOR>
<GIVEN>class</GIVEN>
<TABLE>
0.9424995624015403 0.05750043759845965 
0.995049504950495 0.0049504950495049506 
</TABLE>
</DEFINITION>
<DEFINITION>
<FOR>audio_hallway</FOR>
<GIVEN>class</GIVEN>
<TABLE>
0.996936810782426 0.003063189217573954 
0.995049504950495 0.0049504950495049506 
</TABLE>
</DEFINITION>
<DEFINITION>
<FOR>audio_livingroom</FOR>
<GIVEN>class</GIVEN>
<TABLE>
0.9405741291790652 0.05942587082093471 
0.995049504950495 0.0049504950495049506 
</TABLE>
</DEFINITION>
<DEFINITION>
<FOR>audio_bedroom</FOR>
<GIVEN>class</GIVEN>
<TABLE>
0.9999124803080693 8.751969193068441E-5 
0.995049504950495 0.0049504950495049506 
</TABLE>
</DEFINITION>
<DEFINITION>
<FOR>audio_bathroom</FOR>
<GIVEN>class</GIVEN>
<TABLE>
0.953443598494793 0.015139581692482716 0.03141681981272425 
0.0049261083743842365 0.9901477832512315 0.0049261083743842365 
</TABLE>
</DEFINITION>
<DEFINITION>
<FOR>audio_kitchen</FOR>
<GIVEN>class</GIVEN>
<TABLE>
0.8508794959306905 8.751203290452437E-5 0.149032992036405 
0.9901477832512315 0.0049261083743842365 0.0049261083743842365 
</TABLE>
</DEFINITION>
<DEFINITION>
<FOR>audio_balcony</FOR>
<GIVEN>class</GIVEN>
<TABLE>
0.9999124803080693 8.751969193068441E-5 
0.995049504950495 0.0049504950495049506 
</TABLE>
</DEFINITION>
<DEFINITION>
<FOR>current_TV_livingroom</FOR>
<GIVEN>class</GIVEN>
<TABLE>
8.751203290452437E-5 0.7294127942592107 0.27049969370788485 
0.0049261083743842365 0.9901477832512315 0.0049261083743842365 
</TABLE>
</DEFINITION>
<DEFINITION>
<FOR>current_vacuumCleaner_livingroom</FOR>
<GIVEN>class</GIVEN>
<TABLE>
0.9254397479653452 8.751203290452437E-5 0.07447274000175023 
0.9901477832512315 0.0049261083743842365 0.0049261083743842365 
</TABLE>
</DEFINITION>
<DEFINITION>
<FOR>current_kinect_livingroom</FOR>
<GIVEN>class</GIVEN>
<TABLE>
8.751203290452437E-5 0.802222805635775 0.19768968233132056 
0.0049261083743842365 0.9901477832512315 0.0049261083743842365 
</TABLE>
</DEFINITION>
<DEFINITION>
<FOR>current_AC_livingroom</FOR>
<GIVEN>class</GIVEN>
<TABLE>
0.12417957469152008 8.751203290452437E-5 0.8757329132755753 
0.0049261083743842365 0.0049261083743842365 0.9901477832512315 
</TABLE>
</DEFINITION>
<DEFINITION>
<FOR>current_fan_livingroom</FOR>
<GIVEN>class</GIVEN>
<TABLE>
0.7784195326857443 8.751203290452437E-5 0.22149295528135118 
0.9901477832512315 0.0049261083743842365 0.0049261083743842365 
</TABLE>
</DEFINITION>
<DEFINITION>
<FOR>current_fanHeater_livingroom</FOR>
<GIVEN>class</GIVEN>
<TABLE>
0.9443423470727225 8.751203290452437E-5 0.055570140894372975 
0.9901477832512315 0.0049261083743842365 0.0049261083743842365 
</TABLE>
</DEFINITION>
<DEFINITION>
<FOR>current_lamp_bedroom</FOR>
<GIVEN>class</GIVEN>
<TABLE>
0.8792333945917563 8.751203290452437E-5 0.12067909337533911 
0.9901477832512315 0.0049261083743842365 0.0049261083743842365 
</TABLE>
</DEFINITION>
<DEFINITION>
<FOR>current_PC_bedroom</FOR>
<GIVEN>class</GIVEN>
<TABLE>
8.751203290452437E-5 0.8374026428633937 0.16250984510370176 
0.0049261083743842365 0.9901477832512315 0.0049261083743842365 
</TABLE>
</DEFINITION>
<DEFINITION>
<FOR>current_monitor_bedroom</FOR>
<GIVEN>class</GIVEN>
<TABLE>
8.751203290452437E-5 0.8577054344972433 0.1422070534698521 
0.0049261083743842365 0.9901477832512315 0.0049261083743842365 
</TABLE>
</DEFINITION>
<DEFINITION>
<FOR>current_fan_bedroom</FOR>
<GIVEN>class</GIVEN>
<TABLE>
0.7294127942592107 8.751203290452437E-5 0.27049969370788485 
0.9901477832512315 0.0049261083743842365 0.0049261083743842365 
</TABLE>
</DEFINITION>
<DEFINITION>
<FOR>current_speaker_bedroom</FOR>
<GIVEN>class</GIVEN>
<TABLE>
0.8472039905487004 8.751203290452437E-5 0.15270849741839504 
0.9901477832512315 0.0049261083743842365 0.0049261083743842365 
</TABLE>
</DEFINITION>
<DEFINITION>
<FOR>current_exhaustFan_bathroom</FOR>
<GIVEN>class</GIVEN>
<TABLE>
0.9695458125492256 8.751203290452437E-5 0.030366675417869957 
0.0049261083743842365 0.0049261083743842365 0.9901477832512315 
</TABLE>
</DEFINITION>
<DEFINITION>
<FOR>current_fridge_kitchen</FOR>
<GIVEN>class</GIVEN>
<TABLE>
8.751203290452437E-5 0.8090487442023279 0.19086374376476767 
0.0049261083743842365 0.9901477832512315 0.0049261083743842365 
</TABLE>
</DEFINITION>
<DEFINITION>
<FOR>current_riceCooker_kitchen</FOR>
<GIVEN>class</GIVEN>
<TABLE>
8.751203290452437E-5 0.8179749715585893 0.18193751640850617 
0.0049261083743842365 0.9901477832512315 0.0049261083743842365 
</TABLE>
</DEFINITION>
<DEFINITION>
<FOR>current_microwave_kitchen</FOR>
<GIVEN>class</GIVEN>
<TABLE>
8.751203290452437E-5 0.8221755491380065 0.177736938829089 
0.0049261083743842365 0.9901477832512315 0.0049261083743842365 
</TABLE>
</DEFINITION>
<DEFINITION>
<FOR>current_Dishwasher_kitchen</FOR>
<GIVEN>class</GIVEN>
<TABLE>
0.9450424433359587 8.751203290452437E-5 0.05487004463113678 
0.9901477832512315 0.0049261083743842365 0.0049261083743842365 
</TABLE>
</DEFINITION>
<DEFINITION>
<FOR>current_washMachine_balcony</FOR>
<GIVEN>class</GIVEN>
<TABLE>
0.9509932615734663 8.751203290452437E-5 0.048919226393629126 
0.9901477832512315 0.0049261083743842365 0.0049261083743842365 
</TABLE>
</DEFINITION>
<DEFINITION>
<FOR>current_waterHeater_balcony</FOR>
<GIVEN>class</GIVEN>
<TABLE>
8.751203290452437E-5 0.9119628948980485 0.087949593069047 
0.0049261083743842365 0.9901477832512315 0.0049261083743842365 
</TABLE>
</DEFINITION>
<DEFINITION>
<FOR>camera_hallway</FOR>
<GIVEN>class</GIVEN>
<TABLE>
0.996936810782426 0.003063189217573954 
0.995049504950495 0.0049504950495049506 
</TABLE>
</DEFINITION>
<DEFINITION>
<FOR>camera_livingroom</FOR>
<GIVEN>class</GIVEN>
<TABLE>
0.709347103098197 0.2906528969018029 
0.995049504950495 0.0049504950495049506 
</TABLE>
</DEFINITION>
<DEFINITION>
<FOR>camera_bedroom</FOR>
<GIVEN>class</GIVEN>
<TABLE>
0.6139506388937511 0.3860493611062489 
0.995049504950495 0.0049504950495049506 
</TABLE>
</DEFINITION>
<DEFINITION>
<FOR>camera_kitchen</FOR>
<GIVEN>class</GIVEN>
<TABLE>
0.8408016803780851 0.15919831962191494 
0.995049504950495 0.0049504950495049506 
</TABLE>
</DEFINITION>
<DEFINITION>
<FOR>camera_balcony</FOR>
<GIVEN>class</GIVEN>
<TABLE>
0.9687554699807457 0.031244530019254334 
0.995049504950495 0.0049504950495049506 
</TABLE>
</DEFINITION>
<DEFINITION>
<FOR>temperature_hallway</FOR>
<GIVEN>class</GIVEN>
<TABLE>
0.9999124803080693 8.751969193068441E-5 
0.995049504950495 0.0049504950495049506 
</TABLE>
</DEFINITION>
<DEFINITION>
<FOR>temperature_livingroom</FOR>
<GIVEN>class</GIVEN>
<TABLE>
0.9999124803080693 8.751969193068441E-5 
0.995049504950495 0.0049504950495049506 
</TABLE>
</DEFINITION>
<DEFINITION>
<FOR>temperature_bedroom</FOR>
<GIVEN>class</GIVEN>
<TABLE>
0.9999124803080693 8.751969193068441E-5 
0.995049504950495 0.0049504950495049506 
</TABLE>
</DEFINITION>
<DEFINITION>
<FOR>temperature_bathroom</FOR>
<GIVEN>class</GIVEN>
<TABLE>
0.9685804305968843 0.0314195694031157 
0.995049504950495 0.0049504950495049506 
</TABLE>
</DEFINITION>
<DEFINITION>
<FOR>temperature_kitchen</FOR>
<GIVEN>class</GIVEN>
<TABLE>
0.8509539646420444 0.14904603535795555 
0.995049504950495 0.0049504950495049506 
</TABLE>
</DEFINITION>
<DEFINITION>
<FOR>humidity_hallway</FOR>
<GIVEN>class</GIVEN>
<TABLE>
0.9999124803080693 8.751969193068441E-5 
0.995049504950495 0.0049504950495049506 
</TABLE>
</DEFINITION>
<DEFINITION>
<FOR>humidity_livingroom</FOR>
<GIVEN>class</GIVEN>
<TABLE>
0.9999124803080693 8.751969193068441E-5 
0.995049504950495 0.0049504950495049506 
</TABLE>
</DEFINITION>
<DEFINITION>
<FOR>humidity_bedroom</FOR>
<GIVEN>class</GIVEN>
<TABLE>
0.9999124803080693 8.751969193068441E-5 
0.995049504950495 0.0049504950495049506 
</TABLE>
</DEFINITION>
<DEFINITION>
<FOR>humidity_bathroom</FOR>
<GIVEN>class</GIVEN>
<TABLE>
0.9685804305968843 0.0314195694031157 
0.995049504950495 0.0049504950495049506 
</TABLE>
</DEFINITION>
<DEFINITION>
<FOR>humidity_kitchen</FOR>
<GIVEN>class</GIVEN>
<TABLE>
0.9999124803080693 8.751969193068441E-5 
0.995049504950495 0.0049504950495049506 
</TABLE>
</DEFINITION>
<DEFINITION>
<FOR>accelerometer</FOR>
<GIVEN>class</GIVEN>
<TABLE>
0.22289314780782357 0.6138969108252385 0.16320994136693795 
0.0049261083743842365 0.9901477832512315 0.0049261083743842365 
</TABLE>
</DEFINITION>
<DEFINITION>
<FOR>class</FOR>
<TABLE>
0.9827111646309995 0.017288835369000517 
</TABLE>
</DEFINITION>
</NETWORK>
</BIF>
