<?xml version="1.0"?>
<!-- DTD for the XMLBIF 0.3 format -->
<!DOCTYPE BIF [
	<!ELEMENT BIF ( NETWORK )*>
	      <!ATTLIST BIF VERSION CDATA #REQUIRED>
	<!ELEMENT NETWORK ( NAME, ( PROPERTY | VARIABLE | DEFINITION )* )>
	<!ELEMENT NAME (#PCDATA)>
	<!ELEMENT VARIABLE ( NAME, ( OUTCOME |  PROPERTY )* ) >
	      <!ATTLIST VARIABLE TYPE (nature|decision|utility) "nature">
	<!ELEMENT OUTCOME (#PCDATA)>
	<!ELEMENT DEFINITION ( FOR | GIVEN | TABLE | PROPERTY )* >
	<!ELEMENT FOR (#PCDATA)>
	<!ELEMENT GIVEN (#PCDATA)>
	<!ELEMENT TABLE (#PCDATA)>
	<!ELEMENT PROPERTY (#PCDATA)>
]>


<BIF VERSION="0.3">
<NETWORK>
<NAME>TrainingData_g12-1</NAME>
<VARIABLE TYPE="nature">
<NAME>PIR_hallway</NAME>
<OUTCOME>off</OUTCOME>
<OUTCOME>on</OUTCOME>
<PROPERTY>position = (0,0)</PROPERTY>
</VARIABLE>
<VARIABLE TYPE="nature">
<NAME>PIR_livingroom</NAME>
<OUTCOME>off</OUTCOME>
<OUTCOME>on</OUTCOME>
<PROPERTY>position = (50,0)</PROPERTY>
</VARIABLE>
<VARIABLE TYPE="nature">
<NAME>PIR_bedroom</NAME>
<OUTCOME>off</OUTCOME>
<OUTCOME>on</OUTCOME>
<PROPERTY>position = (100,0)</PROPERTY>
</VARIABLE>
<VARIABLE TYPE="nature">
<NAME>PIR_bathroom</NAME>
<OUTCOME>off</OUTCOME>
<OUTCOME>on</OUTCOME>
<PROPERTY>position = (150,0)</PROPERTY>
</VARIABLE>
<VARIABLE TYPE="nature">
<NAME>PIR_kitchen</NAME>
<OUTCOME>off</OUTCOME>
<OUTCOME>on</OUTCOME>
<PROPERTY>position = (200,0)</PROPERTY>
</VARIABLE>
<VARIABLE TYPE="nature">
<NAME>PIR_balcony</NAME>
<OUTCOME>off</OUTCOME>
<OUTCOME>on</OUTCOME>
<PROPERTY>position = (250,0)</PROPERTY>
</VARIABLE>
<VARIABLE TYPE="nature">
<NAME>light_hallway</NAME>
<OUTCOME>off</OUTCOME>
<OUTCOME>on</OUTCOME>
<PROPERTY>position = (300,0)</PROPERTY>
</VARIABLE>
<VARIABLE TYPE="nature">
<NAME>light_livingroom</NAME>
<OUTCOME>off</OUTCOME>
<OUTCOME>on</OUTCOME>
<PROPERTY>position = (350,0)</PROPERTY>
</VARIABLE>
<VARIABLE TYPE="nature">
<NAME>light_bedroom</NAME>
<OUTCOME>off</OUTCOME>
<OUTCOME>on</OUTCOME>
<PROPERTY>position = (400,0)</PROPERTY>
</VARIABLE>
<VARIABLE TYPE="nature">
<NAME>light_bathroom</NAME>
<OUTCOME>off</OUTCOME>
<OUTCOME>on</OUTCOME>
<PROPERTY>position = (450,0)</PROPERTY>
</VARIABLE>
<VARIABLE TYPE="nature">
<NAME>light_kitchen</NAME>
<OUTCOME>off</OUTCOME>
<OUTCOME>on</OUTCOME>
<PROPERTY>position = (0,50)</PROPERTY>
</VARIABLE>
<VARIABLE TYPE="nature">
<NAME>light_balcony</NAME>
<OUTCOME>off</OUTCOME>
<OUTCOME>on</OUTCOME>
<PROPERTY>position = (50,50)</PROPERTY>
</VARIABLE>
<VARIABLE TYPE="nature">
<NAME>audio_hallway</NAME>
<OUTCOME>off</OUTCOME>
<OUTCOME>on</OUTCOME>
<PROPERTY>position = (100,50)</PROPERTY>
</VARIABLE>
<VARIABLE TYPE="nature">
<NAME>audio_livingroom</NAME>
<OUTCOME>off</OUTCOME>
<OUTCOME>on</OUTCOME>
<PROPERTY>position = (150,50)</PROPERTY>
</VARIABLE>
<VARIABLE TYPE="nature">
<NAME>audio_bedroom</NAME>
<OUTCOME>off</OUTCOME>
<OUTCOME>on</OUTCOME>
<PROPERTY>position = (200,50)</PROPERTY>
</VARIABLE>
<VARIABLE TYPE="nature">
<NAME>audio_bathroom</NAME>
<OUTCOME>off</OUTCOME>
<OUTCOME>little</OUTCOME>
<OUTCOME>loud</OUTCOME>
<PROPERTY>position = (250,50)</PROPERTY>
</VARIABLE>
<VARIABLE TYPE="nature">
<NAME>audio_kitchen</NAME>
<OUTCOME>off</OUTCOME>
<OUTCOME>little</OUTCOME>
<OUTCOME>loud</OUTCOME>
<PROPERTY>position = (300,50)</PROPERTY>
</VARIABLE>
<VARIABLE TYPE="nature">
<NAME>audio_balcony</NAME>
<OUTCOME>off</OUTCOME>
<OUTCOME>on</OUTCOME>
<PROPERTY>position = (350,50)</PROPERTY>
</VARIABLE>
<VARIABLE TYPE="nature">
<NAME>current_TV_livingroom</NAME>
<OUTCOME>off</OUTCOME>
<OUTCOME>standby</OUTCOME>
<OUTCOME>on</OUTCOME>
<PROPERTY>position = (400,50)</PROPERTY>
</VARIABLE>
<VARIABLE TYPE="nature">
<NAME>current_vacuumCleaner_livingroom</NAME>
<OUTCOME>off</OUTCOME>
<OUTCOME>standby</OUTCOME>
<OUTCOME>on</OUTCOME>
<PROPERTY>position = (450,50)</PROPERTY>
</VARIABLE>
<VARIABLE TYPE="nature">
<NAME>current_kinect_livingroom</NAME>
<OUTCOME>off</OUTCOME>
<OUTCOME>standby</OUTCOME>
<OUTCOME>on</OUTCOME>
<PROPERTY>position = (0,100)</PROPERTY>
</VARIABLE>
<VARIABLE TYPE="nature">
<NAME>current_AC_livingroom</NAME>
<OUTCOME>off</OUTCOME>
<OUTCOME>standby</OUTCOME>
<OUTCOME>on</OUTCOME>
<PROPERTY>position = (50,100)</PROPERTY>
</VARIABLE>
<VARIABLE TYPE="nature">
<NAME>current_fan_livingroom</NAME>
<OUTCOME>off</OUTCOME>
<OUTCOME>standby</OUTCOME>
<OUTCOME>on</OUTCOME>
<PROPERTY>position = (100,100)</PROPERTY>
</VARIABLE>
<VARIABLE TYPE="nature">
<NAME>current_fanHeater_livingroom</NAME>
<OUTCOME>off</OUTCOME>
<OUTCOME>standby</OUTCOME>
<OUTCOME>on</OUTCOME>
<PROPERTY>position = (150,100)</PROPERTY>
</VARIABLE>
<VARIABLE TYPE="nature">
<NAME>current_lamp_bedroom</NAME>
<OUTCOME>off</OUTCOME>
<OUTCOME>standby</OUTCOME>
<OUTCOME>on</OUTCOME>
<PROPERTY>position = (200,100)</PROPERTY>
</VARIABLE>
<VARIABLE TYPE="nature">
<NAME>current_PC_bedroom</NAME>
<OUTCOME>off</OUTCOME>
<OUTCOME>standby</OUTCOME>
<OUTCOME>on</OUTCOME>
<PROPERTY>position = (250,100)</PROPERTY>
</VARIABLE>
<VARIABLE TYPE="nature">
<NAME>current_monitor_bedroom</NAME>
<OUTCOME>off</OUTCOME>
<OUTCOME>standby</OUTCOME>
<OUTCOME>on</OUTCOME>
<PROPERTY>position = (300,100)</PROPERTY>
</VARIABLE>
<VARIABLE TYPE="nature">
<NAME>current_fan_bedroom</NAME>
<OUTCOME>off</OUTCOME>
<OUTCOME>standby</OUTCOME>
<OUTCOME>on</OUTCOME>
<PROPERTY>position = (350,100)</PROPERTY>
</VARIABLE>
<VARIABLE TYPE="nature">
<NAME>current_speaker_bedroom</NAME>
<OUTCOME>off</OUTCOME>
<OUTCOME>standby</OUTCOME>
<OUTCOME>on</OUTCOME>
<PROPERTY>position = (400,100)</PROPERTY>
</VARIABLE>
<VARIABLE TYPE="nature">
<NAME>current_exhaustFan_bathroom</NAME>
<OUTCOME>off</OUTCOME>
<OUTCOME>standby</OUTCOME>
<OUTCOME>on</OUTCOME>
<PROPERTY>position = (450,100)</PROPERTY>
</VARIABLE>
<VARIABLE TYPE="nature">
<NAME>current_fridge_kitchen</NAME>
<OUTCOME>off</OUTCOME>
<OUTCOME>standby</OUTCOME>
<OUTCOME>on</OUTCOME>
<PROPERTY>position = (0,150)</PROPERTY>
</VARIABLE>
<VARIABLE TYPE="nature">
<NAME>current_riceCooker_kitchen</NAME>
<OUTCOME>off</OUTCOME>
<OUTCOME>standby</OUTCOME>
<OUTCOME>on</OUTCOME>
<PROPERTY>position = (50,150)</PROPERTY>
</VARIABLE>
<VARIABLE TYPE="nature">
<NAME>current_microwave_kitchen</NAME>
<OUTCOME>off</OUTCOME>
<OUTCOME>standby</OUTCOME>
<OUTCOME>on</OUTCOME>
<PROPERTY>position = (100,150)</PROPERTY>
</VARIABLE>
<VARIABLE TYPE="nature">
<NAME>current_Dishwasher_kitchen</NAME>
<OUTCOME>off</OUTCOME>
<OUTCOME>standby</OUTCOME>
<OUTCOME>on</OUTCOME>
<PROPERTY>position = (150,150)</PROPERTY>
</VARIABLE>
<VARIABLE TYPE="nature">
<NAME>current_washMachine_balcony</NAME>
<OUTCOME>off</OUTCOME>
<OUTCOME>standby</OUTCOME>
<OUTCOME>on</OUTCOME>
<PROPERTY>position = (200,150)</PROPERTY>
</VARIABLE>
<VARIABLE TYPE="nature">
<NAME>current_waterHeater_balcony</NAME>
<OUTCOME>off</OUTCOME>
<OUTCOME>standby</OUTCOME>
<OUTCOME>on</OUTCOME>
<PROPERTY>position = (250,150)</PROPERTY>
</VARIABLE>
<VARIABLE TYPE="nature">
<NAME>camera_hallway</NAME>
<OUTCOME>off</OUTCOME>
<OUTCOME>on</OUTCOME>
<PROPERTY>position = (300,150)</PROPERTY>
</VARIABLE>
<VARIABLE TYPE="nature">
<NAME>camera_livingroom</NAME>
<OUTCOME>off</OUTCOME>
<OUTCOME>on</OUTCOME>
<PROPERTY>position = (350,150)</PROPERTY>
</VARIABLE>
<VARIABLE TYPE="nature">
<NAME>camera_bedroom</NAME>
<OUTCOME>off</OUTCOME>
<OUTCOME>on</OUTCOME>
<PROPERTY>position = (400,150)</PROPERTY>
</VARIABLE>
<VARIABLE TYPE="nature">
<NAME>camera_kitchen</NAME>
<OUTCOME>off</OUTCOME>
<OUTCOME>on</OUTCOME>
<PROPERTY>position = (450,150)</PROPERTY>
</VARIABLE>
<VARIABLE TYPE="nature">
<NAME>camera_balcony</NAME>
<OUTCOME>off</OUTCOME>
<OUTCOME>on</OUTCOME>
<PROPERTY>position = (0,200)</PROPERTY>
</VARIABLE>
<VARIABLE TYPE="nature">
<NAME>temperature_hallway</NAME>
<OUTCOME>low</OUTCOME>
<OUTCOME>high</OUTCOME>
<PROPERTY>position = (50,200)</PROPERTY>
</VARIABLE>
<VARIABLE TYPE="nature">
<NAME>temperature_livingroom</NAME>
<OUTCOME>low</OUTCOME>
<OUTCOME>high</OUTCOME>
<PROPERTY>position = (100,200)</PROPERTY>
</VARIABLE>
<VARIABLE TYPE="nature">
<NAME>temperature_bedroom</NAME>
<OUTCOME>low</OUTCOME>
<OUTCOME>high</OUTCOME>
<PROPERTY>position = (150,200)</PROPERTY>
</VARIABLE>
<VARIABLE TYPE="nature">
<NAME>temperature_bathroom</NAME>
<OUTCOME>low</OUTCOME>
<OUTCOME>high</OUTCOME>
<PROPERTY>position = (200,200)</PROPERTY>
</VARIABLE>
<VARIABLE TYPE="nature">
<NAME>temperature_kitchen</NAME>
<OUTCOME>low</OUTCOME>
<OUTCOME>high</OUTCOME>
<PROPERTY>position = (250,200)</PROPERTY>
</VARIABLE>
<VARIABLE TYPE="nature">
<NAME>humidity_hallway</NAME>
<OUTCOME>low</OUTCOME>
<OUTCOME>high</OUTCOME>
<PROPERTY>position = (300,200)</PROPERTY>
</VARIABLE>
<VARIABLE TYPE="nature">
<NAME>humidity_livingroom</NAME>
<OUTCOME>low</OUTCOME>
<OUTCOME>high</OUTCOME>
<PROPERTY>position = (350,200)</PROPERTY>
</VARIABLE>
<VARIABLE TYPE="nature">
<NAME>humidity_bedroom</NAME>
<OUTCOME>low</OUTCOME>
<OUTCOME>high</OUTCOME>
<PROPERTY>position = (400,200)</PROPERTY>
</VARIABLE>
<VARIABLE TYPE="nature">
<NAME>humidity_bathroom</NAME>
<OUTCOME>low</OUTCOME>
<OUTCOME>high</OUTCOME>
<PROPERTY>position = (450,200)</PROPERTY>
</VARIABLE>
<VARIABLE TYPE="nature">
<NAME>humidity_kitchen</NAME>
<OUTCOME>low</OUTCOME>
<OUTCOME>high</OUTCOME>
<PROPERTY>position = (0,250)</PROPERTY>
</VARIABLE>
<VARIABLE TYPE="nature">
<NAME>accelerometer</NAME>
<OUTCOME>low</OUTCOME>
<OUTCOME>medium</OUTCOME>
<OUTCOME>high</OUTCOME>
<PROPERTY>position = (50,250)</PROPERTY>
</VARIABLE>
<VARIABLE TYPE="nature">
<NAME>class</NAME>
<OUTCOME>OtherActivity</OUTCOME>
<OUTCOME>g12-1</OUTCOME>
<PROPERTY>position = (100,250)</PROPERTY>
</VARIABLE>
<DEFINITION>
<FOR>PIR_hallway</FOR>
<GIVEN>class</GIVEN>
<TABLE>
0.9935495761150018 0.006450423884998157 
0.9999820794953586 1.7920504641410702E-5 
</TABLE>
</DEFINITION>
<DEFINITION>
<FOR>PIR_livingroom</FOR>
<GIVEN>class</GIVEN>
<TABLE>
0.6308514559528198 0.3691485440471802 
0.9906275760725421 0.009372423927457798 
</TABLE>
</DEFINITION>
<DEFINITION>
<FOR>PIR_bedroom</FOR>
<GIVEN>class</GIVEN>
<TABLE>
0.9998157021747144 1.8429782528566163E-4 
0.9999820794953586 1.7920504641410702E-5 
</TABLE>
</DEFINITION>
<DEFINITION>
<FOR>PIR_bathroom</FOR>
<GIVEN>class</GIVEN>
<TABLE>
0.9360486546258754 0.06395134537412459 
0.9380488154546432 0.061951184545356794 
</TABLE>
</DEFINITION>
<DEFINITION>
<FOR>PIR_kitchen</FOR>
<GIVEN>class</GIVEN>
<TABLE>
0.6772945079248065 0.3227054920751935 
0.9890147306548153 0.01098526934518476 
</TABLE>
</DEFINITION>
<DEFINITION>
<FOR>PIR_balcony</FOR>
<GIVEN>class</GIVEN>
<TABLE>
0.9386288241798747 0.06137117582012532 
0.9961112504928139 0.0038887495071861225 
</TABLE>
</DEFINITION>
<DEFINITION>
<FOR>light_hallway</FOR>
<GIVEN>class</GIVEN>
<TABLE>
0.9806487283450055 0.01935127165499447 
0.947725887961005 0.05227411203899502 
</TABLE>
</DEFINITION>
<DEFINITION>
<FOR>light_livingroom</FOR>
<GIVEN>class</GIVEN>
<TABLE>
0.4192775525248802 0.5807224474751198 
0.8915988674241067 0.10840113257589333 
</TABLE>
</DEFINITION>
<DEFINITION>
<FOR>light_bedroom</FOR>
<GIVEN>class</GIVEN>
<TABLE>
0.9684850718761518 0.03151492812384814 
0.6590265581878786 0.3409734418121214 
</TABLE>
</DEFINITION>
<DEFINITION>
<FOR>light_bathroom</FOR>
<GIVEN>class</GIVEN>
<TABLE>
0.9201990416513085 0.07980095834869148 
0.7796673954338554 0.2203326045661446 
</TABLE>
</DEFINITION>
<DEFINITION>
<FOR>light_kitchen</FOR>
<GIVEN>class</GIVEN>
<TABLE>
0.6525985993365279 0.3474014006634722 
0.9883695924877245 0.011630407512275545 
</TABLE>
</DEFINITION>
<DEFINITION>
<FOR>light_balcony</FOR>
<GIVEN>class</GIVEN>
<TABLE>
0.8881312200516034 0.11186877994839661 
0.9919178524067238 0.008082147593276226 
</TABLE>
</DEFINITION>
<DEFINITION>
<FOR>audio_hallway</FOR>
<GIVEN>class</GIVEN>
<TABLE>
0.9935495761150018 0.006450423884998157 
0.9999820794953586 1.7920504641410702E-5 
</TABLE>
</DEFINITION>
<DEFINITION>
<FOR>audio_livingroom</FOR>
<GIVEN>class</GIVEN>
<TABLE>
0.8748617766310357 0.12513822336896424 
0.9999820794953586 1.7920504641410702E-5 
</TABLE>
</DEFINITION>
<DEFINITION>
<FOR>audio_bedroom</FOR>
<GIVEN>class</GIVEN>
<TABLE>
0.9998157021747144 1.8429782528566163E-4 
0.9999820794953586 1.7920504641410702E-5 
</TABLE>
</DEFINITION>
<DEFINITION>
<FOR>audio_bathroom</FOR>
<GIVEN>class</GIVEN>
<TABLE>
0.9358761746821448 1.8426386585590566E-4 0.06393956145199926 
0.9380320054477358 0.060014694550472196 0.001953300001792018 
</TABLE>
</DEFINITION>
<DEFINITION>
<FOR>audio_kitchen</FOR>
<GIVEN>class</GIVEN>
<TABLE>
0.6985443154597384 1.8426386585590566E-4 0.30127142067440577 
0.988997007329355 1.7920183502679067E-5 0.010985072487142268 
</TABLE>
</DEFINITION>
<DEFINITION>
<FOR>audio_balcony</FOR>
<GIVEN>class</GIVEN>
<TABLE>
0.9998157021747144 1.8429782528566163E-4 
0.9999820794953586 1.7920504641410702E-5 
</TABLE>
</DEFINITION>
<DEFINITION>
<FOR>current_TV_livingroom</FOR>
<GIVEN>class</GIVEN>
<TABLE>
1.8426386585590566E-4 0.5028560899207666 0.49695964621337757 
1.7920183502679067E-5 0.9364191889324947 0.06356289088400265 
</TABLE>
</DEFINITION>
<DEFINITION>
<FOR>current_vacuumCleaner_livingroom</FOR>
<GIVEN>class</GIVEN>
<TABLE>
0.9111848166574534 1.8426386585590566E-4 0.08863091947669062 
0.9402899485690733 1.7920183502679067E-5 0.05969213124742397 
</TABLE>
</DEFINITION>
<DEFINITION>
<FOR>current_kinect_livingroom</FOR>
<GIVEN>class</GIVEN>
<TABLE>
1.8426386585590566E-4 0.648424543946932 0.3513911921872121 
1.7920183502679067E-5 0.9431930182965074 0.05678906151998996 
</TABLE>
</DEFINITION>
<DEFINITION>
<FOR>current_AC_livingroom</FOR>
<GIVEN>class</GIVEN>
<TABLE>
1.8426386585590566E-4 1.8426386585590566E-4 0.9996314722682882 
0.22871530204469293 1.7920183502679067E-5 0.7712667777718044 
</TABLE>
</DEFINITION>
<DEFINITION>
<FOR>current_fan_livingroom</FOR>
<GIVEN>class</GIVEN>
<TABLE>
0.6414225170444076 1.8426386585590566E-4 0.3583932190897365 
0.9054531118398652 1.7920183502679067E-5 0.09452896797663209 
</TABLE>
</DEFINITION>
<DEFINITION>
<FOR>current_fanHeater_livingroom</FOR>
<GIVEN>class</GIVEN>
<TABLE>
0.9837847798046803 1.8426386585590566E-4 0.016030956329463792 
0.9115818145977815 1.7920183502679067E-5 0.08840026521871584 
</TABLE>
</DEFINITION>
<DEFINITION>
<FOR>current_lamp_bedroom</FOR>
<GIVEN>class</GIVEN>
<TABLE>
0.9808365579509858 1.8426386585590566E-4 0.018979178183158283 
0.7941687722882282 1.7920183502679067E-5 0.2058133075282691 
</TABLE>
</DEFINITION>
<DEFINITION>
<FOR>current_PC_bedroom</FOR>
<GIVEN>class</GIVEN>
<TABLE>
1.8426386585590566E-4 0.9808365579509858 0.018979178183158283 
1.7920183502679067E-5 0.7170761428597029 0.28290593695679445 
</TABLE>
</DEFINITION>
<DEFINITION>
<FOR>current_monitor_bedroom</FOR>
<GIVEN>class</GIVEN>
<TABLE>
1.8426386585590566E-4 0.9819421411461212 0.017873594988022847 
1.7920183502679067E-5 0.7535257961041522 0.2464562837123452 
</TABLE>
</DEFINITION>
<DEFINITION>
<FOR>current_fan_bedroom</FOR>
<GIVEN>class</GIVEN>
<TABLE>
0.956882255389718 1.8426386585590566E-4 0.04293348074442602 
0.5390211995770837 1.7920183502679067E-5 0.4609608802394137 
</TABLE>
</DEFINITION>
<DEFINITION>
<FOR>current_speaker_bedroom</FOR>
<GIVEN>class</GIVEN>
<TABLE>
0.9856274184632393 1.8426386585590566E-4 0.014188317670904735 
0.7309463648907765 1.7920183502679067E-5 0.2690357149257208 
</TABLE>
</DEFINITION>
<DEFINITION>
<FOR>current_exhaustFan_bathroom</FOR>
<GIVEN>class</GIVEN>
<TABLE>
0.9848903629998157 1.8426386585590566E-4 0.014925373134328358 
0.9248069100227586 1.7920183502679067E-5 0.07517516979373869 
</TABLE>
</DEFINITION>
<DEFINITION>
<FOR>current_fridge_kitchen</FOR>
<GIVEN>class</GIVEN>
<TABLE>
1.8426386585590566E-4 0.6609544868251336 0.3388612493090105 
1.7920183502679067E-5 0.9448058348117485 0.055176245004748846 
</TABLE>
</DEFINITION>
<DEFINITION>
<FOR>current_riceCooker_kitchen</FOR>
<GIVEN>class</GIVEN>
<TABLE>
1.8426386585590566E-4 0.687488483508384 0.3123272526257601 
1.7920183502679067E-5 0.9380320054477358 0.061950074368761536 
</TABLE>
</DEFINITION>
<DEFINITION>
<FOR>current_microwave_kitchen</FOR>
<GIVEN>class</GIVEN>
<TABLE>
1.8426386585590566E-4 0.6919108162889257 0.30790491984521834 
1.7920183502679067E-5 0.9419027650843145 0.058079314732182856 
</TABLE>
</DEFINITION>
<DEFINITION>
<FOR>current_Dishwasher_kitchen</FOR>
<GIVEN>class</GIVEN>
<TABLE>
0.896443707388981 1.8426386585590566E-4 0.10337202874516307 
0.9893195706324033 1.7920183502679067E-5 0.010662509184094044 
</TABLE>
</DEFINITION>
<DEFINITION>
<FOR>current_washMachine_balcony</FOR>
<GIVEN>class</GIVEN>
<TABLE>
0.9086051225354708 1.8426386585590566E-4 0.0912106135986733 
0.9896421339354515 1.7920183502679067E-5 0.010339945881045821 
</TABLE>
</DEFINITION>
<DEFINITION>
<FOR>current_waterHeater_balcony</FOR>
<GIVEN>class</GIVEN>
<TABLE>
1.8426386585590566E-4 0.9152386217062835 0.0845771144278607 
1.7920183502679067E-5 0.9119043779008297 0.08807770191566762 
</TABLE>
</DEFINITION>
<DEFINITION>
<FOR>camera_hallway</FOR>
<GIVEN>class</GIVEN>
<TABLE>
0.9935495761150018 0.006450423884998157 
0.9999820794953586 1.7920504641410702E-5 
</TABLE>
</DEFINITION>
<DEFINITION>
<FOR>camera_livingroom</FOR>
<GIVEN>class</GIVEN>
<TABLE>
0.41964614817545154 0.5803538518245485 
0.9722411383104548 0.027758861689545177 
</TABLE>
</DEFINITION>
<DEFINITION>
<FOR>camera_bedroom</FOR>
<GIVEN>class</GIVEN>
<TABLE>
0.9998157021747144 1.8429782528566163E-4 
0.28871725027776785 0.7112827497222322 
</TABLE>
</DEFINITION>
<DEFINITION>
<FOR>camera_kitchen</FOR>
<GIVEN>class</GIVEN>
<TABLE>
0.6772945079248065 0.3227054920751935 
0.9890147306548153 0.01098526934518476 
</TABLE>
</DEFINITION>
<DEFINITION>
<FOR>camera_balcony</FOR>
<GIVEN>class</GIVEN>
<TABLE>
0.9386288241798747 0.06137117582012532 
0.9961112504928139 0.0038887495071861225 
</TABLE>
</DEFINITION>
<DEFINITION>
<FOR>temperature_hallway</FOR>
<GIVEN>class</GIVEN>
<TABLE>
0.9998157021747144 1.8429782528566163E-4 
0.9999820794953586 1.7920504641410702E-5 
</TABLE>
</DEFINITION>
<DEFINITION>
<FOR>temperature_livingroom</FOR>
<GIVEN>class</GIVEN>
<TABLE>
0.9998157021747144 1.8429782528566163E-4 
0.9999820794953586 1.7920504641410702E-5 
</TABLE>
</DEFINITION>
<DEFINITION>
<FOR>temperature_bedroom</FOR>
<GIVEN>class</GIVEN>
<TABLE>
0.9998157021747144 1.8429782528566163E-4 
0.9999820794953586 1.7920504641410702E-5 
</TABLE>
</DEFINITION>
<DEFINITION>
<FOR>temperature_bathroom</FOR>
<GIVEN>class</GIVEN>
<TABLE>
0.9360486546258754 0.06395134537412459 
0.9980466649940862 0.0019533350059137665 
</TABLE>
</DEFINITION>
<DEFINITION>
<FOR>temperature_kitchen</FOR>
<GIVEN>class</GIVEN>
<TABLE>
0.6986730556579432 0.30132694434205676 
0.9890147306548153 0.01098526934518476 
</TABLE>
</DEFINITION>
<DEFINITION>
<FOR>humidity_hallway</FOR>
<GIVEN>class</GIVEN>
<TABLE>
0.9998157021747144 1.8429782528566163E-4 
0.9999820794953586 1.7920504641410702E-5 
</TABLE>
</DEFINITION>
<DEFINITION>
<FOR>humidity_livingroom</FOR>
<GIVEN>class</GIVEN>
<TABLE>
0.9998157021747144 1.8429782528566163E-4 
0.9999820794953586 1.7920504641410702E-5 
</TABLE>
</DEFINITION>
<DEFINITION>
<FOR>humidity_bedroom</FOR>
<GIVEN>class</GIVEN>
<TABLE>
0.9998157021747144 1.8429782528566163E-4 
0.9999820794953586 1.7920504641410702E-5 
</TABLE>
</DEFINITION>
<DEFINITION>
<FOR>humidity_bathroom</FOR>
<GIVEN>class</GIVEN>
<TABLE>
0.9360486546258754 0.06395134537412459 
0.9980466649940862 0.0019533350059137665 
</TABLE>
</DEFINITION>
<DEFINITION>
<FOR>humidity_kitchen</FOR>
<GIVEN>class</GIVEN>
<TABLE>
0.9998157021747144 1.8429782528566163E-4 
0.9999820794953586 1.7920504641410702E-5 
</TABLE>
</DEFINITION>
<DEFINITION>
<FOR>accelerometer</FOR>
<GIVEN>class</GIVEN>
<TABLE>
1.8426386585590566E-4 0.66021743136171 0.33959830477243413 
0.41064100496389083 0.585792878519076 0.0035661165170331344 
</TABLE>
</DEFINITION>
<DEFINITION>
<FOR>class</FOR>
<TABLE>
0.08860614771502302 0.9113938522849769 
</TABLE>
</DEFINITION>
</NETWORK>
</BIF>
