<?xml version="1.0"?>
<!-- DTD for the XMLBIF 0.3 format -->
<!DOCTYPE BIF [
	<!ELEMENT BIF ( NETWORK )*>
	      <!ATTLIST BIF VERSION CDATA #REQUIRED>
	<!ELEMENT NETWORK ( NAME, ( PROPERTY | VARIABLE | DEFINITION )* )>
	<!ELEMENT NAME (#PCDATA)>
	<!ELEMENT VARIABLE ( NAME, ( OUTCOME |  PROPERTY )* ) >
	      <!ATTLIST VARIABLE TYPE (nature|decision|utility) "nature">
	<!ELEMENT OUTCOME (#PCDATA)>
	<!ELEMENT DEFINITION ( FOR | GIVEN | TABLE | PROPERTY )* >
	<!ELEMENT FOR (#PCDATA)>
	<!ELEMENT GIVEN (#PCDATA)>
	<!ELEMENT TABLE (#PCDATA)>
	<!ELEMENT PROPERTY (#PCDATA)>
]>


<BIF VERSION="0.3">
<NETWORK>
<NAME>TrainingData_g1-12-weka.filters.unsupervised.attribute.Remove-V-R2,14,20,53</NAME>
<VARIABLE TYPE="nature">
<NAME>PIR_livingroom</NAME>
<OUTCOME>off</OUTCOME>
<OUTCOME>on</OUTCOME>
<PROPERTY>position = (0,0)</PROPERTY>
</VARIABLE>
<VARIABLE TYPE="nature">
<NAME>audio_livingroom</NAME>
<OUTCOME>off</OUTCOME>
<OUTCOME>on</OUTCOME>
<PROPERTY>position = (50,0)</PROPERTY>
</VARIABLE>
<VARIABLE TYPE="nature">
<NAME>current_vacuumCleaner_livingroom</NAME>
<OUTCOME>off</OUTCOME>
<OUTCOME>standby</OUTCOME>
<OUTCOME>on</OUTCOME>
<PROPERTY>position = (100,0)</PROPERTY>
</VARIABLE>
<VARIABLE TYPE="nature">
<NAME>class</NAME>
<OUTCOME>OtherActivity</OUTCOME>
<OUTCOME>g1-12</OUTCOME>
<PROPERTY>position = (150,0)</PROPERTY>
</VARIABLE>
<DEFINITION>
<FOR>PIR_livingroom</FOR>
<GIVEN>class</GIVEN>
<TABLE>
0.8397717295873574 0.16022827041264268 
0.004201680672268907 0.9957983193277311 
</TABLE>
</DEFINITION>
<DEFINITION>
<FOR>audio_livingroom</FOR>
<GIVEN>class</GIVEN>
<TABLE>
0.9403863037752415 0.05961369622475856 
0.9957983193277311 0.004201680672268907 
</TABLE>
</DEFINITION>
<DEFINITION>
<FOR>current_vacuumCleaner_livingroom</FOR>
<GIVEN>class</GIVEN>
<TABLE>
0.9459222192959353 8.778860503906593E-5 0.053989992099025545 
0.0041841004184100415 0.0041841004184100415 0.9916317991631799 
</TABLE>
</DEFINITION>
<DEFINITION>
<FOR>class</FOR>
<TABLE>
0.9796146568037158 0.02038534319628419 
</TABLE>
</DEFINITION>
</NETWORK>
</BIF>
