<?xml version="1.0"?>
<!-- DTD for the XMLBIF 0.3 format -->
<!DOCTYPE BIF [
	<!ELEMENT BIF ( NETWORK )*>
	      <!ATTLIST BIF VERSION CDATA #REQUIRED>
	<!ELEMENT NETWORK ( NAME, ( PROPERTY | VARIABLE | DEFINITION )* )>
	<!ELEMENT NAME (#PCDATA)>
	<!ELEMENT VARIABLE ( NAME, ( OUTCOME |  PROPERTY )* ) >
	      <!ATTLIST VARIABLE TYPE (nature|decision|utility) "nature">
	<!ELEMENT OUTCOME (#PCDATA)>
	<!ELEMENT DEFINITION ( FOR | GIVEN | TABLE | PROPERTY )* >
	<!ELEMENT FOR (#PCDATA)>
	<!ELEMENT GIVEN (#PCDATA)>
	<!ELEMENT TABLE (#PCDATA)>
	<!ELEMENT PROPERTY (#PCDATA)>
]>


<BIF VERSION="0.3">
<NETWORK>
<NAME>TrainingData_g1-5-weka.filters.unsupervised.attribute.Remove-V-R7,10,26-27,29,53</NAME>
<VARIABLE TYPE="nature">
<NAME>light_hallway</NAME>
<OUTCOME>off</OUTCOME>
<OUTCOME>on</OUTCOME>
<PROPERTY>position = (0,0)</PROPERTY>
</VARIABLE>
<VARIABLE TYPE="nature">
<NAME>light_bathroom</NAME>
<OUTCOME>off</OUTCOME>
<OUTCOME>on</OUTCOME>
<PROPERTY>position = (50,0)</PROPERTY>
</VARIABLE>
<VARIABLE TYPE="nature">
<NAME>current_PC_bedroom</NAME>
<OUTCOME>off</OUTCOME>
<OUTCOME>standby</OUTCOME>
<OUTCOME>on</OUTCOME>
<PROPERTY>position = (100,0)</PROPERTY>
</VARIABLE>
<VARIABLE TYPE="nature">
<NAME>current_monitor_bedroom</NAME>
<OUTCOME>off</OUTCOME>
<OUTCOME>standby</OUTCOME>
<OUTCOME>on</OUTCOME>
<PROPERTY>position = (150,0)</PROPERTY>
</VARIABLE>
<VARIABLE TYPE="nature">
<NAME>current_speaker_bedroom</NAME>
<OUTCOME>off</OUTCOME>
<OUTCOME>standby</OUTCOME>
<OUTCOME>on</OUTCOME>
<PROPERTY>position = (200,0)</PROPERTY>
</VARIABLE>
<VARIABLE TYPE="nature">
<NAME>class</NAME>
<OUTCOME>OtherActivity</OUTCOME>
<OUTCOME>g1-5</OUTCOME>
<PROPERTY>position = (250,0)</PROPERTY>
</VARIABLE>
<DEFINITION>
<FOR>light_hallway</FOR>
<GIVEN>class</GIVEN>
<TABLE>
0.9692144373673036 0.03078556263269639 
0.9123222748815166 0.08767772511848342 
</TABLE>
</DEFINITION>
<DEFINITION>
<FOR>light_bathroom</FOR>
<GIVEN>class</GIVEN>
<TABLE>
0.8275429453773403 0.17245705462265973 
0.9897314375987362 0.010268562401263823 
</TABLE>
</DEFINITION>
<DEFINITION>
<FOR>current_PC_bedroom</FOR>
<GIVEN>class</GIVEN>
<TABLE>
9.649715333397665E-5 0.9426806909196179 0.05722281192704815 
7.892659826361484E-4 7.892659826361484E-4 0.9984214680347278 
</TABLE>
</DEFINITION>
<DEFINITION>
<FOR>current_monitor_bedroom</FOR>
<GIVEN>class</GIVEN>
<TABLE>
9.649715333397665E-5 0.9650680304931004 0.03483547235356557 
7.892659826361484E-4 7.892659826361484E-4 0.9984214680347278 
</TABLE>
</DEFINITION>
<DEFINITION>
<FOR>current_speaker_bedroom</FOR>
<GIVEN>class</GIVEN>
<TABLE>
0.9534883720930233 9.649715333397665E-5 0.046415130753642765 
7.892659826361484E-4 7.892659826361484E-4 0.9984214680347278 
</TABLE>
</DEFINITION>
<DEFINITION>
<FOR>class</FOR>
<TABLE>
0.8911921555135042 0.10880784448649579 
</TABLE>
</DEFINITION>
</NETWORK>
</BIF>
