<?xml version="1.0"?>
<!-- DTD for the XMLBIF 0.3 format -->
<!DOCTYPE BIF [
	<!ELEMENT BIF ( NETWORK )*>
	      <!ATTLIST BIF VERSION CDATA #REQUIRED>
	<!ELEMENT NETWORK ( NAME, ( PROPERTY | VARIABLE | DEFINITION )* )>
	<!ELEMENT NAME (#PCDATA)>
	<!ELEMENT VARIABLE ( NAME, ( OUTCOME |  PROPERTY )* ) >
	      <!ATTLIST VARIABLE TYPE (nature|decision|utility) "nature">
	<!ELEMENT OUTCOME (#PCDATA)>
	<!ELEMENT DEFINITION ( FOR | GIVEN | TABLE | PROPERTY )* >
	<!ELEMENT FOR (#PCDATA)>
	<!ELEMENT GIVEN (#PCDATA)>
	<!ELEMENT TABLE (#PCDATA)>
	<!ELEMENT PROPERTY (#PCDATA)>
]>


<BIF VERSION="0.3">
<NETWORK>
<NAME>TrainingData_g12-1-weka.filters.unsupervised.attribute.Remove-V-R1-2,11-12,14,38-39,45,53</NAME>
<VARIABLE TYPE="nature">
<NAME>PIR_hallway</NAME>
<OUTCOME>off</OUTCOME>
<OUTCOME>on</OUTCOME>
<PROPERTY>position = (0,0)</PROPERTY>
</VARIABLE>
<VARIABLE TYPE="nature">
<NAME>PIR_livingroom</NAME>
<OUTCOME>off</OUTCOME>
<OUTCOME>on</OUTCOME>
<PROPERTY>position = (50,0)</PROPERTY>
</VARIABLE>
<VARIABLE TYPE="nature">
<NAME>light_kitchen</NAME>
<OUTCOME>off</OUTCOME>
<OUTCOME>on</OUTCOME>
<PROPERTY>position = (100,0)</PROPERTY>
</VARIABLE>
<VARIABLE TYPE="nature">
<NAME>light_balcony</NAME>
<OUTCOME>off</OUTCOME>
<OUTCOME>on</OUTCOME>
<PROPERTY>position = (150,0)</PROPERTY>
</VARIABLE>
<VARIABLE TYPE="nature">
<NAME>audio_livingroom</NAME>
<OUTCOME>off</OUTCOME>
<OUTCOME>on</OUTCOME>
<PROPERTY>position = (200,0)</PROPERTY>
</VARIABLE>
<VARIABLE TYPE="nature">
<NAME>camera_livingroom</NAME>
<OUTCOME>off</OUTCOME>
<OUTCOME>on</OUTCOME>
<PROPERTY>position = (250,0)</PROPERTY>
</VARIABLE>
<VARIABLE TYPE="nature">
<NAME>camera_bedroom</NAME>
<OUTCOME>off</OUTCOME>
<OUTCOME>on</OUTCOME>
<PROPERTY>position = (300,0)</PROPERTY>
</VARIABLE>
<VARIABLE TYPE="nature">
<NAME>temperature_bathroom</NAME>
<OUTCOME>low</OUTCOME>
<OUTCOME>high</OUTCOME>
<PROPERTY>position = (350,0)</PROPERTY>
</VARIABLE>
<VARIABLE TYPE="nature">
<NAME>class</NAME>
<OUTCOME>OtherActivity</OUTCOME>
<OUTCOME>g12-1</OUTCOME>
<PROPERTY>position = (400,0)</PROPERTY>
</VARIABLE>
<DEFINITION>
<FOR>PIR_hallway</FOR>
<GIVEN>class</GIVEN>
<TABLE>
0.9935495761150018 0.006450423884998157 
0.9999820794953586 1.7920504641410702E-5 
</TABLE>
</DEFINITION>
<DEFINITION>
<FOR>PIR_livingroom</FOR>
<GIVEN>class</GIVEN>
<TABLE>
0.6308514559528198 0.3691485440471802 
0.9906275760725421 0.009372423927457798 
</TABLE>
</DEFINITION>
<DEFINITION>
<FOR>light_kitchen</FOR>
<GIVEN>class</GIVEN>
<TABLE>
0.6525985993365279 0.3474014006634722 
0.9883695924877245 0.011630407512275545 
</TABLE>
</DEFINITION>
<DEFINITION>
<FOR>light_balcony</FOR>
<GIVEN>class</GIVEN>
<TABLE>
0.8881312200516034 0.11186877994839661 
0.9919178524067238 0.008082147593276226 
</TABLE>
</DEFINITION>
<DEFINITION>
<FOR>audio_livingroom</FOR>
<GIVEN>class</GIVEN>
<TABLE>
0.8748617766310357 0.12513822336896424 
0.9999820794953586 1.7920504641410702E-5 
</TABLE>
</DEFINITION>
<DEFINITION>
<FOR>camera_livingroom</FOR>
<GIVEN>class</GIVEN>
<TABLE>
0.41964614817545154 0.5803538518245485 
0.9722411383104548 0.027758861689545177 
</TABLE>
</DEFINITION>
<DEFINITION>
<FOR>camera_bedroom</FOR>
<GIVEN>class</GIVEN>
<TABLE>
0.9998157021747144 1.8429782528566163E-4 
0.28871725027776785 0.7112827497222322 
</TABLE>
</DEFINITION>
<DEFINITION>
<FOR>temperature_bathroom</FOR>
<GIVEN>class</GIVEN>
<TABLE>
0.9360486546258754 0.06395134537412459 
0.9980466649940862 0.0019533350059137665 
</TABLE>
</DEFINITION>
<DEFINITION>
<FOR>class</FOR>
<TABLE>
0.08860614771502302 0.9113938522849769 
</TABLE>
</DEFINITION>
</NETWORK>
</BIF>
