<?xml version="1.0"?>
<!-- DTD for the XMLBIF 0.3 format -->
<!DOCTYPE BIF [
	<!ELEMENT BIF ( NETWORK )*>
	      <!ATTLIST BIF VERSION CDATA #REQUIRED>
	<!ELEMENT NETWORK ( NAME, ( PROPERTY | VARIABLE | DEFINITION )* )>
	<!ELEMENT NAME (#PCDATA)>
	<!ELEMENT VARIABLE ( NAME, ( OUTCOME |  PROPERTY )* ) >
	      <!ATTLIST VARIABLE TYPE (nature|decision|utility) "nature">
	<!ELEMENT OUTCOME (#PCDATA)>
	<!ELEMENT DEFINITION ( FOR | GIVEN | TABLE | PROPERTY )* >
	<!ELEMENT FOR (#PCDATA)>
	<!ELEMENT GIVEN (#PCDATA)>
	<!ELEMENT TABLE (#PCDATA)>
	<!ELEMENT PROPERTY (#PCDATA)>
]>


<BIF VERSION="0.3">
<NETWORK>
<NAME>TrainingData_g12-2-weka.filters.unsupervised.attribute.Remove-V-R8,14,20,38,52-53</NAME>
<VARIABLE TYPE="nature">
<NAME>light_livingroom</NAME>
<OUTCOME>off</OUTCOME>
<OUTCOME>on</OUTCOME>
<PROPERTY>position = (0,0)</PROPERTY>
</VARIABLE>
<VARIABLE TYPE="nature">
<NAME>audio_livingroom</NAME>
<OUTCOME>off</OUTCOME>
<OUTCOME>on</OUTCOME>
<PROPERTY>position = (50,0)</PROPERTY>
</VARIABLE>
<VARIABLE TYPE="nature">
<NAME>current_vacuumCleaner_livingroom</NAME>
<OUTCOME>off</OUTCOME>
<OUTCOME>standby</OUTCOME>
<OUTCOME>on</OUTCOME>
<PROPERTY>position = (100,0)</PROPERTY>
</VARIABLE>
<VARIABLE TYPE="nature">
<NAME>camera_livingroom</NAME>
<OUTCOME>off</OUTCOME>
<OUTCOME>on</OUTCOME>
<PROPERTY>position = (150,0)</PROPERTY>
</VARIABLE>
<VARIABLE TYPE="nature">
<NAME>accelerometer</NAME>
<OUTCOME>low</OUTCOME>
<OUTCOME>medium</OUTCOME>
<OUTCOME>high</OUTCOME>
<PROPERTY>position = (200,0)</PROPERTY>
</VARIABLE>
<VARIABLE TYPE="nature">
<NAME>class</NAME>
<OUTCOME>OtherActivity</OUTCOME>
<OUTCOME>g12-2</OUTCOME>
<PROPERTY>position = (250,0)</PROPERTY>
</VARIABLE>
<DEFINITION>
<FOR>light_livingroom</FOR>
<GIVEN>class</GIVEN>
<TABLE>
0.9394413676860102 0.060558632313989884 
3.7647767487387995E-5 0.9999623522325126 
</TABLE>
</DEFINITION>
<DEFINITION>
<FOR>audio_livingroom</FOR>
<GIVEN>class</GIVEN>
<TABLE>
0.9998796051047436 1.2039489525644112E-4 
0.7957608613809201 0.20423913861907989 
</TABLE>
</DEFINITION>
<DEFINITION>
<FOR>current_vacuumCleaner_livingroom</FOR>
<GIVEN>class</GIVEN>
<TABLE>
0.9617190321415674 1.2038040207054291E-4 0.038160587456362104 
0.8390994993035426 3.764635018634943E-5 0.16086285434627112 
</TABLE>
</DEFINITION>
<DEFINITION>
<FOR>camera_livingroom</FOR>
<GIVEN>class</GIVEN>
<TABLE>
0.9998796051047436 1.2039489525644112E-4 
3.7647767487387995E-5 0.9999623522325126 
</TABLE>
</DEFINITION>
<DEFINITION>
<FOR>accelerometer</FOR>
<GIVEN>class</GIVEN>
<TABLE>
0.3066088840736728 0.6932707355242567 1.2038040207054291E-4 
3.764635018634943E-5 0.43854233332078457 0.561420020329029 
</TABLE>
</DEFINITION>
<DEFINITION>
<FOR>class</FOR>
<TABLE>
0.23819767108357712 0.7618023289164229 
</TABLE>
</DEFINITION>
</NETWORK>
</BIF>
