<?xml version="1.0"?>
<!-- DTD for the XMLBIF 0.3 format -->
<!DOCTYPE BIF [
	<!ELEMENT BIF ( NETWORK )*>
	      <!ATTLIST BIF VERSION CDATA #REQUIRED>
	<!ELEMENT NETWORK ( NAME, ( PROPERTY | VARIABLE | DEFINITION )* )>
	<!ELEMENT NAME (#PCDATA)>
	<!ELEMENT VARIABLE ( NAME, ( OUTCOME |  PROPERTY )* ) >
	      <!ATTLIST VARIABLE TYPE (nature|decision|utility) "nature">
	<!ELEMENT OUTCOME (#PCDATA)>
	<!ELEMENT DEFINITION ( FOR | GIVEN | TABLE | PROPERTY )* >
	<!ELEMENT FOR (#PCDATA)>
	<!ELEMENT GIVEN (#PCDATA)>
	<!ELEMENT TABLE (#PCDATA)>
	<!ELEMENT PROPERTY (#PCDATA)>
]>


<BIF VERSION="0.3">
<NETWORK>
<NAME>TrainingData_g14-1-weka.filters.unsupervised.attribute.Remove-V-R2,12,14,17,25,27,38-39,53</NAME>
<VARIABLE TYPE="nature">
<NAME>PIR_livingroom</NAME>
<OUTCOME>off</OUTCOME>
<OUTCOME>on</OUTCOME>
<PROPERTY>position = (0,0)</PROPERTY>
</VARIABLE>
<VARIABLE TYPE="nature">
<NAME>light_balcony</NAME>
<OUTCOME>off</OUTCOME>
<OUTCOME>on</OUTCOME>
<PROPERTY>position = (50,0)</PROPERTY>
</VARIABLE>
<VARIABLE TYPE="nature">
<NAME>audio_livingroom</NAME>
<OUTCOME>off</OUTCOME>
<OUTCOME>on</OUTCOME>
<PROPERTY>position = (100,0)</PROPERTY>
</VARIABLE>
<VARIABLE TYPE="nature">
<NAME>audio_kitchen</NAME>
<OUTCOME>off</OUTCOME>
<OUTCOME>little</OUTCOME>
<OUTCOME>loud</OUTCOME>
<PROPERTY>position = (150,0)</PROPERTY>
</VARIABLE>
<VARIABLE TYPE="nature">
<NAME>current_lamp_bedroom</NAME>
<OUTCOME>off</OUTCOME>
<OUTCOME>standby</OUTCOME>
<OUTCOME>on</OUTCOME>
<PROPERTY>position = (200,0)</PROPERTY>
</VARIABLE>
<VARIABLE TYPE="nature">
<NAME>current_monitor_bedroom</NAME>
<OUTCOME>off</OUTCOME>
<OUTCOME>standby</OUTCOME>
<OUTCOME>on</OUTCOME>
<PROPERTY>position = (250,0)</PROPERTY>
</VARIABLE>
<VARIABLE TYPE="nature">
<NAME>camera_livingroom</NAME>
<OUTCOME>off</OUTCOME>
<OUTCOME>on</OUTCOME>
<PROPERTY>position = (300,0)</PROPERTY>
</VARIABLE>
<VARIABLE TYPE="nature">
<NAME>camera_bedroom</NAME>
<OUTCOME>off</OUTCOME>
<OUTCOME>on</OUTCOME>
<PROPERTY>position = (350,0)</PROPERTY>
</VARIABLE>
<VARIABLE TYPE="nature">
<NAME>class</NAME>
<OUTCOME>OtherActivity</OUTCOME>
<OUTCOME>g14-1</OUTCOME>
<PROPERTY>position = (400,0)</PROPERTY>
</VARIABLE>
<DEFINITION>
<FOR>PIR_livingroom</FOR>
<GIVEN>class</GIVEN>
<TABLE>
0.6030519223147047 0.3969480776852953 
0.9911688223970821 0.008831177602917835 
</TABLE>
</DEFINITION>
<DEFINITION>
<FOR>light_balcony</FOR>
<GIVEN>class</GIVEN>
<TABLE>
0.8900118906064209 0.10998810939357907 
0.9844821181317753 0.015517881868224646 
</TABLE>
</DEFINITION>
<DEFINITION>
<FOR>audio_livingroom</FOR>
<GIVEN>class</GIVEN>
<TABLE>
0.8654379706698375 0.1345620293301625 
0.9999831143831684 1.6885616831582856E-5 
</TABLE>
</DEFINITION>
<DEFINITION>
<FOR>audio_kitchen</FOR>
<GIVEN>class</GIVEN>
<TABLE>
0.6758470378442639 1.9813750743015652E-4 0.32395482464830594 
0.9896324063286224 1.688533171234149E-5 0.010350708339665332 
</TABLE>
</DEFINITION>
<DEFINITION>
<FOR>current_lamp_bedroom</FOR>
<GIVEN>class</GIVEN>
<TABLE>
0.986130374479889 1.9813750743015652E-4 0.0136714880126808 
0.7212569440926667 1.688533171234149E-5 0.27872617057562094 
</TABLE>
</DEFINITION>
<DEFINITION>
<FOR>current_monitor_bedroom</FOR>
<GIVEN>class</GIVEN>
<TABLE>
1.9813750743015652E-4 0.9877154745393303 0.012086387953239549 
1.688533171234149E-5 0.717913648413623 0.28206946625466456 
</TABLE>
</DEFINITION>
<DEFINITION>
<FOR>camera_livingroom</FOR>
<GIVEN>class</GIVEN>
<TABLE>
0.393380895759017 0.606619104240983 
0.9604707709972645 0.03952922900273547 
</TABLE>
</DEFINITION>
<DEFINITION>
<FOR>camera_bedroom</FOR>
<GIVEN>class</GIVEN>
<TABLE>
0.9998018232263178 1.9817677368212446E-4 
0.3297929823376448 0.6702070176623552 
</TABLE>
</DEFINITION>
<DEFINITION>
<FOR>class</FOR>
<TABLE>
0.07850185167895933 0.9214981483210407 
</TABLE>
</DEFINITION>
</NETWORK>
</BIF>
