<?xml version="1.0"?>
<!-- DTD for the XMLBIF 0.3 format -->
<!DOCTYPE BIF [
	<!ELEMENT BIF ( NETWORK )*>
	      <!ATTLIST BIF VERSION CDATA #REQUIRED>
	<!ELEMENT NETWORK ( NAME, ( PROPERTY | VARIABLE | DEFINITION )* )>
	<!ELEMENT NAME (#PCDATA)>
	<!ELEMENT VARIABLE ( NAME, ( OUTCOME |  PROPERTY )* ) >
	      <!ATTLIST VARIABLE TYPE (nature|decision|utility) "nature">
	<!ELEMENT OUTCOME (#PCDATA)>
	<!ELEMENT DEFINITION ( FOR | GIVEN | TABLE | PROPERTY )* >
	<!ELEMENT FOR (#PCDATA)>
	<!ELEMENT GIVEN (#PCDATA)>
	<!ELEMENT TABLE (#PCDATA)>
	<!ELEMENT PROPERTY (#PCDATA)>
]>


<BIF VERSION="0.3">
<NETWORK>
<NAME>TrainingData_g1_10-weka.filters.unsupervised.attribute.Remove-V-R2-3,7-8,20</NAME>
<VARIABLE TYPE="nature">
<NAME>light_hallway</NAME>
<OUTCOME>off</OUTCOME>
<OUTCOME>on</OUTCOME>
<PROPERTY>position = (0,0)</PROPERTY>
</VARIABLE>
<VARIABLE TYPE="nature">
<NAME>light_bedroom</NAME>
<OUTCOME>off</OUTCOME>
<OUTCOME>on</OUTCOME>
<PROPERTY>position = (50,0)</PROPERTY>
</VARIABLE>
<VARIABLE TYPE="nature">
<NAME>current_fan_livingroom</NAME>
<OUTCOME>off</OUTCOME>
<OUTCOME>standby</OUTCOME>
<OUTCOME>on</OUTCOME>
<PROPERTY>position = (100,0)</PROPERTY>
</VARIABLE>
<VARIABLE TYPE="nature">
<NAME>current_lamp_bedroom</NAME>
<OUTCOME>off</OUTCOME>
<OUTCOME>standby</OUTCOME>
<OUTCOME>on</OUTCOME>
<PROPERTY>position = (150,0)</PROPERTY>
</VARIABLE>
<VARIABLE TYPE="nature">
<NAME>class</NAME>
<OUTCOME>OtherActivity</OUTCOME>
<OUTCOME>g1_10</OUTCOME>
<PROPERTY>position = (200,0)</PROPERTY>
</VARIABLE>
<DEFINITION>
<FOR>light_hallway</FOR>
<GIVEN>class</GIVEN>
<TABLE>
0.3989485981308411 0.6010514018691588 
0.998371335504886 0.0016286644951140066 
</TABLE>
</DEFINITION>
<DEFINITION>
<FOR>light_bedroom</FOR>
<GIVEN>class</GIVEN>
<TABLE>
0.7353971962616822 0.26460280373831774 
0.998371335504886 0.0016286644951140066 
</TABLE>
</DEFINITION>
<DEFINITION>
<FOR>current_fan_livingroom</FOR>
<GIVEN>class</GIVEN>
<TABLE>
5.837711617046118E-4 0.8669001751313485 0.13251605370694688 
0.0016260162601626016 0.9967479674796748 0.0016260162601626016 
</TABLE>
</DEFINITION>
<DEFINITION>
<FOR>current_lamp_bedroom</FOR>
<GIVEN>class</GIVEN>
<TABLE>
0.9136018680677175 5.837711617046118E-4 0.08581436077057793 
0.0016260162601626016 0.0016260162601626016 0.9967479674796748 
</TABLE>
</DEFINITION>
<DEFINITION>
<FOR>class</FOR>
<TABLE>
0.7362306368330465 0.26376936316695354 
</TABLE>
</DEFINITION>
</NETWORK>
</BIF>
