<?xml version="1.0"?>
<!-- DTD for the XMLBIF 0.3 format -->
<!DOCTYPE BIF [
	<!ELEMENT BIF ( NETWORK )*>
	      <!ATTLIST BIF VERSION CDATA #REQUIRED>
	<!ELEMENT NETWORK ( NAME, ( PROPERTY | VARIABLE | DEFINITION )* )>
	<!ELEMENT NAME (#PCDATA)>
	<!ELEMENT VARIABLE ( NAME, ( OUTCOME |  PROPERTY )* ) >
	      <!ATTLIST VARIABLE TYPE (nature|decision|utility) "nature">
	<!ELEMENT OUTCOME (#PCDATA)>
	<!ELEMENT DEFINITION ( FOR | GIVEN | TABLE | PROPERTY )* >
	<!ELEMENT FOR (#PCDATA)>
	<!ELEMENT GIVEN (#PCDATA)>
	<!ELEMENT TABLE (#PCDATA)>
	<!ELEMENT PROPERTY (#PCDATA)>
]>


<BIF VERSION="0.3">
<NETWORK>
<NAME>TrainingData_g2-5-weka.filters.unsupervised.attribute.Remove-V-R12,19,38,53</NAME>
<VARIABLE TYPE="nature">
<NAME>light_balcony</NAME>
<OUTCOME>off</OUTCOME>
<OUTCOME>on</OUTCOME>
<PROPERTY>position = (0,0)</PROPERTY>
</VARIABLE>
<VARIABLE TYPE="nature">
<NAME>current_TV_livingroom</NAME>
<OUTCOME>off</OUTCOME>
<OUTCOME>standby</OUTCOME>
<OUTCOME>on</OUTCOME>
<PROPERTY>position = (50,0)</PROPERTY>
</VARIABLE>
<VARIABLE TYPE="nature">
<NAME>camera_livingroom</NAME>
<OUTCOME>off</OUTCOME>
<OUTCOME>on</OUTCOME>
<PROPERTY>position = (100,0)</PROPERTY>
</VARIABLE>
<VARIABLE TYPE="nature">
<NAME>class</NAME>
<OUTCOME>OtherActivity</OUTCOME>
<OUTCOME>g2-5</OUTCOME>
<PROPERTY>position = (150,0)</PROPERTY>
</VARIABLE>
<DEFINITION>
<FOR>light_balcony</FOR>
<GIVEN>class</GIVEN>
<TABLE>
0.9418892623385813 0.058110737661418714 
0.9968944099378882 0.003105590062111801 
</TABLE>
</DEFINITION>
<DEFINITION>
<FOR>current_TV_livingroom</FOR>
<GIVEN>class</GIVEN>
<TABLE>
8.844078889183692E-5 0.754842133191828 0.24506942601928008 
0.0030959752321981426 0.0030959752321981426 0.9938080495356038 
</TABLE>
</DEFINITION>
<DEFINITION>
<FOR>camera_livingroom</FOR>
<GIVEN>class</GIVEN>
<TABLE>
0.734565717318238 0.2654342826817619 
0.003105590062111801 0.9968944099378882 
</TABLE>
</DEFINITION>
<DEFINITION>
<FOR>class</FOR>
<TABLE>
0.9723894718733872 0.027610528126612764 
</TABLE>
</DEFINITION>
</NETWORK>
</BIF>
