<?xml version="1.0"?>
<!-- DTD for the XMLBIF 0.3 format -->
<!DOCTYPE BIF [
	<!ELEMENT BIF ( NETWORK )*>
	      <!ATTLIST BIF VERSION CDATA #REQUIRED>
	<!ELEMENT NETWORK ( NAME, ( PROPERTY | VARIABLE | DEFINITION )* )>
	<!ELEMENT NAME (#PCDATA)>
	<!ELEMENT VARIABLE ( NAME, ( OUTCOME |  PROPERTY )* ) >
	      <!ATTLIST VARIABLE TYPE (nature|decision|utility) "nature">
	<!ELEMENT OUTCOME (#PCDATA)>
	<!ELEMENT DEFINITION ( FOR | GIVEN | TABLE | PROPERTY )* >
	<!ELEMENT FOR (#PCDATA)>
	<!ELEMENT GIVEN (#PCDATA)>
	<!ELEMENT TABLE (#PCDATA)>
	<!ELEMENT PROPERTY (#PCDATA)>
]>


<BIF VERSION="0.3">
<NETWORK>
<NAME>TrainingData_g2_5-weka.filters.unsupervised.attribute.Remove-V-R1,3,11,14-15,20</NAME>
<VARIABLE TYPE="nature">
<NAME>light_livingroom</NAME>
<OUTCOME>off</OUTCOME>
<OUTCOME>on</OUTCOME>
<PROPERTY>position = (0,0)</PROPERTY>
</VARIABLE>
<VARIABLE TYPE="nature">
<NAME>light_bedroom</NAME>
<OUTCOME>off</OUTCOME>
<OUTCOME>on</OUTCOME>
<PROPERTY>position = (50,0)</PROPERTY>
</VARIABLE>
<VARIABLE TYPE="nature">
<NAME>current_lamp_livingroom</NAME>
<OUTCOME>off</OUTCOME>
<OUTCOME>standby</OUTCOME>
<OUTCOME>on</OUTCOME>
<PROPERTY>position = (100,0)</PROPERTY>
</VARIABLE>
<VARIABLE TYPE="nature">
<NAME>current_AC_bedroom</NAME>
<OUTCOME>off</OUTCOME>
<OUTCOME>standby</OUTCOME>
<OUTCOME>on</OUTCOME>
<PROPERTY>position = (150,0)</PROPERTY>
</VARIABLE>
<VARIABLE TYPE="nature">
<NAME>current_AC_livingroom</NAME>
<OUTCOME>off</OUTCOME>
<OUTCOME>standby</OUTCOME>
<OUTCOME>on</OUTCOME>
<PROPERTY>position = (200,0)</PROPERTY>
</VARIABLE>
<VARIABLE TYPE="nature">
<NAME>class</NAME>
<OUTCOME>OtherActivity</OUTCOME>
<OUTCOME>g2_5</OUTCOME>
<PROPERTY>position = (250,0)</PROPERTY>
</VARIABLE>
<DEFINITION>
<FOR>light_livingroom</FOR>
<GIVEN>class</GIVEN>
<TABLE>
0.6254770992366412 0.37452290076335876 
0.004347826086956522 0.9956521739130435 
</TABLE>
</DEFINITION>
<DEFINITION>
<FOR>light_bedroom</FOR>
<GIVEN>class</GIVEN>
<TABLE>
0.8516221374045801 0.14837786259541985 
0.3782608695652174 0.6217391304347826 
</TABLE>
</DEFINITION>
<DEFINITION>
<FOR>current_lamp_livingroom</FOR>
<GIVEN>class</GIVEN>
<TABLE>
0.9990462565569862 4.768717215069146E-4 4.768717215069146E-4 
0.004329004329004329 0.004329004329004329 0.9913419913419913 
</TABLE>
</DEFINITION>
<DEFINITION>
<FOR>current_AC_bedroom</FOR>
<GIVEN>class</GIVEN>
<TABLE>
0.037672865999046255 0.9618502622794468 4.768717215069146E-4 
0.5844155844155844 0.41125541125541126 0.004329004329004329 
</TABLE>
</DEFINITION>
<DEFINITION>
<FOR>current_AC_livingroom</FOR>
<GIVEN>class</GIVEN>
<TABLE>
4.768717215069146E-4 0.9990462565569862 4.768717215069146E-4 
0.012987012987012988 0.9307359307359307 0.05627705627705628 
</TABLE>
</DEFINITION>
<DEFINITION>
<FOR>class</FOR>
<TABLE>
0.9014629948364888 0.09853700516351119 
</TABLE>
</DEFINITION>
</NETWORK>
</BIF>
