<?xml version="1.0"?>
<!-- DTD for the XMLBIF 0.3 format -->
<!DOCTYPE BIF [
	<!ELEMENT BIF ( NETWORK )*>
	      <!ATTLIST BIF VERSION CDATA #REQUIRED>
	<!ELEMENT NETWORK ( NAME, ( PROPERTY | VARIABLE | DEFINITION )* )>
	<!ELEMENT NAME (#PCDATA)>
	<!ELEMENT VARIABLE ( NAME, ( OUTCOME |  PROPERTY )* ) >
	      <!ATTLIST VARIABLE TYPE (nature|decision|utility) "nature">
	<!ELEMENT OUTCOME (#PCDATA)>
	<!ELEMENT DEFINITION ( FOR | GIVEN | TABLE | PROPERTY )* >
	<!ELEMENT FOR (#PCDATA)>
	<!ELEMENT GIVEN (#PCDATA)>
	<!ELEMENT TABLE (#PCDATA)>
	<!ELEMENT PROPERTY (#PCDATA)>
]>


<BIF VERSION="0.3">
<NETWORK>
<NAME>TrainingData_g3-13-weka.filters.unsupervised.attribute.Remove-V-R7-10,12,25,31,53</NAME>
<VARIABLE TYPE="nature">
<NAME>light_hallway</NAME>
<OUTCOME>off</OUTCOME>
<OUTCOME>on</OUTCOME>
<PROPERTY>position = (0,0)</PROPERTY>
</VARIABLE>
<VARIABLE TYPE="nature">
<NAME>light_livingroom</NAME>
<OUTCOME>off</OUTCOME>
<OUTCOME>on</OUTCOME>
<PROPERTY>position = (50,0)</PROPERTY>
</VARIABLE>
<VARIABLE TYPE="nature">
<NAME>light_bedroom</NAME>
<OUTCOME>off</OUTCOME>
<OUTCOME>on</OUTCOME>
<PROPERTY>position = (100,0)</PROPERTY>
</VARIABLE>
<VARIABLE TYPE="nature">
<NAME>light_bathroom</NAME>
<OUTCOME>off</OUTCOME>
<OUTCOME>on</OUTCOME>
<PROPERTY>position = (150,0)</PROPERTY>
</VARIABLE>
<VARIABLE TYPE="nature">
<NAME>light_balcony</NAME>
<OUTCOME>off</OUTCOME>
<OUTCOME>on</OUTCOME>
<PROPERTY>position = (200,0)</PROPERTY>
</VARIABLE>
<VARIABLE TYPE="nature">
<NAME>current_lamp_bedroom</NAME>
<OUTCOME>off</OUTCOME>
<OUTCOME>standby</OUTCOME>
<OUTCOME>on</OUTCOME>
<PROPERTY>position = (250,0)</PROPERTY>
</VARIABLE>
<VARIABLE TYPE="nature">
<NAME>current_fridge_kitchen</NAME>
<OUTCOME>off</OUTCOME>
<OUTCOME>standby</OUTCOME>
<OUTCOME>on</OUTCOME>
<PROPERTY>position = (300,0)</PROPERTY>
</VARIABLE>
<VARIABLE TYPE="nature">
<NAME>class</NAME>
<OUTCOME>OtherActivity</OUTCOME>
<OUTCOME>g3-13</OUTCOME>
<PROPERTY>position = (350,0)</PROPERTY>
</VARIABLE>
<DEFINITION>
<FOR>light_hallway</FOR>
<GIVEN>class</GIVEN>
<TABLE>
0.9599290117691014 0.04007098823089856 
0.9989154013015185 0.0010845986984815619 
</TABLE>
</DEFINITION>
<DEFINITION>
<FOR>light_livingroom</FOR>
<GIVEN>class</GIVEN>
<TABLE>
0.642910517466841 0.357089482533159 
0.9989154013015185 0.0010845986984815619 
</TABLE>
</DEFINITION>
<DEFINITION>
<FOR>light_bedroom</FOR>
<GIVEN>class</GIVEN>
<TABLE>
0.8725014010835046 0.12749859891649543 
0.0010845986984815619 0.9989154013015185 
</TABLE>
</DEFINITION>
<DEFINITION>
<FOR>light_bathroom</FOR>
<GIVEN>class</GIVEN>
<TABLE>
0.831963385017747 0.16803661498225295 
0.9989154013015185 0.0010845986984815619 
</TABLE>
</DEFINITION>
<DEFINITION>
<FOR>light_balcony</FOR>
<GIVEN>class</GIVEN>
<TABLE>
0.938632542499533 0.06136745750046703 
0.9989154013015185 0.0010845986984815619 
</TABLE>
</DEFINITION>
<DEFINITION>
<FOR>current_lamp_bedroom</FOR>
<GIVEN>class</GIVEN>
<TABLE>
0.9570374521341178 9.33968431867003E-5 0.04286915102269543 
0.0010834236186348862 0.0010834236186348862 0.9978331527627302 
</TABLE>
</DEFINITION>
<DEFINITION>
<FOR>current_fridge_kitchen</FOR>
<GIVEN>class</GIVEN>
<TABLE>
9.33968431867003E-5 0.7962080881666199 0.20369851499019334 
0.0010834236186348862 0.9978331527627302 0.0010834236186348862 
</TABLE>
</DEFINITION>
<DEFINITION>
<FOR>class</FOR>
<TABLE>
0.920781008085326 0.079218991914674 
</TABLE>
</DEFINITION>
</NETWORK>
</BIF>
