<?xml version="1.0"?>
<!-- DTD for the XMLBIF 0.3 format -->
<!DOCTYPE BIF [
	<!ELEMENT BIF ( NETWORK )*>
	      <!ATTLIST BIF VERSION CDATA #REQUIRED>
	<!ELEMENT NETWORK ( NAME, ( PROPERTY | VARIABLE | DEFINITION )* )>
	<!ELEMENT NAME (#PCDATA)>
	<!ELEMENT VARIABLE ( NAME, ( OUTCOME |  PROPERTY )* ) >
	      <!ATTLIST VARIABLE TYPE (nature|decision|utility) "nature">
	<!ELEMENT OUTCOME (#PCDATA)>
	<!ELEMENT DEFINITION ( FOR | GIVEN | TABLE | PROPERTY )* >
	<!ELEMENT FOR (#PCDATA)>
	<!ELEMENT GIVEN (#PCDATA)>
	<!ELEMENT TABLE (#PCDATA)>
	<!ELEMENT PROPERTY (#PCDATA)>
]>


<BIF VERSION="0.3">
<NETWORK>
<NAME>TrainingData_g4-10-weka.filters.unsupervised.attribute.Remove-V-R5,9,17,31-33,46,52-53</NAME>
<VARIABLE TYPE="nature">
<NAME>PIR_kitchen</NAME>
<OUTCOME>off</OUTCOME>
<OUTCOME>on</OUTCOME>
<PROPERTY>position = (0,0)</PROPERTY>
</VARIABLE>
<VARIABLE TYPE="nature">
<NAME>light_bedroom</NAME>
<OUTCOME>off</OUTCOME>
<OUTCOME>on</OUTCOME>
<PROPERTY>position = (50,0)</PROPERTY>
</VARIABLE>
<VARIABLE TYPE="nature">
<NAME>audio_kitchen</NAME>
<OUTCOME>off</OUTCOME>
<OUTCOME>little</OUTCOME>
<OUTCOME>loud</OUTCOME>
<PROPERTY>position = (100,0)</PROPERTY>
</VARIABLE>
<VARIABLE TYPE="nature">
<NAME>current_fridge_kitchen</NAME>
<OUTCOME>off</OUTCOME>
<OUTCOME>standby</OUTCOME>
<OUTCOME>on</OUTCOME>
<PROPERTY>position = (150,0)</PROPERTY>
</VARIABLE>
<VARIABLE TYPE="nature">
<NAME>current_riceCooker_kitchen</NAME>
<OUTCOME>off</OUTCOME>
<OUTCOME>standby</OUTCOME>
<OUTCOME>on</OUTCOME>
<PROPERTY>position = (200,0)</PROPERTY>
</VARIABLE>
<VARIABLE TYPE="nature">
<NAME>current_microwave_kitchen</NAME>
<OUTCOME>off</OUTCOME>
<OUTCOME>standby</OUTCOME>
<OUTCOME>on</OUTCOME>
<PROPERTY>position = (250,0)</PROPERTY>
</VARIABLE>
<VARIABLE TYPE="nature">
<NAME>temperature_kitchen</NAME>
<OUTCOME>low</OUTCOME>
<OUTCOME>high</OUTCOME>
<PROPERTY>position = (300,0)</PROPERTY>
</VARIABLE>
<VARIABLE TYPE="nature">
<NAME>accelerometer</NAME>
<OUTCOME>low</OUTCOME>
<OUTCOME>medium</OUTCOME>
<OUTCOME>high</OUTCOME>
<PROPERTY>position = (350,0)</PROPERTY>
</VARIABLE>
<VARIABLE TYPE="nature">
<NAME>class</NAME>
<OUTCOME>OtherActivity</OUTCOME>
<OUTCOME>g4-10</OUTCOME>
<PROPERTY>position = (400,0)</PROPERTY>
</VARIABLE>
<DEFINITION>
<FOR>PIR_kitchen</FOR>
<GIVEN>class</GIVEN>
<TABLE>
0.9882103990326482 0.011789600967351875 
5.868544600938967E-4 0.9994131455399061 
</TABLE>
</DEFINITION>
<DEFINITION>
<FOR>light_bedroom</FOR>
<GIVEN>class</GIVEN>
<TABLE>
0.7731761386537687 0.22682386134623136 
0.9794600938967136 0.020539906103286387 
</TABLE>
</DEFINITION>
<DEFINITION>
<FOR>audio_kitchen</FOR>
<GIVEN>class</GIVEN>
<TABLE>
0.9997984886649874 1.0075566750629723E-4 1.0075566750629723E-4 
5.865102639296188E-4 5.865102639296188E-4 0.9988269794721407 
</TABLE>
</DEFINITION>
<DEFINITION>
<FOR>current_fridge_kitchen</FOR>
<GIVEN>class</GIVEN>
<TABLE>
1.0075566750629723E-4 0.9516372795969773 0.048261964735516374 
5.865102639296188E-4 5.865102639296188E-4 0.9988269794721407 
</TABLE>
</DEFINITION>
<DEFINITION>
<FOR>current_riceCooker_kitchen</FOR>
<GIVEN>class</GIVEN>
<TABLE>
1.0075566750629723E-4 0.9619143576826197 0.03798488664987405 
5.865102639296188E-4 5.865102639296188E-4 0.9988269794721407 
</TABLE>
</DEFINITION>
<DEFINITION>
<FOR>current_microwave_kitchen</FOR>
<GIVEN>class</GIVEN>
<TABLE>
1.0075566750629723E-4 0.9667506297229219 0.03314861460957179 
5.865102639296188E-4 5.865102639296188E-4 0.9988269794721407 
</TABLE>
</DEFINITION>
<DEFINITION>
<FOR>temperature_kitchen</FOR>
<GIVEN>class</GIVEN>
<TABLE>
0.9998992341797662 1.0076582023377671E-4 
5.868544600938967E-4 0.9994131455399061 
</TABLE>
</DEFINITION>
<DEFINITION>
<FOR>accelerometer</FOR>
<GIVEN>class</GIVEN>
<TABLE>
0.25662468513853903 0.5554659949622166 0.18790931989924434 
5.865102639296188E-4 0.9988269794721407 5.865102639296188E-4 
</TABLE>
</DEFINITION>
<DEFINITION>
<FOR>class</FOR>
<TABLE>
0.8535179769482195 0.14648202305178049 
</TABLE>
</DEFINITION>
</NETWORK>
</BIF>
