<?xml version="1.0"?>
<!-- DTD for the XMLBIF 0.3 format -->
<!DOCTYPE BIF [
	<!ELEMENT BIF ( NETWORK )*>
	      <!ATTLIST BIF VERSION CDATA #REQUIRED>
	<!ELEMENT NETWORK ( NAME, ( PROPERTY | VARIABLE | DEFINITION )* )>
	<!ELEMENT NAME (#PCDATA)>
	<!ELEMENT VARIABLE ( NAME, ( OUTCOME |  PROPERTY )* ) >
	      <!ATTLIST VARIABLE TYPE (nature|decision|utility) "nature">
	<!ELEMENT OUTCOME (#PCDATA)>
	<!ELEMENT DEFINITION ( FOR | GIVEN | TABLE | PROPERTY )* >
	<!ELEMENT FOR (#PCDATA)>
	<!ELEMENT GIVEN (#PCDATA)>
	<!ELEMENT TABLE (#PCDATA)>
	<!ELEMENT PROPERTY (#PCDATA)>
]>


<BIF VERSION="0.3">
<NETWORK>
<NAME>TrainingData_g4-5-weka.filters.unsupervised.attribute.Remove-V-R1,7,13,30,37,53</NAME>
<VARIABLE TYPE="nature">
<NAME>PIR_hallway</NAME>
<OUTCOME>off</OUTCOME>
<OUTCOME>on</OUTCOME>
<PROPERTY>position = (0,0)</PROPERTY>
</VARIABLE>
<VARIABLE TYPE="nature">
<NAME>light_hallway</NAME>
<OUTCOME>off</OUTCOME>
<OUTCOME>on</OUTCOME>
<PROPERTY>position = (50,0)</PROPERTY>
</VARIABLE>
<VARIABLE TYPE="nature">
<NAME>audio_hallway</NAME>
<OUTCOME>off</OUTCOME>
<OUTCOME>on</OUTCOME>
<PROPERTY>position = (100,0)</PROPERTY>
</VARIABLE>
<VARIABLE TYPE="nature">
<NAME>current_exhaustFan_bathroom</NAME>
<OUTCOME>off</OUTCOME>
<OUTCOME>standby</OUTCOME>
<OUTCOME>on</OUTCOME>
<PROPERTY>position = (150,0)</PROPERTY>
</VARIABLE>
<VARIABLE TYPE="nature">
<NAME>camera_hallway</NAME>
<OUTCOME>off</OUTCOME>
<OUTCOME>on</OUTCOME>
<PROPERTY>position = (200,0)</PROPERTY>
</VARIABLE>
<VARIABLE TYPE="nature">
<NAME>class</NAME>
<OUTCOME>OtherActivity</OUTCOME>
<OUTCOME>g4-5</OUTCOME>
<PROPERTY>position = (250,0)</PROPERTY>
</VARIABLE>
<DEFINITION>
<FOR>PIR_hallway</FOR>
<GIVEN>class</GIVEN>
<TABLE>
0.9999137336093857 8.62663906142167E-5 
0.027777777777777776 0.9722222222222222 
</TABLE>
</DEFINITION>
<DEFINITION>
<FOR>light_hallway</FOR>
<GIVEN>class</GIVEN>
<TABLE>
0.9659247757073844 0.0340752242926156 
0.027777777777777776 0.9722222222222222 
</TABLE>
</DEFINITION>
<DEFINITION>
<FOR>audio_hallway</FOR>
<GIVEN>class</GIVEN>
<TABLE>
0.9999137336093857 8.62663906142167E-5 
0.027777777777777776 0.9722222222222222 
</TABLE>
</DEFINITION>
<DEFINITION>
<FOR>current_exhaustFan_bathroom</FOR>
<GIVEN>class</GIVEN>
<TABLE>
0.9532476494436298 8.625894936599672E-5 0.046666091607004224 
0.7837837837837838 0.02702702702702703 0.1891891891891892 
</TABLE>
</DEFINITION>
<DEFINITION>
<FOR>camera_hallway</FOR>
<GIVEN>class</GIVEN>
<TABLE>
0.9999137336093857 8.62663906142167E-5 
0.027777777777777776 0.9722222222222222 
</TABLE>
</DEFINITION>
<DEFINITION>
<FOR>class</FOR>
<TABLE>
0.9969895062790297 0.003010493720970239 
</TABLE>
</DEFINITION>
</NETWORK>
</BIF>
