<?xml version="1.0"?>
<!-- DTD for the XMLBIF 0.3 format -->
<!DOCTYPE BIF [
	<!ELEMENT BIF ( NETWORK )*>
	      <!ATTLIST BIF VERSION CDATA #REQUIRED>
	<!ELEMENT NETWORK ( NAME, ( PROPERTY | VARIABLE | DEFINITION )* )>
	<!ELEMENT NAME (#PCDATA)>
	<!ELEMENT VARIABLE ( NAME, ( OUTCOME |  PROPERTY )* ) >
	      <!ATTLIST VARIABLE TYPE (nature|decision|utility) "nature">
	<!ELEMENT OUTCOME (#PCDATA)>
	<!ELEMENT DEFINITION ( FOR | GIVEN | TABLE | PROPERTY )* >
	<!ELEMENT FOR (#PCDATA)>
	<!ELEMENT GIVEN (#PCDATA)>
	<!ELEMENT TABLE (#PCDATA)>
	<!ELEMENT PROPERTY (#PCDATA)>
]>


<BIF VERSION="0.3">
<NETWORK>
<NAME>TrainingData_g8-3-weka.filters.unsupervised.attribute.Remove-V-R16,30,38,53</NAME>
<VARIABLE TYPE="nature">
<NAME>audio_bathroom</NAME>
<OUTCOME>off</OUTCOME>
<OUTCOME>little</OUTCOME>
<OUTCOME>loud</OUTCOME>
<PROPERTY>position = (0,0)</PROPERTY>
</VARIABLE>
<VARIABLE TYPE="nature">
<NAME>current_exhaustFan_bathroom</NAME>
<OUTCOME>off</OUTCOME>
<OUTCOME>standby</OUTCOME>
<OUTCOME>on</OUTCOME>
<PROPERTY>position = (50,0)</PROPERTY>
</VARIABLE>
<VARIABLE TYPE="nature">
<NAME>camera_livingroom</NAME>
<OUTCOME>off</OUTCOME>
<OUTCOME>on</OUTCOME>
<PROPERTY>position = (100,0)</PROPERTY>
</VARIABLE>
<VARIABLE TYPE="nature">
<NAME>class</NAME>
<OUTCOME>OtherActivity</OUTCOME>
<OUTCOME>g8-3</OUTCOME>
<PROPERTY>position = (150,0)</PROPERTY>
</VARIABLE>
<DEFINITION>
<FOR>audio_bathroom</FOR>
<GIVEN>class</GIVEN>
<TABLE>
0.9680142159040427 8.884940026654821E-5 0.031896934695690805 
0.0026666666666666666 0.9946666666666667 0.0026666666666666666 
</TABLE>
</DEFINITION>
<DEFINITION>
<FOR>current_exhaustFan_bathroom</FOR>
<GIVEN>class</GIVEN>
<TABLE>
0.9690804087072412 8.884940026654821E-5 0.030830741892492224 
0.4613333333333333 0.0026666666666666666 0.536 
</TABLE>
</DEFINITION>
<DEFINITION>
<FOR>camera_livingroom</FOR>
<GIVEN>class</GIVEN>
<TABLE>
0.7056157810556246 0.29438421894437533 
0.9759358288770054 0.02406417112299465 
</TABLE>
</DEFINITION>
<DEFINITION>
<FOR>class</FOR>
<TABLE>
0.9679167383450886 0.032083261654911405 
</TABLE>
</DEFINITION>
</NETWORK>
</BIF>
