<?xml version="1.0"?>
<!-- DTD for the XMLBIF 0.3 format -->
<!DOCTYPE BIF [
	<!ELEMENT BIF ( NETWORK )*>
	      <!ATTLIST BIF VERSION CDATA #REQUIRED>
	<!ELEMENT NETWORK ( NAME, ( PROPERTY | VARIABLE | DEFINITION )* )>
	<!ELEMENT NAME (#PCDATA)>
	<!ELEMENT VARIABLE ( NAME, ( OUTCOME |  PROPERTY )* ) >
	      <!ATTLIST VARIABLE TYPE (nature|decision|utility) "nature">
	<!ELEMENT OUTCOME (#PCDATA)>
	<!ELEMENT DEFINITION ( FOR | GIVEN | TABLE | PROPERTY )* >
	<!ELEMENT FOR (#PCDATA)>
	<!ELEMENT GIVEN (#PCDATA)>
	<!ELEMENT TABLE (#PCDATA)>
	<!ELEMENT PROPERTY (#PCDATA)>
]>


<BIF VERSION="0.3">
<NETWORK>
<NAME>TrainingData_g9-4-weka.filters.unsupervised.attribute.Remove-V-R9,28-29,52-53</NAME>
<VARIABLE TYPE="nature">
<NAME>light_bedroom</NAME>
<OUTCOME>off</OUTCOME>
<OUTCOME>on</OUTCOME>
<PROPERTY>position = (0,0)</PROPERTY>
</VARIABLE>
<VARIABLE TYPE="nature">
<NAME>current_fan_bedroom</NAME>
<OUTCOME>off</OUTCOME>
<OUTCOME>standby</OUTCOME>
<OUTCOME>on</OUTCOME>
<PROPERTY>position = (50,0)</PROPERTY>
</VARIABLE>
<VARIABLE TYPE="nature">
<NAME>current_speaker_bedroom</NAME>
<OUTCOME>off</OUTCOME>
<OUTCOME>standby</OUTCOME>
<OUTCOME>on</OUTCOME>
<PROPERTY>position = (100,0)</PROPERTY>
</VARIABLE>
<VARIABLE TYPE="nature">
<NAME>accelerometer</NAME>
<OUTCOME>low</OUTCOME>
<OUTCOME>medium</OUTCOME>
<OUTCOME>high</OUTCOME>
<PROPERTY>position = (150,0)</PROPERTY>
</VARIABLE>
<VARIABLE TYPE="nature">
<NAME>class</NAME>
<OUTCOME>OtherActivity</OUTCOME>
<OUTCOME>g9-4</OUTCOME>
<PROPERTY>position = (200,0)</PROPERTY>
</VARIABLE>
<DEFINITION>
<FOR>light_bedroom</FOR>
<GIVEN>class</GIVEN>
<TABLE>
0.9568735914771563 0.04312640852284368 
5.359056806002144E-4 0.9994640943193998 
</TABLE>
</DEFINITION>
<DEFINITION>
<FOR>current_fan_bedroom</FOR>
<GIVEN>class</GIVEN>
<TABLE>
0.8742189900645293 1.0242753252074157E-4 0.1256785824029499 
5.356186395286556E-4 5.356186395286556E-4 0.9989287627209427 
</TABLE>
</DEFINITION>
<DEFINITION>
<FOR>current_speaker_bedroom</FOR>
<GIVEN>class</GIVEN>
<TABLE>
0.9916009423332992 1.0242753252074157E-4 0.008296630134180067 
0.10765934654525977 5.356186395286556E-4 0.8918050348152116 
</TABLE>
</DEFINITION>
<DEFINITION>
<FOR>accelerometer</FOR>
<GIVEN>class</GIVEN>
<TABLE>
0.2608829253303288 0.5503431322339445 0.18877394243572673 
5.356186395286556E-4 0.9871451526513123 0.012319228709159078 
</TABLE>
</DEFINITION>
<DEFINITION>
<FOR>class</FOR>
<TABLE>
0.839583691725443 0.16041630827455702 
</TABLE>
</DEFINITION>
</NETWORK>
</BIF>
